label,d0,d1,d2,d3,d4,d5,d6,d7,d8,d9,d10,d11,d12,d13,d14,d15,d16,d17,d18,d19,d20,d21,d22,d23,d24,d25,d26,d27,d28,d29
mastic_gum_oil,-0.16430428624153137,2.2679598331451416,2.3861870765686035,0.7702497243881226,-0.08375626802444458,0.4376564919948578,-0.6287276148796082,0.6503551006317139,0.9263012409210205,1.629503846168518,1.0393853187561035,0.1554383784532547,-0.30164122581481934,-1.0994781255722046,-0.7655891180038452,-0.03148885443806648,-1.7332830429077148,1.2572799921035767,0.08253590017557144,0.06425667554140091,-0.3900110125541687,0.5937653183937073,1.612786054611206,0.9577490091323853,-0.8294969797134399,0.9897407293319702,0.40692320466041565,0.007422159425914288,0.7920180559158325,0.4125365614891052
butter,1.330521583557129,-0.2752111554145813,0.5053833723068237,0.7314057350158691,0.9287436008453369,-0.9559872150421143,-0.5711013078689575,0.8623791337013245,-1.1775281429290771,1.9048207998275757,2.0193629264831543,0.08575347810983658,-2.267392873764038,0.17643076181411743,0.4925902187824249,0.9031754732131958,0.08451034128665924,1.925791621208191,-0.27219003438949585,-1.981914758682251,1.0032588243484497,1.151649832725525,-0.9069949984550476,0.22032831609249115,-1.5533576011657715,-0.538672685623169,-0.12060169875621796,-0.030903371050953865,1.0364289283752441,-0.2903920114040375
hyacinth_oil,1.370108962059021,0.963882565498352,1.3373922109603882,1.015551209449768,0.8988832235336304,-0.8563486337661743,-2.9785397052764893,0.9398587346076965,0.5221760272979736,-1.5331652164459229,-0.3027161955833435,0.9319108128547668,-0.7152262926101685,-2.0660555362701416,0.8789852857589722,-0.79181307554245,0.4912506937980652,-0.6803738474845886,0.09322325885295868,0.3868931233882904,-1.2354835271835327,-0.4993024468421936,1.25738525390625,0.8017256259918213,-0.5630784630775452,-0.12258811295032501,-0.07112839818000793,-0.05992771312594414,-1.065180778503418,-0.19139932096004486
tuna,2.7046399116516113,-0.563730001449585,1.7590316534042358,-0.24203181266784668,-0.8500422835350037,0.7356930375099182,0.19823840260505676,1.3709043264389038,-0.24426567554473877,0.9063563942909241,-1.1401947736740112,1.1382392644882202,-2.6092052459716797,0.26654303073883057,0.4806790351867676,0.98038250207901,-0.24959535896778107,-0.9375604391098022,0.21302823722362518,-0.9165790677070618,1.4570162296295166,-0.39485877752304077,-0.18085698783397675,-0.4782843589782715,-1.110065221786499,-0.040340472012758255,-0.6417577862739563,0.11578625440597534,2.3964474201202393,0.6461902856826782
rabbiteye_blueberry,-1.7476750612258911,-0.07692314684391022,-0.574475109577179,0.5599026679992676,0.6263327598571777,1.0509991645812988,-1.546051025390625,-0.46103984117507935,0.3728991448879242,-0.8953765034675598,-2.357973575592041,-2.214817762374878,-2.4025402069091797,1.1173560619354248,-0.05696944519877434,1.1737340688705444,-2.3288381099700928,-1.496887445449829,-1.4406129121780396,0.25003451108932495,-0.905835747718811,-0.5256004333496094,1.2805010080337524,0.15366323292255402,-0.5677616000175476,-0.5232492089271545,0.7362253069877625,0.6039523482322693,-0.12238434702157974,-0.893429160118103
trassi,3.213196039199829,1.394254446029663,-0.004147050436586142,2.030092716217041,0.2221594899892807,-1.865670084953308,0.03471020609140396,1.913129448890686,1.9013290405273438,0.6184959411621094,-0.08254047483205795,1.3968456983566284,-0.6896074414253235,1.0059072971343994,-0.09730427712202072,-0.08557424694299698,-0.6560431718826294,-0.03578544780611992,-0.7968186736106873,1.562754511833191,-0.5354618430137634,-1.296512484550476,1.5691940784454346,-1.2345510721206665,-0.9980969429016113,-1.8745787143707275,0.9369505643844604,0.2983720898628235,-0.20304426550865173,0.337619811296463
meat,1.9137675762176514,2.982290267944336,-0.09891995042562485,0.6995459794998169,-0.7009045481681824,-0.4102817177772522,-1.3452823162078857,-1.6933728456497192,0.23595352470874786,1.5630285739898682,-0.5266896486282349,1.5650817155838013,-3.3249142169952393,0.3100643754005432,-0.9844023585319519,-0.702014148235321,-1.008078932762146,2.4971048831939697,-1.8700510263442993,0.9407715201377869,-0.6535319685935974,-0.6119749546051025,-1.2145172357559204,0.07956929504871368,2.102646589279175,-1.5153194665908813,0.8248403668403625,1.2989310026168823,1.100927710533142,1.3171215057373047
bread,-0.009687663987278938,-2.6101479530334473,2.2668511867523193,-0.14486023783683777,-0.5947279334068298,0.9647362232208252,-1.091902494430542,-0.15388423204421997,-1.1261255741119385,-2.30587100982666,-0.6150183081626892,0.712149441242218,-0.5914427638053894,0.42139965295791626,1.5282981395721436,0.91890949010849,-0.5859938859939575,0.06664019078016281,0.32019534707069397,1.1384044885635376,1.636880874633789,-1.4145236015319824,1.4987176656723022,-1.9324291944503784,0.3268376290798187,-1.608565330505371,-0.016141502186655998,0.9375232458114624,1.4544554948806763,0.41004788875579834
pear_brandy,0.7176884412765503,0.6592298746109009,2.274641513824463,-0.24313177168369293,1.3831100463867188,-0.053247950971126556,0.054384857416152954,-0.38772884011268616,-2.8158340454101562,-2.4189562797546387,-0.6596263647079468,-0.8286254405975342,-1.3188451528549194,-0.5572047233581543,-1.5699511766433716,-2.248481512069702,1.1970326900482178,-0.5079222917556763,-1.217186450958252,-0.48208343982696533,0.17046476900577545,1.8008953332901,-0.1976362019777298,-0.05802450329065323,-0.8347444534301758,-0.723798394203186,0.7855626940727234,0.4384409785270691,2.653998613357544,0.38057467341423035
fig,0.07824189960956573,0.22119800746440887,0.26818984746932983,2.5821855068206787,-0.8989944458007812,1.2953194379806519,-0.3738495409488678,-2.080103874206543,0.1474509984254837,0.4154813587665558,-0.48492521047592163,0.6440051794052124,0.1583026796579361,2.3977537155151367,-0.18032580614089966,-1.8885555267333984,-0.3963589370250702,-0.10135576874017715,-1.2001866102218628,1.4270052909851074,0.8431174755096436,0.5074170827865601,0.19965410232543945,2.727358341217041,-1.8918087482452393,0.31237873435020447,0.8997324705123901,-1.9739779233932495,1.7433454990386963,1.039162039756775
roasted_sesame_seed,-0.07672513276338577,2.4849507808685303,1.3904718160629272,-0.1336338371038437,-0.35336264967918396,1.3522766828536987,-0.0931336060166359,-1.5464353561401367,-0.815741777420044,0.9015586376190186,-1.0458037853240967,2.3544657230377197,-1.4689655303955078,0.036158908158540726,1.3148459196090698,-1.2718589305877686,-0.7029548287391663,-0.12045604735612869,-0.4606151580810547,0.24155482649803162,1.6226963996887207,-0.014868495054543018,-0.047862082719802856,0.7209750413894653,-0.14374254643917084,-1.052135944366455,-2.6178860664367676,-1.149996042251587,1.070074439048767,-1.0508509874343872
bitter_orange,-1.814591884613037,0.009056651033461094,-0.605817973613739,-0.03592006489634514,0.46902525424957275,1.2548203468322754,-0.13508698344230652,0.18666598200798035,1.8337582349777222,-1.2126511335372925,1.023508071899414,-1.5111302137374878,-0.03453243523836136,2.582498550415039,-0.8424381017684937,1.2877415418624878,-0.20585931837558746,0.043258290737867355,-1.7544283866882324,-0.8294007778167725,-0.9691330194473267,-0.7267636060714722,-0.9077187776565552,-0.9037497043609619,0.7361549139022827,0.6509631872177124,0.7933543920516968,-0.6584965586662292,0.6410502791404724,-0.2724970877170563
clary_sage,-1.6448248624801636,0.9720495343208313,-0.5811845064163208,1.1849534511566162,0.7182839512825012,0.2870556116104126,-1.392763614654541,0.8651233911514282,0.7541687488555908,-0.5424101948738098,0.280483603477478,-1.816514015197754,-1.507785439491272,-0.45582497119903564,0.28624141216278076,-1.2263134717941284,-1.0091758966445923,-1.0635861158370972,-1.5839365720748901,-0.011431954801082611,-0.3474469780921936,-1.6120669841766357,-0.2709713280200958,-0.32858675718307495,1.1623215675354004,1.1809465885162354,0.4193548560142517,1.34070885181427,0.41580966114997864,0.5397632718086243
avocado,-0.9168291687965393,-0.4150763750076294,1.1452463865280151,0.6911072731018066,-1.3960298299789429,-0.786099374294281,-0.30477654933929443,-1.0704578161239624,0.7662254571914673,1.6065021753311157,0.4544004499912262,-1.3974932432174683,-1.0281496047973633,-1.124630331993103,-0.03407227620482445,-0.17603883147239685,-0.11241499334573746,0.768018901348114,-0.5072512626647949,-1.0054798126220703,-0.589540958404541,0.22276735305786133,-0.01415451243519783,-1.0733671188354492,-0.06975347548723221,0.3329842984676361,-1.3462719917297363,-0.005687064956873655,-0.4407021105289459,-0.16038300096988678
wild_berry,-0.5714777708053589,0.5572853088378906,0.721950352191925,1.843231201171875,-1.455980658531189,0.9874650835990906,-0.9853202700614929,-0.5579134821891785,-0.06723803281784058,-0.9720636010169983,0.15068458020687103,-1.2756164073944092,-1.996668815612793,0.09455552697181702,-0.9986321926116943,0.2865878641605377,0.9666938781738281,-0.9245304465293884,-0.7707733511924744,-0.0792323648929596,0.4494236707687378,-0.2682115137577057,1.0141295194625854,2.126511812210083,-1.5063817501068115,0.09027256816625595,-0.191038578748703,0.7613391876220703,0.7549808621406555,0.30987250804901123
california_orange_peel,0.7765995264053345,1.0700494050979614,0.7488154768943787,0.5202515721321106,1.3849444389343262,-1.8123939037322998,-1.9557894468307495,1.6975833177566528,0.31315532326698303,-0.3649996519088745,-0.8523843288421631,0.19487668573856354,-0.22376731038093567,-1.135132074356079,-1.315721035003662,-1.0539382696151733,-0.8892516493797302,2.1089258193969727,1.0155526399612427,0.44194015860557556,-1.4914088249206543,-1.380383849143982,-0.7587905526161194,-0.5174990296363831,0.4913271963596344,-0.9127592444419861,0.5960983037948608,1.6640846729278564,-0.1014915406703949,1.931473970413208
lime,0.04808300361037254,-1.360829472541809,-0.07150157541036606,0.7539193034172058,-1.589661955833435,0.5150150656700134,-0.0126503249630332,-0.4772699177265167,1.1154329776763916,-0.4534066915512085,-0.9040644764900208,-0.5182998776435852,-2.3356847763061523,-2.7961246967315674,-1.5561103820800781,0.14114104211330414,0.11833548545837402,0.37765175104141235,-0.2089342623949051,-1.204459547996521,-1.5148273706436157,-2.5709400177001953,0.11237179487943649,1.5142171382904053,0.5283143520355225,-0.26803824305534363,-0.7558925151824951,-0.655463457107544,1.5876365900039673,1.6170302629470825
buckwheat,0.07485172152519226,0.9188564419746399,1.625229835510254,0.9182568192481995,-0.16958452761173248,0.2480098456144333,-0.5185571312904358,0.8043805956840515,1.2654401063919067,0.15587013959884644,1.5122435092926025,0.884285569190979,-0.15702848136425018,0.6379324197769165,0.15001153945922852,2.5732483863830566,-1.788822054862976,0.4301815629005432,1.1434718370437622,0.07603898644447327,0.6973714828491211,1.7589764595031738,-0.13197900354862213,-0.9006526470184326,0.9846354722976685,-0.20508909225463867,0.2689492702484131,2.6686370372772217,0.8582286834716797,-1.1653167009353638
mussel,1.0527015924453735,-1.3549891710281372,2.0895133018493652,0.19120314717292786,1.0717096328735352,-0.23821379244327545,-1.147623896598816,0.6386725902557373,0.636197566986084,-2.7525713443756104,-0.8985388278961182,1.0101490020751953,0.2583816647529602,-0.2113703489303589,1.3866243362426758,1.936235785484314,0.9627318382263184,-1.8445143699645996,-0.39138609170913696,-0.6683726906776428,1.0902189016342163,1.1548120975494385,-0.7013351917266846,-0.3610229194164276,0.10223330557346344,-0.9435736536979675,0.8240304589271545,-0.45150330662727356,-0.038656070828437805,-0.4397667944431305
popcorn,0.40570178627967834,0.6702080965042114,0.39744046330451965,-1.1015535593032837,-0.28230905532836914,-0.18739762902259827,-0.6154605746269226,-0.6018031239509583,0.7463741898536682,-0.7432965636253357,-2.005249261856079,-0.5240210294723511,-1.1766663789749146,0.08910834044218063,1.6803051233291626,-3.0039045810699463,-2.3925843238830566,1.6711130142211914,-1.3122004270553589,0.9643060564994812,0.8210654854774475,0.46428823471069336,1.7001677751541138,0.5627938508987427,0.2797900438308716,-1.2337684631347656,-2.5379886627197266,0.8441401124000549,0.4651755690574646,2.4499292373657227
apple,-1.394885778427124,-1.339290976524353,1.6785997152328491,0.5991728901863098,1.3831011056900024,-0.8409048914909363,-0.701898455619812,-1.387810230255127,-0.16504555940628052,-0.3762226998806,0.2965962886810303,0.023272108286619186,-0.8708922266960144,-0.8332041501998901,-1.3995387554168701,-1.54989492893219,2.3728713989257812,0.9916800260543823,-0.2555406987667084,-0.4891425669193268,0.32840603590011597,-0.10583652555942535,-0.18012210726737976,0.1042814627289772,1.020603895187378,-0.042830586433410645,1.6129732131958008,-1.333214521408081,0.519127368927002,-0.9187887907028198
peppermint_oil,-0.07753375172615051,0.6663882732391357,0.0072525241412222385,-0.8262858986854553,-0.4677433967590332,-0.5861328840255737,0.5891301035881042,0.02785077691078186,-0.06909871846437454,0.33159196376800537,0.41504812240600586,-0.8606153726577759,-0.32163533568382263,0.2124493569135666,-1.5792622566223145,-0.11637049913406372,-1.2675323486328125,-1.9265685081481934,1.6876837015151978,-2.3690435886383057,2.2519516944885254,1.085155725479126,-0.21216920018196106,-0.8494598865509033,-0.9653328061103821,-0.37462395429611206,-0.6856151223182678,-0.8554537296295166,1.538630723953247,0.11553583294153214
asparagus,-0.989909827709198,-0.6121833324432373,-0.0020179736893624067,-0.568558394908905,-0.9779756665229797,0.33456194400787354,-0.6306334137916565,0.0919831395149231,-1.8884503841400146,0.3601688742637634,-0.3209310472011566,-0.9213998317718506,-0.7556285858154297,-0.019180316478013992,0.6304604411125183,0.06352688372135162,-2.2526183128356934,-0.5380375981330872,-0.5238560438156128,1.5530505180358887,0.5407567620277405,-1.799652099609375,1.8440756797790527,0.08040274679660797,-1.0398569107055664,0.9837512969970703,0.354792982339859,1.3074291944503784,1.0207496881484985,1.3060672283172607
fruit_brandy,-0.0741247609257698,-1.041061520576477,-0.051881566643714905,-0.6621850728988647,0.7992815375328064,0.3383176624774933,0.4495443105697632,-2.029258966445923,-0.3260110914707184,-2.559993028640747,0.04928070679306984,0.6329753994941711,0.9176360368728638,0.3472869098186493,-1.6525417566299438,0.27693837881088257,1.3585782051086426,0.3910548985004425,-0.7693820595741272,1.6682496070861816,1.1231929063796997,0.11058179289102554,0.7571532726287842,0.2375793606042862,1.0645430088043213,0.43926912546157837,-0.07601625472307205,-0.42488062381744385,0.9137297868728638,1.596581220626831
myrtleberry,-2.1339681148529053,-0.06627949327230453,-0.004656755831092596,-0.4887476861476898,-0.7196531891822815,0.8423293232917786,0.6038774847984314,-1.52878737449646,1.056753396987915,-0.4794570505619049,-1.5167968273162842,-0.9979633688926697,-0.7662193775177002,2.098454236984253,-1.3272733688354492,-0.47372105717658997,-0.922869861125946,-0.8808242678642273,-0.7811773419380188,-0.10280614346265793,0.4820307195186615,-1.2263973951339722,1.91754150390625,1.5332281589508057,-0.4905904233455658,0.8581161499023438,0.821709394454956,2.005512237548828,-0.27648791670799255,0.36554691195487976
elderberry_fruit,-0.02254471555352211,1.3564873933792114,2.0377557277679443,0.6264728903770447,0.5587198138237,0.4822041988372803,-0.6291818618774414,-0.21314066648483276,1.8336005210876465,0.7018774747848511,0.5871397852897644,0.746290385723114,-0.31375977396965027,-1.4478164911270142,-1.352860689163208,1.2762842178344727,-0.3651941120624542,-1.547532558441162,-0.271580308675766,-0.6612558960914612,-0.9872321486473083,0.2277020663022995,-0.9513600468635559,1.4345487356185913,0.2552341818809509,0.22992244362831116,-1.2877057790756226,-0.4061327576637268,0.8066498041152954,-0.7175337672233582
barley,-0.3380509912967682,-1.245255470275879,-1.6332470178604126,-0.34555330872535706,0.27960190176963806,0.6024971604347229,-3.024928569793701,-1.2740328311920166,-1.1868302822113037,0.327052503824234,-0.9501095414161682,-0.45469820499420166,-0.9808321595191956,-0.5723028779029846,1.518487811088562,0.7575986981391907,-0.501220166683197,0.7060478329658508,0.8052390217781067,-1.0820213556289673,0.9189978241920471,0.6878390908241272,2.3244853019714355,-0.9183803200721741,-0.19984591007232666,-0.6672288775444031,0.41558218002319336,0.7033971548080444,0.8264432549476624,1.8918251991271973
mate,-0.3479701578617096,1.2656984329223633,-1.7015148401260376,0.3016425669193268,-0.8109444379806519,0.048327475786209106,-1.7495360374450684,2.1311089992523193,0.38565129041671753,0.22762727737426758,1.3598647117614746,-0.6936065554618835,-0.44245848059654236,1.0790549516677856,-1.2356009483337402,-1.3967260122299194,-1.254245400428772,-0.12985078990459442,-0.7309243679046631,-0.4955306947231293,0.766285240650177,-0.6396686434745789,0.43323105573654175,-2.0799224376678467,-3.2211709022521973,-0.6309279799461365,1.3710613250732422,2.0906124114990234,0.49625006318092346,0.9448874592781067
sparkling_wine,-0.24382872879505157,-1.5746586322784424,1.7393810749053955,0.09874460101127625,-0.1622338443994522,-1.542672872543335,-0.8610297441482544,0.38377875089645386,2.536210298538208,-0.07064802944660187,0.5824319124221802,0.4530028700828552,-1.7680683135986328,-1.4661709070205688,-0.2474205642938614,-1.7313090562820435,2.4709091186523438,-3.100465774536133,-1.9877283573150635,0.4014550447463989,-0.14541012048721313,0.7360031008720398,-0.9819525480270386,1.09614896774292,0.1336164027452469,-1.8375682830810547,-1.2010763883590698,-0.571505069732666,-0.38008856773376465,0.26790860295295715
pepino_melon,2.233940839767456,-1.9603984355926514,-0.6023610234260559,0.7457000017166138,1.118303894996643,1.4026238918304443,-0.6222236752510071,-2.162447452545166,-0.3098507523536682,-0.5398411750793457,0.18217536807060242,2.5376498699188232,-2.699720621109009,0.5099623799324036,0.5570138692855835,0.32767724990844727,1.2222963571548462,1.576314926147461,1.093669056892395,0.23137904703617096,-0.2829287350177765,-1.789487600326538,0.2191801816225052,0.530811607837677,0.016489313915371895,0.36055535078048706,-0.25943565368652344,0.38926008343696594,0.9807344675064087,-0.27338868379592896
provolone_cheese,-0.7594141960144043,1.5170899629592896,0.5700832009315491,-0.5543583035469055,-0.5806527733802795,-0.7141208648681641,-1.0646162033081055,0.9410961270332336,0.1992107629776001,-0.02452933043241501,-1.0927397012710571,0.046052441000938416,-1.6621700525283813,-0.03617090731859207,0.9966816306114197,0.6782611012458801,0.03264268860220909,-0.4767691493034363,-0.4029412567615509,2.2328476905822754,0.868040919303894,0.05184317007660866,-0.42070263624191284,0.08797653764486313,0.4113110601902008,-2.008052110671997,-0.3132402300834656,-2.4268760681152344,1.731494426727295,-0.6641070246696472
wild_raspberry,-0.5664223432540894,1.0015090703964233,1.4907351732254028,1.1278762817382812,-0.34403589367866516,2.081411838531494,-0.45671436190605164,-2.9017372131347656,1.8903355598449707,-0.7499673366546631,-0.8820585608482361,-0.7583386898040771,-1.673213005065918,0.8250657320022583,1.4649362564086914,0.29606327414512634,1.0603632926940918,-2.015594244003296,-1.0217063426971436,-0.4837632477283478,-0.4170816242694855,-0.23026297986507416,1.3122987747192383,1.5229116678237915,0.3153793215751648,-0.5551083087921143,-0.1764439344406128,0.8653883934020996,0.1385832577943802,0.09154357761144638
scotch_spearmint_oil,0.591437578201294,0.2046714723110199,-0.4520776569843292,0.2472015768289566,0.4359634816646576,0.3484131991863251,-0.5416265726089478,-0.39332786202430725,0.7510384917259216,1.3446218967437744,-0.12051399052143097,-0.20434679090976715,0.4734923839569092,0.5540612936019897,-0.35447046160697937,0.8088759183883667,-2.78214430809021,-1.8616834878921509,-0.7061613202095032,-1.257822036743164,0.7523986101150513,0.6221775412559509,0.990816593170166,0.05539233610033989,-0.7106296420097351,0.9269017577171326,1.60988187789917,-0.7252794504165649,1.2444533109664917,0.7175750136375427
mastic_gum_fruit_oil,-1.257002353668213,0.538529098033905,0.4050082862377167,0.4894910752773285,-0.1278686821460724,0.42147427797317505,-0.042196083813905716,0.0314147062599659,1.2233541011810303,-0.08805689215660095,-2.135436773300171,0.7696124911308289,1.1689575910568237,0.1487225890159607,0.6754480004310608,-1.1141787767410278,0.45118752121925354,-1.2762844562530518,0.6127113699913025,0.011821987107396126,-0.9990009069442749,0.544086754322052,1.4637762308120728,0.6839674711227417,-0.7564777135848999,-0.768082320690155,0.4237092435359955,0.3677504360675812,1.137984275817871,1.9051649570465088
corn_mint,0.24847522377967834,0.055830132216215134,-0.7723156213760376,2.9345436096191406,0.3168990910053253,0.972947359085083,0.7125396132469177,-1.085404634475708,1.489742636680603,-0.2517377734184265,1.4976811408996582,1.0027544498443604,0.6627014875411987,0.25597134232521057,-0.4832860231399536,0.20809099078178406,0.7580552101135254,0.5879380106925964,0.8141247034072876,-0.2891049385070801,0.6608384847640991,-0.40287482738494873,-0.06722228974103928,-1.4530909061431885,0.19746263325214386,-0.44661375880241394,0.9300776124000549,-0.8900352716445923,1.093489170074463,-0.7354234457015991
origanum,0.7943872213363647,0.6940916180610657,1.0386502742767334,-1.9522026777267456,0.29915207624435425,0.7585232853889465,-0.7264708280563354,-1.646804928779602,1.4505739212036133,0.1817881464958191,-0.36645811796188354,-0.200291246175766,0.4412349462509155,-2.2505130767822266,-0.9619749188423157,-1.2378919124603271,0.7801874279975891,0.568257212638855,0.24585950374603271,0.7914313077926636,0.6906287670135498,1.1295347213745117,0.7275853157043457,-0.31901052594184875,0.5769733786582947,1.2245051860809326,-0.2612738311290741,1.3028703927993774,1.0822490453720093,-2.0644052028656006
botrytized_wine,-0.24774864315986633,-1.720807433128357,0.7112843990325928,-0.08734994381666183,1.1115280389785767,-0.06915602833032608,-0.6229627132415771,-0.11808109283447266,1.4104071855545044,0.07332811504602432,1.0697526931762695,0.241298109292984,-0.8345957398414612,-0.9606523513793945,0.2162647396326065,-1.7025747299194336,2.0825085639953613,-2.288623571395874,-1.0073769092559814,1.2754837274551392,2.3860630989074707,0.5617958307266235,-0.013089874759316444,0.901868462562561,-0.9603647589683533,0.4079119861125946,0.8148596882820129,0.6836236119270325,1.1770421266555786,1.569105625152588
tomato,-0.09207707643508911,-1.2039657831192017,1.1535255908966064,0.4814991354942322,-1.9936529397964478,-0.4285275638103485,1.0879014730453491,0.33390241861343384,-0.5088658332824707,-1.0927674770355225,0.1517384648323059,-1.8636587858200073,0.5640628337860107,1.366873860359192,-1.9889028072357178,0.11072071641683578,-1.1631566286087036,-1.980815052986145,-0.3929600119590759,1.7742747068405151,-0.22976507246494293,1.2323583364486694,2.1728618144989014,0.45990779995918274,0.8296964168548584,-1.836614966392517,0.8724653720855713,-0.3488990068435669,-0.7567808628082275,1.4676544666290283
rhubarb,0.16468067467212677,0.019534781575202942,2.103318214416504,0.649811863899231,-0.4878997802734375,-0.1382390260696411,-1.1326433420181274,0.36851924657821655,-1.5537512302398682,-1.6539238691329956,-0.7188984751701355,0.9476558566093445,-0.9027996063232422,0.8407540321350098,-0.9736453890800476,-0.10803920030593872,0.35549160838127136,-1.6473973989486694,-0.322663277387619,1.997145175933838,-1.1530218124389648,1.2367072105407715,-1.777807354927063,-1.9773554801940918,-1.0563933849334717,-0.8366564512252808,-0.17902468144893646,-0.0680975392460823,2.132532835006714,0.23400036990642548
wood_apple,0.7469149827957153,0.2708226442337036,-0.3102971315383911,-0.32980746030807495,0.033690597862005234,1.0288232564926147,0.9564470648765564,1.3217201232910156,1.0124715566635132,1.2332078218460083,-2.2030630111694336,-0.619584321975708,0.45894479751586914,-0.11472004652023315,0.12938453257083893,0.6380913853645325,0.15805131196975708,-1.6821094751358032,-0.2333785444498062,-0.2742454409599304,1.0796507596969604,2.698336124420166,0.34953582286834717,-0.2491898238658905,-2.1596872806549072,-1.038712739944458,0.04662448912858963,-0.2630046010017395,0.819302499294281,0.35375797748565674
lamb,0.9151405692100525,0.6524448990821838,-0.9809243083000183,0.06328286230564117,0.19198551774024963,-0.7188541889190674,-0.6656215786933899,1.3064852952957153,1.1293206214904785,1.8058010339736938,0.08041836321353912,1.9024461507797241,-1.0293222665786743,-0.1974748969078064,0.13739830255508423,-0.9656946063041687,-1.2151166200637817,2.3192362785339355,-0.6990969181060791,0.9174997210502625,1.299378752708435,-1.6215202808380127,0.01796901784837246,-0.04980240389704704,-1.1093072891235352,-2.1098670959472656,1.9688409566879272,-0.07767907530069351,2.000823497772217,0.35175448656082153
ylangylang,0.6202817559242249,0.4293506145477295,-0.6745457053184509,1.0483551025390625,0.11234255880117416,0.4613189995288849,-0.31441035866737366,-1.0597926378250122,1.6270214319229126,0.43158531188964844,-0.09083766490221024,-1.1851552724838257,-1.0554347038269043,0.7472270131111145,-0.19918110966682434,-0.42752692103385925,-1.4564541578292847,0.24996209144592285,-1.7753546237945557,-0.12954464554786682,-0.7875686287879944,0.7702257037162781,-0.320605993270874,0.5102275013923645,-0.6684775948524475,1.127051830291748,-0.44916263222694397,1.0850250720977783,0.2190130203962326,-0.4550246000289917
tuberose,1.0782179832458496,2.4608113765716553,0.5880737900733948,2.516920328140259,1.3419095277786255,0.40862688422203064,-0.9997146129608154,0.11360163241624832,2.0082385540008545,0.5731286406517029,-0.5446292161941528,-0.49957022070884705,-0.5012999773025513,-0.6574251651763916,1.052626132965088,1.3992364406585693,0.1222548633813858,0.4927019774913788,-1.7000174522399902,0.7367346882820129,-0.29225394129753113,-0.9725369811058044,-1.5516748428344727,1.2146271467208862,-0.33976638317108154,-0.32893821597099304,2.031015396118164,0.6659238338470459,-0.8005214333534241,-0.2841491401195526
cauliflower,1.5963859558105469,1.387213945388794,0.1032085120677948,0.22220131754875183,-0.5160870552062988,1.1426880359649658,-0.8373393416404724,0.737034261226654,-1.3096685409545898,-0.7974448800086975,1.9599288702011108,1.243844985961914,0.8844740986824036,1.0072872638702393,-2.7750301361083984,-0.09734789282083511,-0.40945112705230713,1.0215144157409668,-0.563312828540802,0.31978845596313477,1.6428287029266357,-0.06042462959885597,1.2344616651535034,1.5008094310760498,-1.0896737575531006,-1.3398089408874512,-0.12020079791545868,1.138533115386963,-0.2519739270210266,1.042970895767212
black_raspberry,-0.44652771949768066,1.5048961639404297,0.9449593424797058,0.6927986741065979,-0.10450813919305801,1.6494797468185425,-2.241913080215454,0.01684637926518917,0.5637009739875793,-0.522040605545044,-1.4377092123031616,-0.05411481484770775,-2.467974901199341,-1.8594579696655273,0.16119329631328583,1.4762624502182007,0.5085038542747498,-0.9877328276634216,-1.1126856803894043,-0.8777446746826172,-0.1545482575893402,0.5794861316680908,0.9520936608314514,1.9509029388427734,-1.0288629531860352,-0.13956208527088165,0.3346388638019562,1.1291284561157227,1.4239217042922974,0.8245142698287964
guinea_pepper,0.3081580698490143,0.5359727144241333,1.1706377267837524,-0.9061685800552368,-1.2062439918518066,-0.07474154978990555,-0.3554401099681854,0.25269412994384766,0.8123188018798828,-0.955884575843811,-0.5279874801635742,-1.2976206541061401,-0.7377369999885559,-1.2690954208374023,-3.0566954612731934,2.465609550476074,-0.7257764339447021,0.5078622698783875,-1.0818909406661987,-2.1027064323425293,-1.6885316371917725,0.6679778695106506,0.2446582317352295,0.7434189915657043,1.4049527645111084,-1.3734029531478882,0.8332226872444153,0.696892499923706,-0.5825521945953369,0.3350060284137726
marjoram,0.1402299404144287,0.5723204612731934,0.6111689209938049,1.7624833583831787,-0.11121322214603424,-0.7175396680831909,-0.5458504557609558,-0.40999847650527954,1.8648892641067505,-0.8404216170310974,0.8456243276596069,-1.461653709411621,-0.04045664891600609,1.0365979671478271,-0.4423767030239105,-0.0369563028216362,0.8771161437034607,0.6729487180709839,-0.29855602979660034,-1.3599262237548828,0.29068678617477417,-0.17552292346954346,-2.385444402694702,-0.151335209608078,-0.12313462048768997,0.1734328418970108,0.8761849999427795,0.39747175574302673,1.2924619913101196,-0.835083544254303
grape_brandy,-0.2307397872209549,-0.37313511967658997,0.208869069814682,1.6430116891860962,0.7455531358718872,-0.6261500716209412,0.8955821394920349,0.08137581497430801,0.45524150133132935,-0.5130708813667297,0.6416269540786743,-0.1470123827457428,0.11207636445760727,1.292759895324707,2.102827787399292,0.7226249575614929,0.00618445361033082,-1.5065301656723022,-0.4145999550819397,-0.6779308915138245,2.267850160598755,-0.9543964862823486,1.3090810775756836,-1.8212631940841675,2.124439239501953,0.9422969222068787,0.6028702855110168,-0.20600005984306335,-0.9929954409599304,-1.0108201503753662
bog_blueberry,-1.1045528650283813,-0.3665890395641327,1.2443959712982178,1.2162171602249146,1.6369264125823975,0.7304604649543762,-0.04637431353330612,0.3597288727760315,1.9065735340118408,-0.8671454191207886,-2.083923816680908,-0.7509011626243591,-0.3824750781059265,2.031914710998535,-0.35623377561569214,-0.654202401638031,-1.0224064588546753,-1.1561388969421387,0.460237592458725,-1.3864693641662598,-0.4131576418876648,-1.5011472702026367,-1.2929610013961792,1.073432207107544,1.7112667560577393,0.5728576183319092,1.2835898399353027,1.0045380592346191,0.08073115348815918,-0.20074240863323212
raw_bean,1.5239626169204712,-0.78081214427948,0.08872997015714645,1.2394672632217407,-1.263833999633789,2.118978500366211,-2.562791585922241,-0.3449772298336029,0.26831597089767456,0.7071670293807983,0.9089051485061646,-0.8770603537559509,-2.217660903930664,-0.30099186301231384,0.44137921929359436,-1.1000919342041016,-0.10886925458908081,-0.12031405419111252,1.405419945716858,0.402779757976532,0.9138469696044922,1.1875722408294678,1.252402901649475,-0.605453610420227,3.02647066116333,-0.3056712746620178,-0.1233288049697876,0.4396485984325409,0.7924754619598389,-1.0248403549194336
raw_turkey,0.6168239116668701,0.7835760712623596,-0.9587724804878235,-1.2159090042114258,0.6655625104904175,-0.031511224806308746,-1.0508142709732056,-0.7862473726272583,0.33468636870384216,2.07666015625,-0.48852643370628357,-0.2758970260620117,-1.4955004453659058,2.4096434116363525,-0.6282377243041992,-0.774225652217865,-0.4667438268661499,-0.05625341460108757,-0.6578680276870728,0.48609066009521484,2.1872663497924805,-1.3712598085403442,1.259851098060608,0.4617278277873993,-0.22420181334018707,-0.8229236006736755,0.8798789381980896,0.6278449892997742,1.5168063640594482,0.8210239410400391
mastic_gum_leaf_oil,-0.16045409440994263,0.5562171936035156,1.4656847715377808,-0.7701078057289124,-0.670680582523346,1.2823853492736816,-0.8115279078483582,0.30875933170318604,0.8938369750976562,-1.0412801504135132,-1.632925271987915,-1.5298212766647339,-0.5379231572151184,0.23469765484333038,-1.1011656522750854,-0.8333010673522949,-0.10662844777107239,-0.02427649311721325,-0.021226050332188606,-0.5752394199371338,-0.47978153824806213,0.5763199329376221,-2.313840866088867,-0.08934960514307022,0.047422438859939575,-0.25752273201942444,1.555566430091858,-0.888430655002594,-1.0666154623031616,1.2437783479690552
acacia,-2.888901472091675,0.5628767609596252,0.5668027400970459,1.427333950996399,0.6593190431594849,-0.5914875268936157,-0.1799340546131134,-0.6514905691146851,1.1932159662246704,-2.014842987060547,-1.4690309762954712,-0.8949605226516724,0.3479534387588501,0.8677141666412354,0.23227784037590027,-0.3846150040626526,1.4940773248672485,-2.112905740737915,-2.411743640899658,-1.4663794040679932,0.2540734112262726,1.0277047157287598,-0.582270622253418,-1.0885244607925415,-0.21962831914424896,-0.5897893905639648,1.1311904191970825,2.022813558578491,-1.9659137725830078,0.4287545084953308
capsicum_annuum,-0.8357998132705688,0.9479291439056396,0.2954595685005188,0.6539764404296875,-0.5813511610031128,-0.012638313695788383,-0.7763678431510925,1.6419175863265991,-0.30572864413261414,-0.17508439719676971,1.0431705713272095,-1.7578680515289307,-0.13566914200782776,-0.19843943417072296,0.26283591985702515,0.4159652292728424,-0.040927957743406296,-0.4682466983795166,-1.8818714618682861,-3.233973264694214,-0.8060197234153748,1.3042106628417969,3.17256498336792,0.33688563108444214,0.9351108074188232,0.04908610135316849,1.90861177444458,-0.4498448967933655,1.2474299669265747,0.030189896002411842
strawberry_jam,1.3307517766952515,0.9957877397537231,0.6087201237678528,-0.6727510094642639,-0.304974228143692,1.8885797262191772,0.09568266570568085,0.05718059465289116,2.3336570262908936,-0.6321377158164978,1.4828053712844849,0.7211049795150757,-0.6973434686660767,0.4650004804134369,1.0283219814300537,0.6004436016082764,-1.1575124263763428,-0.21345318853855133,-2.3005411624908447,1.0053058862686157,-0.7719235420227051,2.152614116668701,0.10497073084115982,-0.7616731524467468,0.07851485162973404,-0.27495276927948,0.1915901154279709,-0.5299196243286133,0.41151300072669983,-0.23230652511119843
starfruit,-2.8938722610473633,-2.6477832794189453,-0.9227748513221741,0.6565465331077576,0.1795826107263565,1.3473490476608276,-0.3201534152030945,-0.3470228314399719,-0.7380152344703674,-0.8645115494728088,0.3903941810131073,0.1702241152524948,-0.10845530033111572,0.5546742677688599,-1.0387635231018066,0.031156722456216812,-1.7367197275161743,-1.2672933340072632,-0.898605227470398,0.060163699090480804,-0.3671935796737671,1.2937870025634766,-1.2884856462478638,0.8187117576599121,-0.7999396324157715,-0.9962936043739319,-0.31981953978538513,0.8667464852333069,1.1173365116119385,-1.363769769668579
toasted_sesame_seed,-0.8115690350532532,-0.12490617483854294,0.684657633304596,-0.14864635467529297,-0.3838880956172943,0.15029463171958923,-1.112074613571167,0.054330095648765564,0.40559592843055725,1.1960004568099976,-1.426131248474121,1.2279554605484009,1.1959389448165894,0.00017768502584658563,0.7117253541946411,-0.3760845363140106,-1.5099687576293945,-0.9029558300971985,-1.0714566707611084,0.8031092286109924,0.2668832242488861,0.37748557329177856,0.24598434567451477,-1.0764598846435547,0.9103254675865173,-1.3081657886505127,-1.3527368307113647,2.4586563110351562,0.5652714967727661,-0.517448365688324
red_meat,0.9024136066436768,-0.13103586435317993,1.1728508472442627,-0.21656012535095215,-1.0402833223342896,-0.6531201004981995,-3.047499179840088,-1.1854310035705566,-0.5101765394210815,0.7893692255020142,-0.6221500635147095,0.9903846979141235,0.07105710357427597,0.5182965993881226,-0.0332210548222065,-0.28558236360549927,-0.07677482068538666,-0.32378050684928894,-0.4083949327468872,-0.20529517531394958,1.9354935884475708,-0.6616808772087097,0.13045358657836914,1.0098426342010498,-0.41197875142097473,-0.13920782506465912,0.0651104748249054,-0.10371894389390945,0.1728149801492691,2.536149740219116
spearmint_oil,-0.4002388119697571,-1.330292820930481,-0.5829102396965027,2.378373146057129,0.8533472418785095,-0.32642972469329834,-3.373361587524414,-1.1259270906448364,0.6483059525489807,-0.7363832592964172,-1.516414761543274,-0.6009075045585632,-0.056483976542949677,-0.709954023361206,-0.3367427587509155,-0.6189172267913818,1.67158043384552,-2.043382406234741,1.3895596265792847,-0.6896626353263855,-0.08487910032272339,-0.7279651165008545,0.42297664284706116,-2.2612526416778564,-0.18608403205871582,-0.20667476952075958,1.0622501373291016,1.7862827777862549,-0.2855750620365143,-1.455655574798584
leek,0.6044900417327881,-1.62748384475708,0.3028186559677124,1.7594789266586304,-0.8136153817176819,-0.24676847457885742,-1.1013418436050415,0.13926810026168823,-0.04521006718277931,-1.8681811094284058,-0.370135635137558,1.0739141702651978,-1.6497154235839844,1.8172968626022339,1.9081542491912842,0.5524266362190247,0.4791485071182251,-0.9420352578163147,-0.39645177125930786,-1.395578145980835,1.5850127935409546,-2.28338885307312,0.11027466505765915,-0.35910502076148987,0.14493465423583984,-0.3033471703529358,-0.13420672714710236,0.5832139849662781,-1.6574972867965698,-0.3235255181789398
brazil_nut,-0.392981618642807,-0.8982354402542114,0.5255085825920105,-0.29557445645332336,0.1134713664650917,0.12700103223323822,-2.0862138271331787,0.6404228210449219,1.2139077186584473,-0.24871863424777985,1.8265776634216309,3.4372918605804443,-0.33608120679855347,0.05183936655521393,0.2017442286014557,0.4386458098888397,-0.9962472319602966,-0.017678186297416687,-1.633482575416565,0.5753448605537415,0.6924318075180054,0.18504731357097626,-0.08756089210510254,0.5722246766090393,-0.056594397872686386,0.5469751358032227,-1.0065363645553589,2.243602752685547,-0.14283064007759094,0.2580684721469879
milk,1.4669702053070068,1.1487525701522827,2.2476134300231934,0.2941948473453522,-0.6164305210113525,-2.386186122894287,-0.9216474294662476,-0.10891680419445038,-0.44721052050590515,-0.33671891689300537,0.20860324800014496,-0.8057553172111511,-1.3509552478790283,-0.09856277704238892,0.755370557308197,-0.06592542678117752,0.7876089215278625,2.41455340385437,0.44624999165534973,0.28587162494659424,1.394561529159546,0.5222226977348328,-1.187036156654358,0.5132051110267639,-0.17325398325920105,-0.5858646631240845,-0.6693175435066223,1.750664234161377,0.07098635286092758,0.9674163460731506
grape,1.174678087234497,1.2854971885681152,1.8058552742004395,2.8663668632507324,0.8477386832237244,2.640453338623047,-0.7285611629486084,1.7023981809616089,-0.7388767600059509,-0.6186438202857971,-0.366273432970047,-0.45291709899902344,-1.8573321104049683,0.2124117910861969,-1.2468409538269043,-1.4691516160964966,0.3790026307106018,0.051973551511764526,-2.159802198410034,0.8111977577209473,-0.7598877549171448,1.6253793239593506,-1.078719139099121,1.0353997945785522,-0.1492726355791092,-0.5064423680305481,0.9140779972076416,-1.051037311553955,1.5933336019515991,0.518548846244812
purple_passion_fruit,-0.36175259947776794,-1.8450560569763184,-0.41471967101097107,0.1639489084482193,-0.478039413690567,-1.6152129173278809,-1.6814059019088745,-1.2226461172103882,2.0999996662139893,-1.5660651922225952,0.9691236615180969,2.1464459896087646,-0.07964460551738739,-0.4704091250896454,-0.2721230387687683,-0.17743521928787231,-0.14908991754055023,0.6686360836029053,-3.090178966522217,-0.5561701059341431,-1.8328849077224731,-1.6160175800323486,-0.12649497389793396,-1.0493453741073608,0.363019734621048,-0.9555381536483765,-0.003952472936362028,-1.3605775833129883,0.9879438877105713,0.7979549169540405
tobacco_leaf,-3.0230045318603516,0.5593326687812805,1.5051748752593994,-0.8106533288955688,-0.14731526374816895,-0.06361283361911774,-0.4104246497154236,-0.5101406574249268,-0.014544326812028885,0.6207202076911926,0.05640055984258652,0.4752054214477539,0.2737789750099182,1.9589310884475708,1.193200945854187,0.09393160045146942,-1.3694524765014648,1.0396192073822021,0.2072085738182068,-1.3184430599212646,0.2562273442745209,-0.24529969692230225,-0.7534273862838745,0.05704427510499954,1.6602287292480469,-0.5376350283622742,2.5188076496124268,-0.9006269574165344,0.022305697202682495,2.1889586448669434
calamus,0.6467655897140503,-1.1457083225250244,0.5681148171424866,1.2902357578277588,-0.31910571455955505,0.45024263858795166,0.680236279964447,-1.245955228805542,2.5009331703186035,-0.6812725067138672,0.22207412123680115,0.6142705082893372,-0.17425625026226044,-0.31473222374916077,-1.3443684577941895,0.989489734172821,-1.5276596546173096,0.11651691049337387,0.9929160475730896,-0.16790373623371124,-0.3040129244327545,-1.1351587772369385,-1.1105002164840698,-0.02965259552001953,0.15248015522956848,-0.31302133202552795,1.7388430833816528,1.1518256664276123,0.6738998293876648,0.9934126734733582
shiitake,1.0408780574798584,1.4798167943954468,1.0869170427322388,1.3601571321487427,2.5174148082733154,-1.6669234037399292,-0.5522248148918152,0.2223646640777588,-0.7366408705711365,0.8542447686195374,1.14480459690094,-1.007114291191101,-0.9142343401908875,0.017068348824977875,-1.5252727270126343,0.2867110073566437,-0.1228390634059906,-0.17526111006736755,-0.817055344581604,0.03635823726654053,0.8030701875686646,1.062818169593811,-0.49553969502449036,-1.7496223449707031,2.27699613571167,-1.5480226278305054,-2.043323040008545,-0.14476338028907776,1.6426551342010498,0.06041693314909935
beef,0.6112579703330994,-1.1158355474472046,0.02244279533624649,1.1938745975494385,-1.399815320968628,-2.9058213233947754,0.21687071025371552,1.0182863473892212,-0.09416116774082184,0.7678884267807007,-0.4096169173717499,0.8643981218338013,-1.4354554414749146,0.4929068088531494,1.1061627864837646,-1.1757707595825195,-0.9178745150566101,-0.8481718301773071,-0.41555288434028625,-1.9317712783813477,2.0660104751586914,0.6346187591552734,1.383602261543274,-0.33550775051116943,-0.79942786693573,-2.4062705039978027,-0.43264734745025635,0.6447260975837708,-1.113470435142517,1.3112939596176147
veal,2.6226658821105957,1.198778510093689,-0.42326104640960693,1.3787599802017212,0.0172604788094759,-0.9755914211273193,-2.4295759201049805,0.49254268407821655,0.4625861346721649,1.0096718072891235,-1.695662498474121,-0.640568196773529,-1.743465542793274,0.8905068635940552,1.3978922367095947,0.03396788612008095,-1.8838422298431396,0.42831483483314514,-0.9107236862182617,0.2294342815876007,1.6771353483200073,0.41095951199531555,-0.48596715927124023,-0.4603599011898041,-0.5354453921318054,-1.684572696685791,-0.09687332808971405,0.13234950602054596,0.8321142196655273,0.0472743920981884
choke_cherry,-2.055140256881714,-0.5545873045921326,1.3882449865341187,1.011296033859253,0.08015958219766617,-0.11600752174854279,-0.7932212948799133,0.3653933107852936,1.0141913890838623,-1.5839415788650513,-0.2017330825328827,0.02136174403131008,-2.0049474239349365,0.09244663268327713,-1.3542720079421997,-0.8207252025604248,0.14150333404541016,1.1882959604263306,-0.6184872388839722,0.04479925334453583,-0.20343370735645294,-0.10305966436862946,-0.8670595288276672,-0.2696652412414551,0.5611275434494019,1.013548493385315,0.09936486184597015,0.16702501475811005,-0.44426923990249634,-0.6075156927108765
gardenia,-0.5706139206886292,0.9074711799621582,0.8993577361106873,0.6202591061592102,-0.5800447463989258,0.027436697855591774,-0.9785295724868774,-1.6083115339279175,-0.8365047574043274,-0.8914434909820557,-0.7103886008262634,-0.22396723926067352,-0.8705466985702515,-1.580248475074768,-0.05567539110779762,-1.7516449689865112,0.5998221039772034,-0.7417478561401367,1.1261639595031738,-0.19270366430282593,0.7424114346504211,0.26022854447364807,-1.2328641414642334,1.365479826927185,-1.3839013576507568,-1.470295786857605,0.811255693435669,-0.21142806112766266,-1.645119309425354,-0.8370341062545776
mustard,-0.2628970146179199,-0.9167627692222595,2.8258631229400635,1.0448473691940308,0.9701893329620361,-1.3448588848114014,0.6320825815200806,-1.9704716205596924,-0.08994996547698975,0.4511113166809082,0.2979377210140228,-0.3408307731151581,-0.08014822751283646,0.07335805147886276,0.3795563280582428,0.598170280456543,-1.2666347026824951,-2.397773504257202,-1.5380966663360596,-0.5937928557395935,0.3634089529514313,2.288248062133789,0.7789018750190735,0.5758276581764221,-0.020229261368513107,-0.7207902073860168,-1.1561038494110107,1.3777296543121338,-0.04004291445016861,-1.3746213912963867
kaffir_lime,-1.515013575553894,-0.041576799005270004,0.9120993614196777,1.8816540241241455,-0.8536532521247864,0.5907653570175171,-0.9505632519721985,0.16670390963554382,0.7139198184013367,-0.6298197507858276,1.8125722408294678,-0.011121295392513275,-2.7423834800720215,-1.4970446825027466,-2.1938939094543457,0.8776537179946899,1.2281960248947144,2.204869270324707,1.0005292892456055,-1.1352790594100952,-0.6688088774681091,-2.6452934741973877,0.8821111917495728,-0.34692203998565674,-1.4855092763900757,-0.3708341419696808,0.07384010404348373,-0.5920218825340271,-0.026096094399690628,1.3861273527145386
cuttlefish,1.4731651544570923,1.4509704113006592,1.1560771465301514,-0.705365777015686,0.3053573966026306,-0.5999405384063721,-0.3468340039253235,0.4614965617656708,-1.0916587114334106,-0.3071123957633972,-1.7359243631362915,-1.2249172925949097,-0.640509307384491,0.754566490650177,-0.7470135688781738,-1.093370795249939,-0.14970125257968903,-1.511433482170105,-3.2242588996887207,0.12830695509910583,-1.2339390516281128,0.7428138852119446,1.1841036081314087,-0.9921185374259949,-0.6529379487037659,-1.1787424087524414,-1.045145034790039,2.3059356212615967,-0.4748690128326416,-0.0196942538022995
emmental_cheese,-1.1847020387649536,0.8865903615951538,2.434098720550537,-0.2066231220960617,-1.2057864665985107,-0.5923988819122314,-0.33664965629577637,0.6530815362930298,-0.34783902764320374,-0.5559101700782776,-1.2816050052642822,1.014891266822815,-2.4845263957977295,-0.6407873034477234,2.0985982418060303,1.1564092636108398,1.1585139036178589,0.8276994824409485,-1.503231406211853,0.4966928958892822,0.868035614490509,0.07148858904838562,-0.748785138130188,0.471414178609848,0.9291538000106812,-2.4476163387298584,-0.13827569782733917,-2.2710862159729004,1.4852750301361084,0.8673470616340637
guarana,0.8142285346984863,0.6056532859802246,0.03824266791343689,1.7546340227127075,0.3574187159538269,0.5749162435531616,0.13324955105781555,0.6306005120277405,0.009110487997531891,-2.084775447845459,-0.0919138491153717,-1.4513070583343506,-0.34313809871673584,-1.7209683656692505,-0.08684471994638443,-0.813082754611969,0.05913207679986954,0.16916348040103912,-0.16120441257953644,-2.3720741271972656,-1.2233290672302246,-0.2026696503162384,2.753392219543457,-0.8139598369598389,-1.3634809255599976,-0.9178997874259949,-0.3717731237411499,-0.7379017472267151,-0.12596310675144196,0.6824043989181519
brazil_rosewood,0.20181328058242798,0.6660634875297546,-0.7272167801856995,1.4007220268249512,-0.24836401641368866,1.6952111721038818,-1.1375823020935059,0.5699867606163025,1.8481322526931763,-2.125349283218384,-0.33823275566101074,-0.45891550183296204,0.3816260099411011,0.10884733498096466,0.6972869634628296,-0.3463757336139679,-0.29754558205604553,1.3129290342330933,0.20028968155384064,0.739885151386261,1.1215723752975464,-1.3869801759719849,-1.4370404481887817,-1.4167015552520752,-1.4381091594696045,-1.225593090057373,-1.1877045631408691,0.5639601945877075,1.625864863395691,0.4668821096420288
smoked_herring,-0.1908009648323059,-0.9200779795646667,1.902529239654541,-2.23990797996521,1.2634483575820923,1.7663840055465698,-0.13195958733558655,1.338693618774414,0.49453917145729065,2.3388290405273438,1.162615418434143,0.22458010911941528,-2.4169976711273193,2.820668935775757,-1.1567699909210205,-0.12257449328899384,0.5249863862991333,-0.5080378651618958,-0.6474990248680115,0.6933286786079407,-0.318378210067749,-0.9599694013595581,0.5060548186302185,0.23581644892692566,-0.2605583965778351,-0.6310595870018005,-0.708018958568573,2.7053866386413574,0.8018705248832703,1.0519853830337524
roasted_chicory_root,-0.037830650806427,-0.9044396281242371,0.6987495422363281,-0.46730053424835205,0.5169878005981445,-1.3449991941452026,2.507136583328247,-0.07387949526309967,-0.056338611990213394,-0.40741172432899475,-0.34268373250961304,-1.328080654144287,-0.34114086627960205,-0.23184140026569366,0.6208494305610657,0.11572455614805222,0.9458443522453308,0.6933404803276062,-0.11022733151912689,0.5766519904136658,1.5216889381408691,0.2303164303302765,-0.07682999223470688,0.5605757832527161,-0.46528398990631104,-0.09353625029325485,-0.6259506940841675,0.5930838584899902,0.7951574921607971,1.948756456375122
swiss_cheese,-1.3290716409683228,-0.9901986718177795,0.7795304656028748,0.09389635920524597,-0.7423264980316162,-0.7777824997901917,0.41636160016059875,0.23848335444927216,-0.48402321338653564,-0.4214041233062744,-0.7154870629310608,0.4118904173374176,-1.3759288787841797,0.16957855224609375,2.250126361846924,1.3214987516403198,0.9237002730369568,-0.05126608535647392,-1.0624889135360718,1.270229458808899,1.0539865493774414,-0.5653143525123596,-0.4249604344367981,1.1140080690383911,0.48229682445526123,-1.2756861448287964,-0.4554232060909271,-0.6145193576812744,1.2843596935272217,-0.3247465193271637
wild_rice,-0.6099424958229065,0.5581378936767578,-0.02650950290262699,0.48250001668930054,0.4919074773788452,-0.9860709309577942,1.7519868612289429,0.23317186534404755,-0.5754884481430054,1.0936468839645386,0.14126233756542206,0.25281134247779846,0.97870272397995,0.10107439756393433,1.689144253730774,-0.22489774227142334,-1.7406820058822632,-0.494545042514801,-1.2747108936309814,0.16390493512153625,-0.588847815990448,-0.1646777242422104,0.2468644231557846,2.0428411960601807,-1.2052695751190186,-1.8798277378082275,-0.678542971611023,0.522534966468811,-0.03023599460721016,0.3054828643798828
shrimp,0.6733971834182739,-1.0303155183792114,0.7172296643257141,-0.33795875310897827,-0.7776646614074707,-0.9588687419891357,-1.1381661891937256,-1.1628917455673218,-0.15726891160011292,0.5653472542762756,0.17370660603046417,-0.8664072155952454,0.002393450355157256,0.9730077981948853,0.17203114926815033,-0.450797975063324,0.05698558688163757,-0.05447258800268173,-0.30042803287506104,1.7186199426651,1.6529227495193481,-1.5015976428985596,-1.1591403484344482,1.1846144199371338,2.14615535736084,-1.765785813331604,1.3762305974960327,1.3361490964889526,-1.0121655464172363,0.6114289164543152
pistachio,1.2277867794036865,-1.568535566329956,-0.7070096135139465,0.3664916753768921,-0.6985009908676147,1.7672065496444702,-0.705268919467926,-0.2526860237121582,0.10011723637580872,0.8587855696678162,-0.5951881408691406,-0.6379496455192566,-0.059463657438755035,0.9623956084251404,1.1529066562652588,0.7173287272453308,-1.2297285795211792,-0.9611967206001282,-0.6658422946929932,-0.7446616291999817,0.18780817091464996,-0.8522289395332336,1.2335517406463623,0.8992817401885986,1.3853269815444946,0.6329654455184937,-0.6759713888168335,-0.04187601059675217,1.473166584968567,0.17759191989898682
chive,-0.8499104976654053,0.6725755333900452,1.0651401281356812,0.13319742679595947,0.8069393634796143,2.6100714206695557,-0.9055635333061218,-0.7429591417312622,-0.8477180600166321,1.5417594909667969,0.42475807666778564,0.5461001396179199,-1.6247819662094116,-1.8765255212783813,1.9974902868270874,-1.3484258651733398,0.6959697008132935,0.6869138479232788,2.604867458343506,-1.1223536729812622,0.795382022857666,-0.8124539256095886,0.7570498585700989,-0.7475701570510864,-0.8020449280738831,-1.3032028675079346,0.47948697209358215,-0.5347074866294861,-0.31029263138771057,1.439700722694397
sea_buckthorn,-0.7031779885292053,-0.38427579402923584,-0.9101324677467346,1.309527039527893,1.1911253929138184,0.5601702332496643,-1.4139189720153809,0.9443730711936951,1.3650929927825928,-1.3976669311523438,0.37568721175193787,1.2682307958602905,-0.7811971306800842,-1.6687825918197632,2.3814072608947754,0.3666851818561554,1.688484787940979,0.5460575222969055,-1.8466317653656006,0.2761100232601166,1.7064987421035767,0.6917344331741333,-1.4748897552490234,0.26216623187065125,0.9552310109138489,-0.548332154750824,-0.8343285918235779,-0.3743537664413452,-0.27962741255760193,-1.8475046157836914
grape_vine,1.536839485168457,0.7041640877723694,-1.0339860916137695,2.296475410461426,-0.5461633205413818,-0.18856190145015717,0.5761412382125854,1.000970721244812,-0.169412299990654,0.37136542797088623,-0.8307151794433594,0.7135343551635742,1.4185755252838135,-2.1877386569976807,1.9534112215042114,-0.6592377424240112,-1.1016231775283813,-0.5009709596633911,0.15763293206691742,0.4059440791606903,-0.23219500482082367,-0.356647253036499,1.1173992156982422,0.7795799970626831,1.5803489685058594,0.8672274351119995,0.9929189085960388,-1.457356572151184,0.8386734127998352,-0.15887734293937683
coconut,0.9447323679924011,0.05874896049499512,0.9833793640136719,-0.5610781311988831,-1.073452353477478,-0.48058223724365234,-0.4906751215457916,-1.2214088439941406,0.10030772536993027,0.7268382906913757,-0.32328900694847107,-2.223707437515259,-1.6872798204421997,0.3865399658679962,1.938575029373169,1.3030363321304321,0.27652883529663086,0.44295892119407654,-0.3859049379825592,0.24592141807079315,0.9397591948509216,2.4721555709838867,-0.43795835971832275,0.4618472158908844,0.42352455854415894,-3.0657055377960205,2.6447062492370605,-2.2935450077056885,0.7687331438064575,0.5150560140609741
port_wine,0.542280375957489,-1.958071231842041,0.7769500613212585,0.15574316680431366,-0.005658044014126062,-0.4423356056213379,-0.3804638981819153,-0.07549448311328888,0.767661452293396,-0.6413280367851257,1.1070778369903564,0.6888779401779175,-1.5158922672271729,-1.8476014137268066,-1.3157029151916504,-0.6201887130737305,0.6080453991889954,-2.332462787628174,-1.1730546951293945,1.87753164768219,1.0571852922439575,0.8874216675758362,-0.6317380666732788,0.08433640748262405,0.8472472429275513,1.1831233501434326,1.378455638885498,0.3700495660305023,0.4414404332637787,1.378917932510376
pork,1.383180022239685,-0.04293344169855118,0.44927921891212463,-0.4718472361564636,-0.5232435464859009,-0.2505471706390381,0.23178060352802277,-0.8069924712181091,1.1644784212112427,1.3418277502059937,-3.226203441619873,0.7978236079216003,-0.9796016216278076,-1.5761582851409912,-0.3970344364643097,0.9590708017349243,0.5109421610832214,2.013878583908081,-1.3236372470855713,-0.22592400014400482,2.1793720722198486,0.2599922716617584,2.0180249214172363,-0.9899653196334839,-1.260027527809143,-3.8937270641326904,-0.04095475375652313,1.483315348625183,-0.6831768751144409,-1.1171244382858276
loganberry,-0.8284851312637329,-1.0005302429199219,2.739279270172119,2.2255196571350098,0.8677569627761841,-0.41878512501716614,-0.2262839525938034,-2.9725372791290283,1.133190393447876,-0.36041778326034546,0.4619384706020355,1.0799782276153564,-1.406888484954834,0.2972671389579773,-0.9289896488189697,2.82973313331604,-0.06295473128557205,-1.7759554386138916,-0.17767292261123657,-1.5254548788070679,0.9593982696533203,-1.6047987937927246,0.28331634402275085,2.493340253829956,-0.901380717754364,0.09359429031610489,-0.1866259127855301,0.31412214040756226,0.6715694665908813,-0.995678186416626
neroli_oil,-1.289502501487732,1.9735283851623535,3.044598340988159,1.2474727630615234,0.9041267037391663,0.37780430912971497,-0.8379815220832825,-0.9781213402748108,0.2699059545993805,0.28982579708099365,-0.43959125876426697,-0.9437701106071472,0.3521430194377899,0.017608005553483963,-1.68580961227417,-2.4553542137145996,-1.6868780851364136,0.15654583275318146,-0.22707456350326538,-0.9157556295394897,0.7170403003692627,-0.4140229821205139,2.319528818130493,-0.28898462653160095,1.3879778385162354,-0.7173529863357544,0.3277322053909302,1.4300397634506226,0.17408321797847748,0.46144023537635803
currant,-1.9672094583511353,0.13677473366260529,0.4490491449832916,1.5367697477340698,-0.6340110301971436,2.539186954498291,0.23240187764167786,0.4781331419944763,1.0062376260757446,0.016905976459383965,0.8949540257453918,1.293851375579834,0.1429891735315323,0.8146288990974426,-2.1791605949401855,-0.18120434880256653,-1.047821283340454,-0.12044411152601242,-0.1589440256357193,-0.12353774905204773,-1.3596398830413818,-0.9757862687110901,-0.11947377026081085,0.19768978655338287,-1.2099106311798096,-0.8359052538871765,0.5360331535339355,-1.417788028717041,1.7534476518630981,0.757111668586731
parsnip_fruit,-0.6187416315078735,-0.30233830213546753,1.7868945598602295,2.854641914367676,0.16428782045841217,1.1284316778182983,0.34909045696258545,-0.03468581661581993,0.5350794792175293,-1.1248352527618408,-0.6178072690963745,-0.5042980909347534,-0.47088757157325745,-1.8682047128677368,-1.6573485136032104,0.25000834465026855,0.4097130000591278,2.304731845855713,-0.49937957525253296,-0.10601956397294998,0.46579480171203613,0.5136487483978271,0.5640504956245422,-0.07893562316894531,0.5806606411933899,0.6036462783813477,2.215216636657715,-0.4446960389614105,0.1724829226732254,-0.16563624143600464
black_seabream,0.661271333694458,0.3539421558380127,-0.6991318464279175,0.6196266412734985,-1.834538459777832,0.6628441214561462,0.44280877709388733,1.824616551399231,-0.2989545166492462,1.2968982458114624,-0.42144066095352173,0.8523432612419128,-0.8006200790405273,0.9258317351341248,-0.368402898311615,-1.7529405355453491,0.09202723950147629,-0.4967808425426483,0.07427368313074112,0.2217888981103897,0.2454015165567398,-0.8309600353240967,-0.6408512592315674,1.0729979276657104,0.890770435333252,-1.4338428974151611,2.3266000747680664,0.31472018361091614,1.2936605215072632,-0.13108697533607483
grilled_beef,0.06724204123020172,-0.7584051489830017,-0.3663242757320404,1.0972400903701782,-1.3989757299423218,-1.733760118484497,-0.5186193585395813,0.8503053784370422,-1.4120488166809082,0.18215543031692505,0.8037633895874023,0.4586215913295746,-2.4267706871032715,0.7512415051460266,1.6258336305618286,-1.5404046773910522,-0.8876674771308899,-0.5310109257698059,0.27799394726753235,-2.4298951625823975,0.4799225926399231,0.573022186756134,0.15141130983829498,-0.17444592714309692,-0.23678313195705414,-3.444746255874634,-0.9092845916748047,0.0991961658000946,-1.4827748537063599,0.8057732582092285
whiskey,1.2086966037750244,-1.1658473014831543,1.241406798362732,0.8397050499916077,0.18443648517131805,-0.9261338114738464,-1.005223035812378,1.1659969091415405,1.5436182022094727,0.8825966119766235,-1.6787846088409424,-2.513118028640747,-0.03389256075024605,-0.8529212474822998,1.5992990732192993,0.5415539741516113,0.09813366085290909,-0.690401554107666,-0.3048693835735321,0.4877726435661316,0.516272246837616,0.7281712889671326,-1.873500108718872,-0.8972409963607788,1.3722167015075684,-1.1956840753555298,0.2680683732032776,-0.4617237150669098,1.1632906198501587,1.036692500114441
fried_pork,-1.2188969850540161,0.46232786774635315,0.21407121419906616,-0.7097682952880859,-2.867633581161499,-0.15737204253673553,-1.7202835083007812,-0.3834149241447449,-0.29622071981430054,0.6095783710479736,-0.27524399757385254,-0.32957616448402405,-0.2910265624523163,-0.09443584084510803,-0.29830482602119446,1.026843547821045,1.0814557075500488,-0.5943801999092102,-2.7961957454681396,-1.0931286811828613,1.7617182731628418,0.12661480903625488,2.227663516998291,-1.8202348947525024,1.8242440223693848,-1.7571719884872437,0.15354587137699127,1.6502375602722168,-1.4548536539077759,0.16785141825675964
rapeseed,-0.02475893683731556,-0.8767924308776855,0.5702951550483704,-0.1341458112001419,-1.3795255422592163,0.573467493057251,-0.26678335666656494,0.13617968559265137,0.9619279503822327,0.4104541838169098,0.10759218782186508,-1.2308021783828735,0.48380476236343384,-1.9095405340194702,0.3395654261112213,0.47562748193740845,-0.8491399884223938,-0.36771005392074585,0.7524583339691162,-0.8812804818153381,-0.16757141053676605,-1.0173232555389404,1.7879438400268555,-1.8028417825698853,0.0959865152835846,0.3420022130012512,1.3037909269332886,0.36219075322151184,0.9598976969718933,-1.2740952968597412
caraway,0.3328035771846771,0.8235995769500732,-0.5753543972969055,0.6380844116210938,0.35009974241256714,0.8021571040153503,0.004663177765905857,2.3865251541137695,1.132014274597168,-1.6560344696044922,-1.1027836799621582,-0.15445028245449066,0.019642090424895287,0.2819977104663849,0.16817757487297058,1.42385995388031,0.9394243955612183,-0.2522525489330292,0.16544152796268463,-1.346024751663208,-0.07141173630952835,1.0214219093322754,1.4142762422561646,-0.642043948173523,0.8950750827789307,0.02540242113173008,0.6239885687828064,0.39794641733169556,0.4679568409919739,-1.1078048944473267
potato,-0.19141395390033722,-1.5083568096160889,1.3757315874099731,-2.0340049266815186,-1.6403404474258423,0.7728514671325684,-0.7717262506484985,-0.6923170685768127,0.2523428797721863,-1.3412315845489502,-1.6546177864074707,1.396373987197876,0.5052614212036133,0.05237656831741333,-2.0836024284362793,-0.14531584084033966,-3.135223388671875,-1.0501019954681396,-2.22672438621521,-1.0592725276947021,1.4423662424087524,-1.5152004957199097,-0.8773511052131653,-1.0211780071258545,0.8806193470954895,-0.3570016622543335,-0.9725623726844788,-0.5983284115791321,0.8863349556922913,0.27395617961883545
eucalyptus_oil,-0.8246861696243286,0.08559328317642212,0.649868905544281,-1.6394599676132202,0.4646425247192383,0.9144758582115173,-0.40036457777023315,-0.2662396728992462,0.59038907289505,-0.7634479999542236,0.3310023546218872,-0.5155580043792725,0.6644413471221924,0.19218695163726807,-0.576900839805603,0.35508009791374207,-0.285933256149292,1.061910629272461,0.7537147402763367,-1.017914891242981,0.6814507246017456,-0.6104094386100769,0.6871245503425598,1.5137996673583984,0.3972250521183014,0.5053671598434448,1.7412774562835693,-0.2731672525405884,0.3339584767818451,-0.16235370934009552
roasted_beef,-0.5897610187530518,-1.6806765794754028,-0.8629301190376282,1.1482185125350952,-0.8083779811859131,-2.147933006286621,0.8572986125946045,-0.012841125950217247,-1.509965181350708,-0.12588047981262207,-0.1427154690027237,1.6361875534057617,-1.7532209157943726,-0.08535005897283554,1.5139212608337402,-1.150911808013916,-0.9374614357948303,-1.1126289367675781,-0.08993551880121231,-1.6746044158935547,3.331080198287964,1.5198545455932617,1.615120768547058,-1.5693327188491821,-0.5810631513595581,-0.9941355586051941,-0.8003706932067871,2.2899041175842285,0.23661674559116364,1.1046682596206665
fermented_tea,1.0826631784439087,0.272606760263443,0.701505184173584,-1.0648616552352905,0.01985987089574337,1.0451350212097168,0.332235723733902,-0.9562951326370239,0.7977475523948669,-0.2085823118686676,1.0557507276535034,-1.997416615486145,-0.9101598858833313,-0.48263341188430786,-0.5771892666816711,-0.3712702989578247,-1.634212613105774,-0.47295355796813965,-0.004428070038557053,-0.781243085861206,1.220992922782898,-0.18664583563804626,-2.1950817108154297,1.4335823059082031,0.022748498246073723,-2.0286881923675537,1.3338512182235718,1.2145065069198608,1.5989619493484497,-2.018972635269165
parsley,-1.6953425407409668,0.7251365780830383,1.3609423637390137,-1.0590184926986694,0.14024926722049713,2.8808367252349854,0.22896526753902435,-0.6934714913368225,0.471073716878891,-0.7478206753730774,1.4537214040756226,0.816809356212616,-0.709254801273346,1.204439401626587,-2.3293769359588623,-1.3351454734802246,-1.739467978477478,-0.3833012282848358,0.9528207182884216,-2.6106748580932617,0.4362838864326477,-0.4918896555900574,1.1812669038772583,-0.5520806312561035,-0.489246666431427,-0.4986799359321594,0.547299861907959,-1.217185378074646,-0.8799508213996887,-0.6318409442901611
basil,-2.1343493461608887,1.082647442817688,0.37356436252593994,1.7924164533615112,0.5278757810592651,-0.4023689925670624,-1.7940125465393066,-1.8446502685546875,0.46110236644744873,-1.9084020853042603,1.4794515371322632,0.9275652766227722,0.1800018697977066,-2.4256250858306885,1.707277774810791,0.6297630071640015,0.6944297552108765,-1.3726773262023926,-0.13916338980197906,-1.3675119876861572,-0.37278977036476135,-0.14524909853935242,-0.6505722999572754,-0.48645874857902527,1.5733827352523804,0.7962610721588135,0.1282704919576645,1.3370827436447144,1.02245032787323,1.4000542163848877
kelp,-0.2679295539855957,-0.4942169487476349,1.0142453908920288,1.6341285705566406,-1.3839563131332397,-1.0892424583435059,0.3378642797470093,-0.6313634514808655,-0.4517726004123688,-0.8945952653884888,1.2567622661590576,-0.3004240393638611,-1.6041964292526245,1.8717665672302246,-1.3913493156433105,-0.48512476682662964,0.7035028338432312,-2.4180338382720947,-0.36017900705337524,2.103156566619873,0.6887123584747314,-0.672095537185669,-0.5559896230697632,-2.1595730781555176,-0.5190320014953613,0.17554481327533722,-0.22898465394973755,-1.8450253009796143,1.065305233001709,-1.5309548377990723
grapefruit,0.4415181875228882,-1.8723843097686768,0.1126893162727356,2.3200035095214844,1.212735891342163,-0.653479278087616,-2.0057334899902344,-1.8776419162750244,1.989593744277954,0.17517894506454468,-0.4990333616733551,-1.0196782350540161,0.08664090931415558,0.9713758826255798,-0.23030705749988556,0.7929179668426514,-0.9462661147117615,-0.9945952892303467,-0.7278664708137512,1.0926096439361572,1.8708304166793823,-1.0971041917800903,-0.11622928082942963,-0.7590739727020264,-0.03815804421901703,2.034026861190796,0.009283731691539288,-1.0019776821136475,0.05245588719844818,0.9800735116004944
goat_cheese,-1.5247352123260498,0.8022358417510986,1.2519172430038452,-0.683169960975647,-0.6214733719825745,-0.9959301352500916,-0.18165001273155212,1.631955862045288,-0.38513344526290894,-0.4310508668422699,-1.803996205329895,-0.0549333281815052,-0.09618230164051056,0.5563459992408752,-0.5779783725738525,0.7887065410614014,1.833223581314087,0.06820210069417953,-1.2151110172271729,1.0974878072738647,1.295499324798584,-1.0959217548370361,-0.1499430239200592,-0.36238569021224976,0.4860555827617645,-1.0429977178573608,-0.32033485174179077,-0.47507598996162415,2.0878963470458984,-1.4013653993606567
ginger,-0.5951279997825623,-0.3904058337211609,1.014864444732666,1.273916482925415,-1.734839916229248,2.5309998989105225,-0.4439113438129425,0.21833038330078125,1.1493088006973267,0.454691082239151,0.44611260294914246,-1.737863540649414,0.4595668315887451,0.514816403388977,-1.0181576013565063,2.916187047958374,1.213551640510559,-0.5728936195373535,-0.9516927599906921,-1.7108097076416016,0.80648273229599,0.9925727248191833,-1.1562726497650146,0.24538643658161163,-1.3134055137634277,0.21343843638896942,0.584256112575531,0.13553212583065033,0.8693206906318665,2.3415377140045166
seed,0.032902199774980545,0.0026112559717148542,-0.42487263679504395,-0.06010397896170616,-0.4553486704826355,2.157902479171753,-0.21287471055984497,0.86935955286026,-1.0665578842163086,1.6042729616165161,1.9632339477539062,-1.671583652496338,-0.16131646931171417,-1.774538516998291,-0.708320140838623,2.4160525798797607,-0.420751690864563,-0.5745153427124023,0.6263715028762817,-0.803658127784729,0.456651896238327,0.11312013119459152,0.9560704231262207,0.9024022221565247,0.29449528455734253,-0.1778448522090912,2.006727933883667,-1.08884596824646,0.8062297701835632,-0.8827498555183411
mint,-1.492021083831787,1.0112370252609253,-0.2643585503101349,0.20084215700626373,-0.9468802213668823,0.7787659168243408,-1.6325457096099854,-0.31719735264778137,-0.06996235251426697,-1.628157615661621,1.0879738330841064,0.3420071601867676,1.0315544605255127,-1.7385666370391846,1.3616418838500977,-0.4874294400215149,-0.7352989315986633,1.4513359069824219,0.8421987891197205,0.2133021205663681,0.42592304944992065,-1.8633795976638794,0.15119998157024384,-0.4796343147754669,0.37956899404525757,-0.8485640287399292,0.23754937946796417,0.9375578165054321,0.9823899865150452,-1.5489108562469482
endive,-0.2435053139925003,-1.055727243423462,1.913285493850708,1.2762407064437866,-0.692512035369873,-0.21737197041511536,0.9476199150085449,1.25713312625885,1.4580143690109253,0.24213173985481262,1.1656509637832642,1.0715316534042358,0.3267127275466919,-0.858466625213623,-0.915439248085022,1.0452725887298584,-1.5480304956436157,-1.0489505529403687,-1.638153076171875,-1.2421395778656006,-0.3444516956806183,-0.10624711960554123,0.1472538858652115,1.3031896352767944,0.6031699180603027,-1.176243782043457,-0.8437367677688599,1.385202407836914,2.1766722202301025,-0.4801017940044403
herring,1.2787425518035889,-0.44020023941993713,3.2753589153289795,0.6375718712806702,-0.15331462025642395,-0.2909293472766876,0.29737117886543274,0.047541726380586624,-0.14115755259990692,0.18396355211734772,0.3553067147731781,0.8720566034317017,-2.184628486633301,3.053163528442383,0.7794439792633057,-1.7857789993286133,1.3648422956466675,0.08000296354293823,-0.7079954147338867,-0.3353739082813263,-1.658478856086731,-2.084959030151367,0.7207749485969543,-0.9793652296066284,-0.07070452719926834,-2.351628065109253,1.3737608194351196,0.35519927740097046,2.879398822784424,0.6560590863227844
fish_oil,-0.5886560678482056,-0.4582924246788025,0.4523921012878418,-0.5319420695304871,-0.5270565152168274,0.7592037320137024,-0.3119833469390869,-0.4017868638038635,0.12137334048748016,1.1644117832183838,-0.5370454788208008,0.2736857831478119,-0.22877974808216095,0.906067967414856,-0.02292381040751934,-1.9049186706542969,0.7956683039665222,-1.8043042421340942,1.2220611572265625,1.2145633697509766,0.4724080562591553,-0.6673845648765564,0.02947663888335228,1.261038064956665,-0.5993589162826538,-1.7762280702590942,0.04065118357539177,-0.11498469114303589,1.8206537961959839,-0.1369680017232895
roquefort_cheese,-1.7960832118988037,-0.8188570141792297,1.4240025281906128,0.11413680016994476,-1.0977039337158203,-0.807287871837616,0.9185516834259033,2.3715925216674805,1.0795167684555054,-0.3512480556964874,-0.6715807914733887,0.6205264329910278,-1.6800099611282349,1.5627952814102173,-0.4549303948879242,2.7435519695281982,-0.3407692015171051,0.5327534079551697,-1.111143946647644,1.4398971796035767,1.5449525117874146,-0.9618384838104248,-1.319467544555664,-0.8368706107139587,1.8204175233840942,0.4182528257369995,-0.15760910511016846,0.32600879669189453,1.1776024103164673,0.1064872071146965
hog_plum,-0.45198145508766174,-0.1066211611032486,1.8976119756698608,-0.09475192427635193,-1.3907426595687866,0.9424644708633423,0.6112998723983765,0.24448619782924652,0.5688105821609497,-1.6908022165298462,-1.0635870695114136,1.0706948041915894,0.23746207356452942,-0.11454182863235474,-1.8768713474273682,0.3756541907787323,-0.010644135065376759,1.0325767993927002,0.5021799206733704,-0.0705576166510582,-0.3930199444293976,1.9564621448516846,2.227736234664917,0.7271549701690674,-0.22838596999645233,0.05324108898639679,-0.35903292894363403,0.1327199935913086,0.3429239094257355,-0.523202657699585
cabernet_sauvignon_wine,0.5861774682998657,-1.6471103429794312,1.4683016538619995,0.8089935779571533,0.5321865081787109,-1.42518150806427,0.07374145835638046,1.1333867311477661,2.3487415313720703,-0.23893806338310242,1.2424829006195068,1.3036699295043945,-2.20314359664917,-1.2355854511260986,0.2573026716709137,-1.3882603645324707,0.8694830536842346,-0.7329490780830383,-1.1678626537322998,1.2174595594406128,-0.5680544972419739,-0.1813056915998459,-0.0719875767827034,1.1030871868133545,0.960845410823822,-0.21626456081867218,-0.5070788860321045,-0.31024765968322754,-0.07337792962789536,1.301230549812317
cured_ham,-0.06981778144836426,0.6617937684059143,-1.0704071521759033,-0.3871766924858093,-1.2822856903076172,-0.2391839176416397,-1.7724281549453735,-0.8452958464622498,0.18286819756031036,0.14590460062026978,-0.5188747048377991,-0.15257640182971954,-0.7660995125770569,1.4862087965011597,-1.2583215236663818,-0.19588904082775116,-1.2019890546798706,-0.7540908455848694,0.19958026707172394,1.7014294862747192,1.0042071342468262,-0.36739593744277954,-0.4740567207336426,-0.8152716755867004,-0.0861268937587738,-2.042095422744751,-0.7736586332321167,0.23109208047389984,0.32649242877960205,1.3955820798873901
wheat_bread,0.025157619267702103,-0.28286728262901306,4.238189220428467,0.11591537296772003,-0.9557373523712158,-0.4474967420101166,-1.2614833116531372,-1.0323164463043213,-0.29396766424179077,-0.9253547191619873,1.6615393161773682,1.5027127265930176,-0.5990962982177734,0.7480786442756653,0.2951679527759552,-0.08141563087701797,-0.7519909143447876,0.15987403690814972,0.26685643196105957,0.8681443333625793,0.556601345539093,-0.6226168870925903,0.9884671568870544,-3.413269281387329,0.8330199718475342,-0.858880341053009,-0.09461923688650131,-1.3958539962768555,0.31840795278549194,0.7406013011932373
celery_seed,-1.6553494930267334,-0.44675642251968384,-0.52858966588974,0.604714572429657,-0.11539439111948013,1.2821767330169678,0.8455469608306885,-0.09405583888292313,1.1514006853103638,-0.9767661690711975,1.6733590364456177,1.4939078092575073,-0.6316469311714172,0.010455235838890076,-1.0352448225021362,0.2863096296787262,-2.9856185913085938,2.559272289276123,0.10645958036184311,-0.5024016499519348,-0.26385730504989624,1.8417425155639648,-1.2611089944839478,1.2996177673339844,0.2646683156490326,-0.9209356307983398,-1.2247847318649292,0.019932985305786133,0.47695913910865784,-0.42523279786109924
wort,-0.3596506118774414,-0.26825326681137085,1.3659870624542236,1.3278343677520752,-0.6204468607902527,0.28365153074264526,-0.9721376895904541,-0.016150863841176033,-0.7312222123146057,-0.35498321056365967,-0.7433018088340759,-1.3878611326217651,-0.17494462430477142,0.9934329986572266,0.6600632071495056,-0.8241661190986633,-0.3162055015563965,-0.11467195302248001,-0.18313969671726227,0.9219878911972046,0.35570812225341797,0.4600869417190552,-1.2413105964660645,-2.188868284225464,-0.6599255800247192,-1.2044103145599365,-0.5518015027046204,1.2895582914352417,-0.3262457251548767,0.9694634675979614
caja_fruit,-1.5075024366378784,-0.15543968975543976,0.3793889284133911,1.9250695705413818,-0.5136516690254211,0.05904164910316467,1.2056368589401245,-1.7671927213668823,0.514140784740448,0.34844788908958435,-1.6199074983596802,-1.1960052251815796,-1.808154582977295,-0.9159274101257324,-1.3676427602767944,-0.05005546659231186,1.1440699100494385,-0.05493628978729248,0.3673514425754547,-1.146866798400879,0.5907382965087891,0.7761649489402771,1.0238432884216309,-1.371518611907959,-0.6957185864448547,0.4578278660774231,1.2975518703460693,-0.3988970220088959,1.1598671674728394,0.8578923344612122
smoked_sausage,1.0946125984191895,0.7424275875091553,0.3787758946418762,-1.9618000984191895,0.06457245349884033,-0.1938079297542572,-2.6958513259887695,-0.4892071485519409,0.8553449511528015,0.6723999381065369,1.2551398277282715,2.1896653175354004,-0.31156060099601746,-0.1122579574584961,-0.7523516416549683,0.20053456723690033,-1.03214430809021,0.7322518825531006,-2.2454376220703125,-0.7162266969680786,-0.09068440645933151,-0.9977673292160034,0.8686485290527344,-0.0006278505898080766,1.2040010690689087,-0.5023186206817627,1.1079761981964111,0.5651713013648987,1.0321378707885742,0.11710359156131744
pecan,0.34915632009506226,-0.23770280182361603,0.4648934304714203,-1.520888328552246,-0.7368380427360535,-0.8730783462524414,-1.6123098134994507,-1.3467525243759155,0.03074236959218979,-0.7543701529502869,0.983081042766571,-0.22881057858467102,-2.572232484817505,2.00594162940979,-1.532202124595642,0.8692405223846436,-1.9177799224853516,2.2546725273132324,1.0815778970718384,1.5487598180770874,0.3977033197879791,0.2568332552909851,0.6852949261665344,0.4295039474964142,2.1827142238616943,-0.48837441205978394,-0.9960612058639526,3.554727792739868,0.8826614618301392,-0.1967882364988327
citronella,0.6395440101623535,-0.8527213931083679,-0.7266592979431152,1.7345821857452393,0.00951484777033329,-0.8302248120307922,-0.2299317866563797,0.09016841650009155,1.6507242918014526,-0.8508661985397339,0.44304221868515015,0.2805875837802887,-0.24876689910888672,0.5092529654502869,-0.49942025542259216,0.07651455700397491,0.22787892818450928,0.9655986428260803,-2.6053671836853027,0.5421760082244873,-1.0344582796096802,1.276523232460022,0.4915199875831604,-0.8075020909309387,-0.23983430862426758,-0.3233606219291687,0.7832598090171814,0.40737688541412354,-2.2771108150482178,-0.9759888648986816
muscadine_grape,-1.0550044775009155,0.08846866339445114,2.4395461082458496,1.3903487920761108,0.9241349697113037,-0.0816688984632492,-1.0621174573898315,1.744368553161621,-0.6392277479171753,-2.8526711463928223,0.024580135941505432,0.4076647162437439,-0.8534200191497803,0.7822965383529663,-1.121099829673767,-1.4658117294311523,0.280565083026886,-0.16804970800876617,-1.5303291082382202,0.617573082447052,0.10556336492300034,-0.04276572912931442,0.9330689311027527,0.37546080350875854,-2.0273897647857666,-0.23275983333587646,0.3007632791996002,-0.6932896375656128,1.4199315309524536,-0.52118319272995
cassava,0.6320505142211914,-0.3463509976863861,-0.017480142414569855,-0.5613466501235962,-0.2921799123287201,-0.4590866267681122,-1.5103096961975098,0.4412645995616913,-1.463032603263855,-0.31673818826675415,-0.888982892036438,-0.6496881246566772,0.9953989386558533,1.4382472038269043,-0.32329729199409485,-0.7113444805145264,-0.787801206111908,-0.6781432032585144,0.16226276755332947,0.28576040267944336,0.09065601974725723,0.09402163326740265,0.3995760977268219,0.2495918720960617,-0.09647136181592941,-1.9706729650497437,0.48288387060165405,-0.00042874313658103347,-0.02962694689631462,-0.1797334998846054
black_chokeberry,-2.559964656829834,-0.09984314441680908,-0.5892614722251892,-0.8023859262466431,-0.0712667852640152,-0.646614670753479,-1.680677056312561,-1.551316261291504,0.18646052479743958,-1.3260269165039062,-1.064622163772583,-0.22599492967128754,-1.9843502044677734,-0.4081493318080902,-1.5588159561157227,-0.7682905793190002,0.2849659025669098,-0.9297551512718201,0.9530320167541504,-1.4454374313354492,0.22512446343898773,-0.10474929213523865,0.08251382410526276,1.8138707876205444,-0.0145919444039464,-1.668687105178833,-1.1975138187408447,1.3220179080963135,-0.7087255716323853,-0.37337857484817505
vanilla,0.1756926327943802,-2.142112970352173,0.5373868942260742,1.6867311000823975,0.7060362696647644,0.9075153470039368,-0.3768776059150696,2.279453992843628,0.27892035245895386,-0.19858352839946747,1.6271295547485352,-1.3035374879837036,-0.6522198915481567,-1.0679646730422974,1.7908194065093994,2.398714780807495,-1.4147241115570068,0.40907344222068787,-0.401729941368103,0.4884665310382843,0.017736729234457016,3.0953826904296875,-0.7935351729393005,-0.8328413963317871,1.3575359582901,-0.31941306591033936,2.2381293773651123,1.6767382621765137,1.062473177909851,0.21128657460212708
frankfurter,0.0698031336069107,0.6298403143882751,-1.0291515588760376,-0.9958186745643616,-1.2594305276870728,-0.1412755250930786,-3.4488942623138428,-0.017948105931282043,0.5183233022689819,-0.8144739866256714,0.6354588866233826,2.4902565479278564,-1.212472915649414,1.9864928722381592,0.7975680828094482,-0.5357866287231445,-0.7111895680427551,0.847273051738739,-0.8180943131446838,0.21278265118598938,3.185542106628418,-1.0212886333465576,1.4378254413604736,0.5299452543258667,0.8263564705848694,-2.6394686698913574,2.030241012573242,0.49238845705986023,0.8678992986679077,-1.1409913301467896
corn,0.17338572442531586,-1.0378466844558716,2.149155378341675,-0.1043483167886734,-1.7757091522216797,-0.1245817318558693,0.6092171669006348,-0.435916006565094,0.11737946420907974,0.47475960850715637,-0.9656144380569458,-0.8235272169113159,0.26099687814712524,1.8896785974502563,-0.3758127689361572,1.0199294090270996,-1.6643307209014893,-0.4724728763103485,-1.7467703819274902,0.32306593656539917,0.859921395778656,0.07024980336427689,0.8625935912132263,-0.04030144587159157,-2.4659223556518555,0.36290866136550903,0.7060607671737671,0.14647822082042694,0.9657830595970154,1.7236589193344116
cured_pork,-0.6678169965744019,0.031497541815042496,0.5088459253311157,-1.019782304763794,-1.2971092462539673,0.07197705656290054,-1.3493878841400146,-0.5908301472663879,0.5163816213607788,0.9482172131538391,-1.143760323524475,0.44036126136779785,-0.3016212582588196,0.8688640594482422,0.7321717143058777,0.4010067582130432,0.631043553352356,1.5473244190216064,-0.3195667266845703,-0.7182388305664062,1.6315239667892456,2.1766912937164307,1.0569497346878052,-0.7217915654182434,1.6051414012908936,-1.761083960533142,1.2540291547775269,3.0081820487976074,-0.7758699059486389,-0.007978391833603382
seychelles_tea,-0.3610824942588806,0.9933393001556396,1.8144233226776123,1.3233531713485718,-1.5312632322311401,0.07950660586357117,1.4394809007644653,0.2739993631839752,1.9321657419204712,-0.666707456111908,1.576642394065857,-1.3701034784317017,0.2475457638502121,-1.5347609519958496,-0.32965341210365295,-1.3733762502670288,-0.7333662509918213,0.03192843496799469,0.30927011370658875,-0.7509607076644897,1.4691498279571533,-0.9981504678726196,-0.6133493781089783,1.4006003141403198,-0.1668170988559723,-3.3876240253448486,0.4841962158679962,2.3130624294281006,1.3623682260513306,-1.6895841360092163
nut,1.1833393573760986,0.47501140832901,-1.5279006958007812,0.8369702696800232,-0.11238059401512146,-1.4077614545822144,0.4774553179740906,-1.0105880498886108,1.9408624172210693,-2.0615882873535156,-0.9891617298126221,0.2676665782928467,-1.6806715726852417,1.9003452062606812,0.49942466616630554,-0.5442855954170227,-0.36465635895729065,-0.6810945272445679,-0.8066039085388184,0.44872647523880005,0.493998259305954,-0.5171952247619629,1.4696979522705078,0.7658313512802124,0.29275399446487427,-2.5606095790863037,-1.4638147354125977,0.4572734832763672,0.20504143834114075,-0.16118329763412476
dwarf_quince,-0.23612792789936066,-1.6364827156066895,0.3748244047164917,0.16682817041873932,-0.8689834475517273,1.3089357614517212,0.42455610632896423,1.2858014106750488,2.031418561935425,-1.5296008586883545,0.14145848155021667,1.858246922492981,-0.37688910961151123,0.5967965722084045,-0.695670485496521,-0.3708341419696808,0.40100741386413574,1.111710548400879,-1.967482566833496,-0.375893235206604,-0.04087834805250168,1.2673139572143555,0.09174244850873947,0.9038482308387756,-0.16832154989242554,1.2828303575515747,0.7214335203170776,0.055796634405851364,1.7569843530654907,-0.03324774280190468
hazelnut,0.666020929813385,-1.0458874702453613,0.35021287202835083,-1.210613489151001,2.320185422897339,1.2008206844329834,-0.25258973240852356,0.08333519846200943,0.5183221697807312,-1.5814498662948608,-1.7353585958480835,0.9014662504196167,-1.1024690866470337,0.43227913975715637,0.7365902662277222,0.8952382802963257,-0.10435937345027924,2.052435874938965,-0.08473938703536987,-1.200243353843689,0.5916436910629272,-0.5739361047744751,-0.3339049220085144,0.3120748996734619,-0.458429217338562,-1.850074291229248,0.3001612722873688,1.1543039083480835,-0.13720594346523285,-0.009244127199053764
sauvignon_grape,-0.1339356154203415,-0.57520592212677,2.105025053024292,-0.37119174003601074,0.23118792474269867,2.1983864307403564,-0.5659045577049255,2.0331006050109863,1.2384679317474365,-1.6651066541671753,-1.458759069442749,0.9239080548286438,-1.1775646209716797,-0.21036496758460999,-2.307673215866089,-1.168259859085083,0.6678977608680725,-0.03426123782992363,-0.6685841083526611,1.1785364151000977,0.334023654460907,0.9242346882820129,-1.0438495874404907,1.5186488628387451,-1.4046767950057983,-0.7258202433586121,0.00845128670334816,0.1655535101890564,2.029167413711548,-0.47122958302497864
feijoa,-2.1694202423095703,-0.8990967273712158,-0.8994637727737427,1.2867494821548462,-0.7295235395431519,0.6572356820106506,0.6095854043960571,0.40167436003685,1.2369978427886963,0.18053801357746124,-0.9721819758415222,0.20146630704402924,-0.6708723306655884,-0.19274446368217468,-1.7580888271331787,0.7316057085990906,-0.26824668049812317,-0.1900947391986847,-0.3593994081020355,0.14889508485794067,-1.048875331878662,-1.0947974920272827,-0.6255587339401245,-0.4091844856739044,0.22782035171985626,0.21417467296123505,-0.3861181139945984,1.375698208808899,-0.34255892038345337,0.3823765218257904
krill,-0.39939558506011963,-1.2283213138580322,3.076221227645874,-0.5674678087234497,-1.5441553592681885,-0.5932366251945496,0.20830856263637543,1.4963020086288452,-0.024694038555026054,0.621421754360199,-1.8910408020019531,1.0722116231918335,0.7301686406135559,-1.839670181274414,-0.7037177085876465,-0.2632189989089966,-1.3366611003875732,-0.8048081994056702,0.7995175719261169,2.1796820163726807,1.5588867664337158,0.2699178159236908,1.7355222702026367,-0.7069167494773865,1.12790048122406,-0.7575967907905579,-1.4186253547668457,3.5109670162200928,0.18420298397541046,1.043063759803772
walnut,1.3211010694503784,-0.4160526394844055,0.9203583598136902,-0.04368346929550171,-0.1791100651025772,1.0173137187957764,-1.9683328866958618,1.3010119199752808,-0.9654852151870728,0.2293286919593811,0.8962671756744385,1.0537617206573486,-0.20160534977912903,-0.09076801687479019,0.5192661881446838,-1.875317096710205,0.4855533540248871,-0.1022213026881218,-1.4341903924942017,-0.6358171105384827,1.1079086065292358,0.6508018374443054,0.7135524749755859,0.932775616645813,0.3934963643550873,-0.24936775863170624,-1.568662166595459,1.0145210027694702,-0.7960997819900513,0.8474191427230835
crownberry,-0.7578322887420654,1.0062880516052246,-0.756454348564148,-0.01654139533638954,0.25276345014572144,2.565624952316284,-1.7864328622817993,0.9402928948402405,0.21261371672153473,-2.582824468612671,-0.24576206505298615,-1.0558383464813232,-2.072139263153076,-0.10887128859758377,-1.8792030811309814,0.4385600984096527,-0.4989325702190399,-1.3771193027496338,-0.9987545609474182,-0.9215628504753113,1.7702724933624268,0.04730600491166115,2.135366201400757,0.23133911192417145,-1.0868076086044312,0.030432622879743576,-0.5827455520629883,2.3856804370880127,-0.805713951587677,0.5795547366142273
lean_fish,0.033893171697854996,-1.89384925365448,0.9579823017120361,-1.432653784751892,-0.808198869228363,1.2318243980407715,0.15163418650627136,0.7102553844451904,-0.6960499286651611,0.7056933641433716,0.940034806728363,0.8288206458091736,-1.2538130283355713,-0.4585663974285126,-0.41817453503608704,-0.28378260135650635,1.1302599906921387,-0.664679229259491,-0.8358263969421387,0.7145068645477295,-0.45023712515830994,-1.3690260648727417,-0.6044567823410034,-0.4432196319103241,-0.3054550886154175,-1.2042280435562134,1.068207025527954,1.7885981798171997,1.6699440479278564,-0.40810373425483704
east_african_geranium,-0.7904436588287354,0.93473219871521,0.4174610674381256,1.6792224645614624,-0.020958606153726578,-0.023127572610974312,-1.9477124214172363,-2.593644618988037,1.3384592533111572,-1.124358892440796,1.009297251701355,-0.07917197793722153,2.1137568950653076,1.2420560121536255,-0.8837984800338745,-1.408270001411438,1.0433138608932495,-1.2100708484649658,-0.6436049938201904,0.15509147942066193,0.43928828835487366,-0.5460814833641052,-0.6143753528594971,0.9863938093185425,-0.8781198263168335,-0.8904160857200623,0.0327274464070797,-0.453483909368515,0.15397678315639496,2.475956439971924
roasted_coconut,-0.7292627692222595,-0.7993219494819641,-1.1979291439056396,-0.3993518054485321,0.1703512966632843,0.8186485171318054,-0.33304062485694885,-0.34249287843704224,-0.24111208319664001,0.8421198129653931,1.1439001560211182,-0.8195102214813232,-1.1417858600616455,0.8878546953201294,0.3579684793949127,1.4199602603912354,-0.9735201597213745,-0.01847926713526249,0.7594897150993347,1.4054934978485107,0.9723795652389526,0.6116236448287964,0.5847804546356201,-0.8196930289268494,0.7293136119842529,-0.5766447186470032,1.3611057996749878,-1.1811623573303223,1.1551170349121094,0.547268807888031
artichoke,0.2699580490589142,-3.173752546310425,0.0393642894923687,0.7986539006233215,-1.5543736219406128,2.6884560585021973,0.26925379037857056,-1.5182439088821411,-0.25405335426330566,-1.049906611442566,-0.13858574628829956,0.9845669269561768,-1.1552497148513794,-0.7258907556533813,-1.095825433731079,-0.28843197226524353,0.5865455269813538,-1.2862415313720703,-0.38008275628089905,-0.7946722507476807,-1.022057294845581,0.7864985466003418,1.595916748046875,-1.4010884761810303,-0.4354010224342346,-0.6968269944190979,-0.3437618017196655,0.6003584861755371,-1.5348992347717285,0.011203145608305931
caviar,1.4520317316055298,0.012040482833981514,0.0464874729514122,-1.2508171796798706,-0.5268529057502747,0.054703131318092346,1.010767936706543,0.32999441027641296,0.5695220828056335,1.7105592489242554,0.4592241048812866,1.0363819599151611,-1.7959827184677124,0.3689912259578705,-0.41054004430770874,2.4633896350860596,1.4957773685455322,0.1788933277130127,-1.6679210662841797,-0.4720028042793274,1.8434746265411377,-0.5727254152297974,0.5213057994842529,0.9129007458686829,1.069301724433899,1.1543176174163818,-0.883810818195343,1.3650072813034058,-0.26258912682533264,1.4564331769943237
beer,-1.1315628290176392,-1.6228792667388916,1.9985721111297607,-2.339857816696167,-1.711590051651001,-1.0603971481323242,0.03779115527868271,-0.24876941740512848,2.168605089187622,-0.8757023215293884,1.018545150756836,0.044918082654476166,-1.4175182580947876,-0.3776101768016815,1.936833381652832,-1.124228596687317,-0.7930310964584351,0.8911917805671692,-0.6836479306221008,0.9423367977142334,-1.223736047744751,0.9946095943450928,0.4895149767398834,-0.5607941150665283,-0.9192070364952087,-0.9359113574028015,-0.8490881323814392,0.029303953051567078,1.1108057498931885,-1.3492969274520874
rose_apple,-1.062322735786438,-2.2613186836242676,1.656799554824829,0.06905907392501831,-0.0948999673128128,-0.3075525760650635,1.7289950847625732,-0.030905893072485924,0.002693254966288805,-0.41952890157699585,0.5689399838447571,0.7329338192939758,-0.18810075521469116,-0.9026809334754944,-0.8874642848968506,-0.3348751962184906,0.23799557983875275,-1.0549229383468628,0.37228089570999146,-2.126429796218872,0.23328202962875366,-0.3494204878807068,1.070602297782898,1.4379475116729736,-0.5040532946586609,-0.2758563458919525,-0.8364335298538208,0.030532043427228928,0.9508107304573059,-1.4874621629714966
sturgeon_caviar,-0.16602696478366852,0.05400296673178673,0.790023148059845,-0.24308110773563385,-1.0570534467697144,-0.876981258392334,0.08273482322692871,0.9373021721839905,0.08148879557847977,1.0899947881698608,0.7410332560539246,1.2167775630950928,-1.0967601537704468,-0.49188676476478577,-0.0350707471370697,0.8928160071372986,0.410383939743042,1.1064252853393555,0.6586769223213196,0.02310711145401001,0.6717352867126465,-0.8755464553833008,0.046218980103731155,-1.7102056741714478,-0.03755941614508629,-0.2558605372905731,-0.03027510829269886,1.0636738538742065,1.4978220462799072,1.922849416732788
cypress,-1.7755149602890015,0.9369840621948242,0.7960611581802368,0.08461827784776688,-1.4935660362243652,0.28162238001823425,0.15991413593292236,0.9516056180000305,1.2458391189575195,-0.006244632415473461,0.9386250972747803,-0.46851933002471924,-0.21897661685943604,-0.08697863668203354,-0.5400605797767639,-1.0389513969421387,-1.2532048225402832,0.8783261179924011,1.3925880193710327,-0.7487929463386536,-0.02721579186618328,0.9540680050849915,-2.338995933532715,1.4850438833236694,-0.1656603366136551,-1.0761998891830444,1.796679139137268,0.08331310749053955,-0.01004110462963581,0.01844216324388981
hyacinth,-0.40422889590263367,2.267923593521118,-1.4049861431121826,-0.23513108491897583,0.7535366415977478,-0.92417973279953,-0.7461349368095398,0.6717201471328735,1.0579100847244263,-0.9423794150352478,-1.265850305557251,1.434572696685791,-1.2148395776748657,-0.23958392441272736,-0.09221041202545166,0.18695539236068726,-0.8993731141090393,-0.29060760140419006,-1.0076100826263428,1.2511239051818848,0.6891329884529114,1.1354894638061523,-0.8629854321479797,1.5093393325805664,-2.087877035140991,-2.6946499347686768,-0.6200553774833679,1.762526512145996,-1.4832544326782227,-2.6370325088500977
rose_wine,0.9309384226799011,-1.1931703090667725,0.22940583527088165,0.7970430254936218,0.6360892057418823,-0.9223529100418091,0.011594833806157112,1.9415782690048218,0.32016441226005554,-0.013936729170382023,1.1500535011291504,-0.5433861017227173,-2.312277317047119,-1.9900908470153809,-0.9980480670928955,-1.9917287826538086,1.2746710777282715,-2.944396734237671,-2.101902484893799,0.9269259572029114,1.6403417587280273,-0.07743292301893234,0.7432340383529663,0.5100980401039124,-0.2429601550102234,-0.41578271985054016,0.7944260239601135,-1.3745715618133545,0.262349933385849,1.5314702987670898
apricot,-0.915415346622467,-0.7996041178703308,0.9126853346824646,0.7726514339447021,2.0308358669281006,1.3740068674087524,-0.4840644598007202,-0.5924731492996216,0.285171777009964,-0.9792553186416626,-1.8041821718215942,0.6169770956039429,-0.9052377343177795,-1.3214248418807983,-0.7414394617080688,0.47801870107650757,-0.20759835839271545,1.1119787693023682,-0.3590536117553711,0.6650597453117371,1.2693545818328857,1.625683307647705,1.14847731590271,-0.3694084584712982,-1.2474838495254517,-0.03445906564593315,1.9313580989837646,0.3112275302410126,-1.7331575155258179,0.2392345368862152
peppermint,1.061679482460022,1.4014396667480469,0.02111242152750492,1.607956886291504,-0.8302257657051086,0.3728063106536865,-0.739507794380188,0.07768294960260391,1.2989171743392944,0.052331339567899704,0.5858724117279053,-1.7882388830184937,1.0906423330307007,0.591650664806366,-0.8954684734344482,-0.4841969907283783,0.5322964787483215,0.03720785677433014,0.7520060539245605,-0.7279787659645081,2.1263954639434814,-0.7004509568214417,-1.0279059410095215,-1.1082030534744263,-1.7586547136306763,-0.5386321544647217,-0.6572408080101013,-0.549367368221283,3.506877899169922,-0.8305861353874207
dill,-0.44626322388648987,1.2633548974990845,0.09102297574281693,2.2228927612304688,-1.1095224618911743,1.1191279888153076,-0.9708585143089294,0.8094147443771362,1.263942003250122,2.47027850151062,0.35623684525489807,0.4580431878566742,1.1508885622024536,0.6147922873497009,-2.3725032806396484,0.4899199903011322,-0.7737256288528442,-0.4232717752456665,-0.5634735226631165,-1.2576897144317627,-0.1319073736667633,0.7985149025917053,0.535844087600708,-0.08798240125179291,0.9079168438911438,1.8728467226028442,1.243791937828064,0.9958518147468567,2.8784101009368896,-0.5500831604003906
cheese,0.07255163788795471,1.810388207435608,0.48384273052215576,-0.269785612821579,0.13832664489746094,-0.8041804432868958,-0.8059795498847961,-0.13818088173866272,1.946762204170227,-0.7465295195579529,-1.7769241333007812,1.0550729036331177,-2.046471357345581,0.6998438239097595,0.4411534368991852,0.9957380890846252,1.4331579208374023,-0.307146817445755,-0.35177814960479736,1.9456053972244263,-0.46157732605934143,-0.4852052330970764,-1.7679685354232788,-1.2740681171417236,2.176086664199829,-1.813449501991272,1.0395563840866089,-1.687889814376831,2.8110499382019043,0.9888095259666443
wild_bergamot,-1.3403950929641724,0.985024631023407,-0.2334665209054947,0.24451996386051178,0.7560685873031616,-1.0151698589324951,-1.3496875762939453,0.4206662178039551,0.41517555713653564,-0.631862461566925,-0.41024190187454224,-0.32493335008621216,0.5316123962402344,0.1759476661682129,-0.49028730392456055,-0.860649585723877,1.4544501304626465,0.7484991550445557,-1.0482356548309326,1.8979274034500122,-0.8037918210029602,1.248634934425354,-0.004974072333425283,-0.39241376519203186,1.2509033679962158,-1.8007547855377197,-0.07145833969116211,1.175231695175171,-1.6657780408859253,0.30276522040367126
vinegar,1.113473653793335,-0.6640419363975525,1.687719702720642,0.18657022714614868,1.1839724779129028,-0.9047982692718506,-1.277967095375061,1.0612614154815674,0.8984001874923706,0.3327651023864746,-1.5898715257644653,1.6488971710205078,-0.9608339071273804,-0.8319241404533386,-1.1180649995803833,-1.6203854084014893,1.0589513778686523,1.2881008386611938,-0.9213016629219055,0.4834033250808716,1.6944317817687988,-0.026723841205239296,1.0461311340332031,-1.3707078695297241,1.0048248767852783,0.7540841698646545,-0.04400535300374031,-0.061930764466524124,0.5172476172447205,-1.1948082447052002
fermented_shrimp,-0.34087127447128296,-1.0775350332260132,0.6954498887062073,0.23231951892375946,-1.8715648651123047,-0.002970501547679305,0.22797593474388123,-1.3119902610778809,-0.4140186309814453,1.2756279706954956,0.264959454536438,-0.8233160376548767,-0.28422969579696655,-0.3216574490070343,-0.17526547610759735,-0.8094497323036194,-0.5605722665786743,0.6749974489212036,-0.6562092900276184,1.5388520956039429,0.4574480950832367,-1.8627264499664307,-1.3765408992767334,0.20307645201683044,0.2141808718442917,-2.802455186843872,0.8941096663475037,0.27761128544807434,-0.6483014822006226,1.3042051792144775
mozzarella_cheese,-2.463006019592285,0.38206273317337036,-0.5473015904426575,-0.08748394250869751,-1.1662300825119019,0.7614517211914062,0.3918883800506592,1.4016094207763672,0.5492212176322937,-0.45088109374046326,0.06594765186309814,0.9725058078765869,-3.172983169555664,2.1667685508728027,2.2396984100341797,1.036873698234558,0.6378496885299683,-0.19116546213626862,-0.9477147459983826,0.9950392842292786,0.9380720257759094,0.41827768087387085,-1.0771665573120117,0.5030239820480347,1.8309884071350098,-1.2239261865615845,1.4268572330474854,-0.656715452671051,-0.7704965472221375,1.3083012104034424
cabbage,2.1296064853668213,-0.5796784162521362,0.42411866784095764,-1.054240345954895,-0.7093806266784668,0.5602854490280151,0.8621786832809448,-0.4573023319244385,0.4563722014427185,-0.4355962872505188,1.1070088148117065,0.42024436593055725,-0.7729213237762451,0.23278559744358063,-0.19317439198493958,-0.8705645799636841,-0.2615894675254822,0.6403701305389404,0.7765682935714722,-1.466770887374878,2.95011043548584,-0.4694208800792694,0.6789088845252991,0.18399611115455627,-0.5002460479736328,-1.3991378545761108,0.575331449508667,0.9899171590805054,-1.0906236171722412,2.1108922958374023
kohlrabi,1.7808586359024048,0.8454055190086365,2.8496813774108887,-0.1299103945493698,-2.9292547702789307,-0.10510179400444031,0.7892928123474121,-0.8902497291564941,-0.6259738802909851,-0.7950433492660522,-0.22676709294319153,1.6894344091415405,0.10866069048643112,0.5353825688362122,-1.1797429323196411,1.478561520576477,0.16991055011749268,-1.4353104829788208,-1.5672292709350586,-0.5944854617118835,0.8033450245857239,-0.057401202619075775,0.29948651790618896,0.37643906474113464,-0.7786834836006165,0.1777297705411911,-1.987022876739502,0.9367691278457642,2.8889527320861816,1.1281505823135376
cardamom,-1.8547966480255127,-0.09135805815458298,1.4938970804214478,0.4221767783164978,1.1267904043197632,0.24320916831493378,-1.9772292375564575,-0.48995107412338257,0.7727594971656799,0.3322330117225647,1.042998194694519,-1.434790849685669,0.370848685503006,0.2904568910598755,-2.127264976501465,2.4460887908935547,-0.4378527104854584,1.7260228395462036,1.0141748189926147,-0.6915850043296814,0.6061587333679199,-0.9297469854354858,0.4019446074962616,-0.14704729616641998,-0.840220034122467,-0.5730072855949402,1.85710608959198,-0.13332298398017883,0.626192569732666,1.4072599411010742
pork_sausage,-1.1665713787078857,-0.2588643431663513,0.86019366979599,0.6802369952201843,-1.983162760734558,-1.3329106569290161,-1.0596033334732056,-0.05924122408032417,-0.24185577034950256,1.4207546710968018,-0.4219622015953064,0.7930742502212524,0.7992634177207947,1.303662896156311,0.2887307405471802,1.3940298557281494,0.19544199109077454,0.6309524178504944,-1.9896811246871948,-1.022859811782837,3.572416067123413,-0.6180682182312012,2.582725763320923,0.3369005620479584,0.7814179062843323,-1.2718933820724487,0.7913201451301575,0.0733155831694603,-0.7782074213027954,-1.4865245819091797
raw_pea,0.26622048020362854,0.4486823081970215,-1.4485777616500854,1.3162579536437988,-1.762844204902649,0.7729476690292358,0.18691788613796234,0.40367591381073,0.3198951780796051,-0.8824828267097473,1.219714641571045,1.8356404304504395,-0.6775448322296143,1.8560510873794556,-1.9074114561080933,0.42877429723739624,1.269158959388733,-2.0019149780273438,0.39638909697532654,-0.6283805966377258,0.5530806183815002,-0.21371689438819885,1.6062908172607422,-0.7784979939460754,1.0812472105026245,-0.7093252539634705,-0.5068648457527161,0.4642375409603119,0.28940293192863464,-1.470131516456604
cinnamon,-2.5421509742736816,-0.2424820363521576,-0.8874772191047668,-0.46789997816085815,1.8340013027191162,1.0782421827316284,0.22609984874725342,1.4323726892471313,1.0637688636779785,-1.138739824295044,0.4748453199863434,1.1169110536575317,-1.2033989429473877,-2.359551191329956,-0.6288744807243347,-1.0766901969909668,0.560600221157074,1.0515161752700806,0.6231546401977539,0.46378588676452637,-0.1923651248216629,-0.3168841302394867,1.5249569416046143,0.505771815776825,-2.222123384475708,-1.2675955295562744,-1.4396467208862305,1.8322911262512207,0.34456491470336914,0.6456857919692993
