label,d0,d1,d2,d3,d4,d5,d6,d7,d8,d9,d10,d11,d12,d13,d14,d15,d16,d17,d18,d19,d20,d21,d22,d23,d24,d25,d26,d27,d28,d29
mastic_gum_oil,-0.26257139444351196,-1.2859845161437988,2.7475476264953613,-1.4182963371276855,-0.5033920407295227,-0.07635001838207245,-0.14502699673175812,1.1649671792984009,-0.7941613793373108,-1.214317798614502,1.4881532192230225,0.17884652316570282,1.1885846853256226,1.9747117757797241,0.5879791975021362,0.3867347538471222,-0.2305741310119629,1.5587760210037231,-1.024616003036499,-0.0898100957274437,0.9032126069068909,1.328259825706482,3.2068676948547363,-0.11510835587978363,-0.27479127049446106,-0.7205857038497925,-0.0513324998319149,2.1288888454437256,-1.5972974300384521,-0.38148218393325806
butter,0.6767482161521912,1.5089044570922852,3.845710277557373,-0.9532511830329895,-0.19008873403072357,0.5652838945388794,-1.8948615789413452,-1.7476776838302612,-0.6848295331001282,-1.0643031597137451,0.044847272336483,0.8304905891418457,-0.5103591084480286,0.4356573224067688,-1.0417819023132324,-0.7546160221099854,-0.2816266715526581,-0.5372633337974548,-0.2809554934501648,0.7473609447479248,0.3491217792034149,-0.11808187514543533,2.141004800796509,0.8820691704750061,0.04439235478639603,1.9214668273925781,-0.34772413969039917,0.7628984451293945,0.16468530893325806,1.3711342811584473
hyacinth_oil,-1.8654040098190308,2.527606964111328,0.41274088621139526,-0.6990460157394409,-2.6554083824157715,0.17049360275268555,-2.82144832611084,0.3355232775211334,0.7661079168319702,0.14681118726730347,0.7139446139335632,1.5272704362869263,2.006082057952881,0.4231139123439789,0.7621182203292847,-1.149453043937683,-0.9263469576835632,-2.4566354751586914,-0.3992711007595062,-0.3829253017902374,-0.06601361930370331,-0.5870227813720703,0.6652381420135498,1.1905437707901,2.3971238136291504,-1.3052432537078857,0.8081470727920532,1.50168776512146,0.872491180896759,0.4966689646244049
tuna,-1.4084917306900024,0.38585251569747925,1.5641740560531616,1.5437510013580322,-1.3043569326400757,-2.5166990756988525,-2.0995500087738037,1.1056907176971436,-0.582126796245575,0.6093242764472961,-2.17648983001709,0.35860008001327515,1.821678876876831,0.8852510452270508,0.9834979176521301,1.3326537609100342,0.0005752939032390714,1.6031498908996582,0.6133617162704468,1.2420552968978882,1.7126824855804443,-1.5750279426574707,1.1401759386062622,-1.1780762672424316,0.21804070472717285,1.0850610733032227,-1.6856579780578613,-0.7997093200683594,1.6641669273376465,2.4047274589538574
rabbiteye_blueberry,2.0926644802093506,0.11152495443820953,0.32673320174217224,1.9044536352157593,-3.2921416759490967,-0.0600125677883625,0.9988579750061035,0.5025125741958618,-1.5940492153167725,-1.0770870447158813,-1.2423185110092163,0.22744213044643402,2.630082845687866,-0.04953870549798012,1.0535783767700195,-1.287757158279419,-0.23225778341293335,-1.29356050491333,-1.422287106513977,1.3050495386123657,0.7745899558067322,-2.0013256072998047,0.13201722502708435,-0.8617128133773804,0.6501091122627258,-0.05658292770385742,1.7476621866226196,1.8869985342025757,-2.631505250930786,-0.9294248819351196
trassi,0.24093960225582123,-0.6045294404029846,2.0742225646972656,1.669161319732666,-0.7462672591209412,-2.2858376502990723,0.07764748483896255,-0.9144227504730225,-0.6095550060272217,-1.6452337503433228,0.27097705006599426,-1.2495129108428955,-0.14134056866168976,1.0415310859680176,2.555485725402832,3.8939433097839355,-0.6123532056808472,-0.04914416745305061,1.1479512453079224,-0.23943915963172913,1.1016268730163574,-1.3882009983062744,1.7624460458755493,-0.4745143949985504,-1.0528422594070435,0.9270797967910767,2.482085943222046,1.377427339553833,0.19546712934970856,0.7758857011795044
meat,-0.9424105882644653,0.4908336400985718,2.606281280517578,-2.4006850719451904,-0.4613725244998932,0.01020797248929739,-1.489228367805481,1.724791407585144,-1.555972933769226,-0.7204057574272156,-1.2421468496322632,-0.6413922905921936,1.8708642721176147,2.6345486640930176,0.9892752766609192,1.9910215139389038,-1.6638540029525757,-1.8329861164093018,-0.29461967945098877,0.32589948177337646,2.0474629402160645,-1.3568331003189087,-0.5643405914306641,-1.4118698835372925,2.6771228313446045,1.1404446363449097,1.8287371397018433,-0.7438464760780334,-1.3478190898895264,-1.2970811128616333
bread,-0.219068706035614,-0.6176782846450806,1.918830156326294,-1.6454567909240723,-1.2977441549301147,1.5386444330215454,-1.8403828144073486,0.7637700438499451,-0.19293662905693054,1.664716124534607,0.12976397573947906,0.5703144669532776,1.173563003540039,-1.662958025932312,2.576385259628296,2.535806179046631,-0.7207814455032349,-0.2107800990343094,-1.5675854682922363,2.6186351776123047,1.0652906894683838,-3.792678117752075,2.0702595710754395,-0.7466495037078857,1.32040274143219,-0.3842383623123169,0.15299895405769348,-1.9408553838729858,1.3879914283752441,2.643751382827759
pear_brandy,0.38232553005218506,-0.4448038935661316,0.23991113901138306,-0.7366135716438293,-0.34622496366500854,-2.074108362197876,0.28063732385635376,-1.5712242126464844,1.0246220827102661,0.7368409037590027,1.227199673652649,2.6226561069488525,2.3634066581726074,2.6151645183563232,1.264204502105713,0.6007067561149597,1.1999369859695435,-3.039185047149658,0.8574590086936951,-1.1577627658843994,-1.180181622505188,-1.2466622591018677,1.7171956300735474,2.892815113067627,-0.8466793298721313,0.7965011596679688,-1.297649621963501,-0.7945697903633118,1.4172024726867676,0.12215840816497803
fig,0.08383704721927643,-2.083951473236084,0.36486178636550903,-0.6736528277397156,-2.2802274227142334,1.6445958614349365,0.2604023814201355,2.245948314666748,-1.5473294258117676,-0.5339162945747375,0.5658421516418457,0.4940284490585327,0.19692179560661316,0.7187891006469727,2.0993545055389404,0.21350780129432678,0.290405809879303,-1.2715662717819214,0.3820771872997284,0.09743592888116837,-1.2660939693450928,-2.0923969745635986,0.5008974075317383,1.468589425086975,1.445797324180603,0.6531275510787964,0.07695451378822327,-3.8408143520355225,-0.4028308689594269,2.705487012863159
roasted_sesame_seed,-0.7848636507987976,-0.09230656176805496,0.4404832124710083,-0.33170342445373535,0.21452850103378296,-0.5354369878768921,-1.2507543563842773,0.8528991937637329,-1.06902015209198,0.04765832796692848,-1.2667373418807983,-1.5352673530578613,0.3883435130119324,-0.4193820357322693,2.224567174911499,1.2230132818222046,-1.5877842903137207,0.21346019208431244,-1.1786447763442993,1.1966207027435303,1.8128364086151123,0.890006959438324,0.9175201058387756,1.6062939167022705,-1.1574357748031616,1.306418776512146,1.3626658916473389,0.08495482802391052,-0.37765300273895264,0.9038035273551941
bitter_orange,0.6373421549797058,1.2547181844711304,-0.5036681890487671,-0.27673420310020447,-1.7503135204315186,2.1367008686065674,2.1715903282165527,2.162325382232666,-0.4760873019695282,1.343621015548706,1.4992566108703613,1.6014325618743896,1.6165416240692139,1.4591387510299683,1.0092796087265015,0.1478896290063858,-0.39515256881713867,-1.65471613407135,-0.7105947136878967,0.5645514130592346,0.9304649829864502,-0.1535230576992035,0.27956661581993103,1.5761821269989014,0.6735196113586426,0.4618378281593323,0.4721508026123047,0.9304481148719788,-0.06626106053590775,0.6586354970932007
clary_sage,-0.6564931869506836,-2.462056875228882,1.2951136827468872,-0.22706303000450134,-0.6149702072143555,0.17179054021835327,-0.715775191783905,2.3916101455688477,-0.3193811774253845,0.21115614473819733,2.2645156383514404,0.42003515362739563,-0.13729910552501678,1.2793948650360107,1.5916386842727661,0.2568840980529785,-0.587856650352478,0.11089830100536346,-0.15035656094551086,1.2633750438690186,-1.1877009868621826,0.8217851519584656,0.7816775441169739,0.10693912953138351,-0.963974118232727,-0.7750687003135681,0.8481897711753845,0.6514724493026733,-1.8004674911499023,0.8712108731269836
avocado,2.168978691101074,0.9034696817398071,0.6551016569137573,-1.5117900371551514,-0.4946620464324951,2.433424472808838,-1.8153163194656372,-0.3476620316505432,-1.3803521394729614,-0.5285729765892029,-1.5314949750900269,1.3559848070144653,1.0272020101547241,0.8005005717277527,0.7764548659324646,1.1458377838134766,0.2540249824523926,1.755637764930725,-1.9301486015319824,1.8022851943969727,1.3263745307922363,-1.3558906316757202,-1.1852750778198242,1.5050796270370483,0.0903063490986824,0.45170581340789795,0.4019908308982849,-1.2087435722351074,-0.8574634194374084,-0.6831940412521362
wild_berry,2.0346531867980957,1.2702674865722656,0.8427988290786743,0.4482731819152832,-2.4772284030914307,-0.25393977761268616,0.28845086693763733,1.0636515617370605,-2.655548572540283,-0.6883425712585449,-0.5021396279335022,1.9991217851638794,1.7263665199279785,0.5544562935829163,0.8963862657546997,-2.3381428718566895,1.1436530351638794,-1.6597156524658203,-1.487438440322876,-0.2674906849861145,1.107588768005371,-1.0994393825531006,2.0528945922851562,0.12500610947608948,1.351343035697937,0.11142528057098389,2.1363420486450195,0.9016623497009277,-2.1381747722625732,1.5991066694259644
california_orange_peel,-2.682347297668457,1.7226871252059937,0.9867165088653564,1.280893087387085,-0.3420332968235016,-1.2326338291168213,-0.8087884187698364,0.21144773066043854,1.3482146263122559,2.4195361137390137,0.8280600309371948,1.3283867835998535,3.229926586151123,0.6839499473571777,2.5892372131347656,-0.5727329850196838,-3.1939361095428467,-0.942918062210083,0.5348142385482788,-0.6438146829605103,-1.1475785970687866,-0.8300779461860657,0.33329665660858154,0.8947126865386963,3.4264767169952393,-0.7481335401535034,-2.975062131881714,0.49149203300476074,-1.1044421195983887,-0.3087669014930725
lime,0.799128532409668,0.20531252026557922,-0.49062246084213257,-0.34956222772598267,-0.5917575359344482,0.6500466465950012,-0.6220508813858032,2.17337965965271,-0.792296290397644,0.8557653427124023,2.5154194831848145,2.169649600982666,2.144904136657715,2.1464529037475586,1.0051584243774414,-0.39934033155441284,1.0890945196151733,-1.3975498676300049,1.5958993434906006,1.7328108549118042,0.5219106078147888,-0.3795013725757599,2.4742846488952637,0.7247812747955322,-0.40034785866737366,0.23360876739025116,3.0821938514709473,-0.4683971405029297,-0.19435946643352509,-0.42087727785110474
buckwheat,-2.0688986778259277,-0.6365925073623657,-0.6774905920028687,-0.3206194043159485,0.5044244527816772,-0.8975945711135864,-1.6418509483337402,-0.7865753769874573,-1.5781208276748657,0.38084155321121216,-0.9461560845375061,-0.32711881399154663,-1.331522822380066,4.296454906463623,2.0714035034179688,0.27946820855140686,0.3374727666378021,-0.00860016793012619,-0.5177562832832336,-0.1597064584493637,-0.05796464532613754,-0.5159783363342285,2.3447604179382324,1.2265223264694214,-0.7351261377334595,-1.2172194719314575,0.4225645065307617,1.4838088750839233,1.0417213439941406,1.6118978261947632
mussel,1.8896126747131348,-1.94058096408844,1.8363738059997559,-0.8923652172088623,1.1378388404846191,-1.1814559698104858,0.2948288321495056,-0.09878728538751602,-2.5733211040496826,-1.1143311262130737,-1.5025547742843628,0.7712931036949158,1.566525936126709,-1.209193468093872,-0.4622530937194824,0.24918006360530853,-0.8747333288192749,-1.852394938468933,1.5242791175842285,0.45525336265563965,-0.30694782733917236,-2.257110595703125,0.8565817475318909,0.8759351968765259,0.6212374567985535,1.0455327033996582,0.3230399787425995,1.7230130434036255,1.6915863752365112,-0.47060585021972656
popcorn,0.3682124614715576,-0.6678643226623535,0.4476466178894043,0.0437275655567646,0.2043246626853943,-1.0507867336273193,-2.197246551513672,0.6367019414901733,0.5526870489120483,-0.3137146532535553,-0.4788427948951721,-0.113036148250103,1.9567457437515259,1.392802119255066,0.7004247307777405,2.4421298503875732,-2.0588653087615967,-0.026552319526672363,-1.2194600105285645,2.9155685901641846,1.884320855140686,1.5209951400756836,0.28310370445251465,-0.019123736768960953,-1.3333762884140015,0.5010078549385071,1.397576093673706,-0.9093752503395081,1.9221234321594238,0.5705528259277344
apple,1.4812817573547363,-2.0026097297668457,-0.46941158175468445,-1.2211112976074219,1.591962218284607,-1.464271068572998,1.376300573348999,0.8946846723556519,-0.8755881190299988,-1.005035400390625,-0.3100440800189972,1.7197084426879883,1.749202013015747,-0.033347055315971375,-2.3248229026794434,0.009832706302404404,-0.09912877529859543,-2.152925729751587,0.8087592124938965,-0.03654111549258232,0.2624020576477051,-1.7772411108016968,0.5247504115104675,2.042402982711792,0.7075390219688416,1.870696783065796,-0.3668068051338196,0.5017433762550354,-0.5396700501441956,2.1403849124908447
peppermint_oil,-2.0003161430358887,-2.06526780128479,2.940077781677246,-1.3601833581924438,-1.6230779886245728,1.2841655015945435,-1.4972058534622192,2.4755733013153076,-0.5437007546424866,-0.5654691457748413,0.31174349784851074,1.7733186483383179,-0.5014516711235046,0.2844652235507965,1.1414728164672852,-0.06207915395498276,-0.9147899150848389,-2.0813632011413574,1.375546932220459,0.47373154759407043,2.6011765003204346,-0.45388203859329224,-0.33115318417549133,0.5008268356323242,-2.001007556915283,-1.6619187593460083,-1.3695268630981445,0.7271994948387146,1.555330753326416,0.10089489817619324
asparagus,2.186116933822632,0.5477893948554993,1.3864200115203857,0.7438880205154419,-0.8750367760658264,-3.506073236465454,-0.8677492737770081,0.5642252564430237,-0.019735151901841164,-0.1443052440881729,-0.5361891388893127,2.327164649963379,-1.238328456878662,0.8474537134170532,1.1478816270828247,-0.5803256630897522,0.7779478430747986,0.3363286256790161,-1.849265456199646,-0.2642533779144287,-1.1941524744033813,0.16001629829406738,3.602806806564331,-1.8883066177368164,-0.5681063532829285,0.5015543103218079,1.1939408779144287,-0.004398594610393047,0.9195253252983093,0.43973779678344727
fruit_brandy,1.1152894496917725,0.22241578996181488,0.5771432518959045,-0.09436015039682388,-0.3954263925552368,-0.2277563512325287,-2.960820436477661,-0.16242550313472748,-0.9148389101028442,-0.3915964365005493,-0.30522310733795166,3.295883893966675,1.5778634548187256,-0.60159832239151,0.6744421124458313,-0.9409615397453308,-1.9966528415679932,-4.0844573974609375,1.2844308614730835,-0.6056181788444519,-0.9101430177688599,-2.117189884185791,0.943570077419281,0.24658605456352234,1.0698152780532837,0.6087265014648438,2.0463850498199463,0.3672976493835449,0.955851674079895,3.0582661628723145
myrtleberry,1.7331205606460571,0.38014599680900574,1.1254384517669678,0.808117687702179,-2.182115077972412,0.8566088676452637,-0.9362528324127197,1.0701953172683716,-0.8723493218421936,-0.40087977051734924,-0.7729440331459045,1.7364660501480103,1.4356095790863037,0.3878507614135742,2.52834415435791,-0.6970165967941284,1.6894659996032715,-0.01830570213496685,-0.9452916979789734,1.194507122039795,0.48359471559524536,-1.7520182132720947,0.24888186156749725,0.30912843346595764,1.1585925817489624,-0.7005389332771301,1.268916130065918,1.1733894348144531,-3.077627420425415,1.0408672094345093
elderberry_fruit,0.8414750695228577,0.8606874346733093,0.6948942542076111,-0.7813823819160461,-2.754206895828247,-1.4070403575897217,0.02518346533179283,2.1673340797424316,-2.0443787574768066,-0.23331941664218903,1.470346212387085,1.2775708436965942,2.475795030593872,2.153822660446167,1.2523257732391357,-0.5325632691383362,0.38762831687927246,-0.6182674765586853,0.36590591073036194,2.901564598083496,-0.3581223785877228,0.5961320400238037,-1.3907843828201294,0.7498388290405273,0.6592468619346619,-0.7455454468727112,0.24836763739585876,-0.19133353233337402,-0.9372427463531494,0.1346411406993866
barley,0.4555723965167999,1.1123327016830444,1.2173168659210205,-0.451351135969162,-1.726418375968933,-1.3422467708587646,-1.2184228897094727,3.0196378231048584,-0.0691298097372055,1.3564828634262085,1.273497223854065,-0.4175322949886322,1.1990712881088257,1.613747477531433,0.9305480718612671,3.040191888809204,0.7911897301673889,-0.6859343647956848,-1.1532500982284546,0.696543276309967,-0.060545362532138824,-0.5183728337287903,-0.8771340250968933,-1.4092648029327393,-1.324445366859436,0.10997936129570007,-0.33654338121414185,-1.019355297088623,2.1840248107910156,2.452918529510498
mate,-0.4856342077255249,-0.4107016921043396,1.1934527158737183,0.5141498446464539,-0.6002932786941528,-0.8490986824035645,-2.657545566558838,0.3025369346141815,-0.9192467927932739,-0.48093846440315247,-1.0066075325012207,-2.3004980087280273,0.11986198276281357,1.7069966793060303,0.017491834238171577,-1.3840490579605103,1.16089928150177,-0.3476210832595825,-2.960601806640625,-1.1254332065582275,0.4518413543701172,-2.4279611110687256,2.882741689682007,1.4227871894836426,-1.1949925422668457,-0.017524944618344307,-0.2907153367996216,0.3575510084629059,-1.7393032312393188,0.7173833847045898
sparkling_wine,0.724461019039154,-2.5012261867523193,1.3057295083999634,-1.8043895959854126,-0.6222712993621826,-0.9283280372619629,-0.149149551987648,1.00376558303833,0.4095951318740845,0.9977320432662964,-3.303574800491333,1.3552813529968262,1.20595383644104,0.3852829337120056,1.293170690536499,-2.3116278648376465,-0.6600838303565979,-1.7439159154891968,0.0078111132606863976,-1.4269661903381348,-0.9504570364952087,-0.48768675327301025,-1.1419181823730469,1.586512804031372,0.7995954155921936,-0.6824082136154175,2.158965826034546,-0.08698190748691559,0.9033750891685486,0.8848657608032227
pepino_melon,0.11607015132904053,-0.7488186955451965,-1.3189970254898071,0.8962845802307129,-2.4090447425842285,-1.7991483211517334,0.06068381294608116,1.4164743423461914,-1.4070533514022827,2.065939426422119,0.6532535552978516,-0.4892754852771759,2.1732161045074463,1.3297089338302612,0.27974826097488403,-1.4626864194869995,1.265580415725708,-1.6191482543945312,-0.9844594597816467,-0.39964136481285095,-0.9969971179962158,-2.4655723571777344,-1.0999408960342407,-0.23846666514873505,0.4741438627243042,1.6017776727676392,0.2244907170534134,-1.5076673030853271,0.7763460874557495,-0.4549157917499542
provolone_cheese,1.0604438781738281,-1.2285677194595337,0.7614845037460327,-1.3201767206192017,-0.22029225528240204,0.4702935516834259,-1.3917261362075806,0.39461180567741394,-1.0972280502319336,1.719539999961853,-0.8876771330833435,0.22833451628684998,0.547100841999054,0.2579386234283447,0.6434124708175659,1.563869833946228,-1.2405152320861816,-0.8749347925186157,1.103911280632019,0.5919745564460754,-1.9620656967163086,-1.6237962245941162,1.3935935497283936,-1.3332462310791016,1.1671887636184692,0.9968183040618896,0.8919335007667542,1.5687956809997559,0.5109180808067322,0.4937996566295624
wild_raspberry,1.7028882503509521,0.6446053385734558,2.0918078422546387,1.2790122032165527,-2.866391181945801,0.5752763152122498,-0.24657028913497925,0.33593958616256714,-1.9095107316970825,-0.3428620398044586,-0.942434549331665,1.6895114183425903,2.216203451156616,0.7368117570877075,2.0146610736846924,-0.4193984866142273,1.1021466255187988,-0.6954785585403442,-0.870540976524353,1.4822982549667358,0.09268806129693985,-1.702775001525879,-0.17728540301322937,0.0782003402709961,0.19015242159366608,-0.3448420464992523,1.9132403135299683,1.3180043697357178,-3.1671042442321777,-0.3885606825351715
scotch_spearmint_oil,2.293931007385254,-3.399109363555908,3.068711757659912,1.7718275785446167,-2.5846214294433594,-0.09224975854158401,-0.7534815669059753,-0.3366554379463196,-1.7268633842468262,0.9647094011306763,-0.08283787220716476,1.2320458889007568,0.01742986962199211,1.4890305995941162,1.6058177947998047,0.599014163017273,0.10148349404335022,1.6034953594207764,-1.2407768964767456,-0.09577769041061401,1.6150310039520264,1.0326080322265625,-1.4872530698776245,-1.1380358934402466,-0.3315643072128296,-0.33398669958114624,0.05174435302615166,-0.1025279238820076,0.29517662525177,-1.2802786827087402
mastic_gum_fruit_oil,1.3081704378128052,-0.6019176244735718,-0.08977842330932617,1.5957437753677368,-1.8040525913238525,0.3389376997947693,0.13827654719352722,1.1789031028747559,-2.1142730712890625,0.9786480665206909,-0.463317334651947,0.7013901472091675,0.9947451949119568,2.5924172401428223,1.8250092267990112,0.48786503076553345,-1.8514782190322876,0.16009986400604248,1.4937174320220947,-1.8357787132263184,-0.4214725196361542,-1.1293660402297974,-0.9370508193969727,-1.3635965585708618,-0.7168449759483337,0.5924443602561951,-0.6162998080253601,1.9836724996566772,0.9759541153907776,-0.8201795220375061
corn_mint,-0.11793738603591919,-1.867174744606018,1.551403284072876,-0.43956974148750305,-1.8912951946258545,0.2124687284231186,-1.553309679031372,-0.3217695653438568,-0.8830389380455017,-0.4003356993198395,0.5142946243286133,1.9003403186798096,2.994537830352783,1.121309757232666,-1.7062606811523438,0.7041964530944824,0.40987056493759155,-0.3472807705402374,0.17271535098552704,-1.5797053575515747,2.240600824356079,1.1353044509887695,1.9666920900344849,-0.4431266486644745,1.3628971576690674,-0.5500120520591736,-0.17479483783245087,0.25326675176620483,0.8670449256896973,-1.4120293855667114
origanum,-0.22861137986183167,-0.9659842252731323,1.7270872592926025,-0.5117061138153076,-0.7475806474685669,0.7110840678215027,-0.47877785563468933,1.2869668006896973,-1.6556934118270874,0.4815085828304291,1.8759888410568237,0.9711966514587402,2.371788501739502,1.215658187866211,0.6150450706481934,-0.00969660747796297,-0.23954086005687714,0.6340212225914001,-2.4732749462127686,-2.3711941242218018,-0.7167952656745911,0.35741525888442993,-0.028053073212504387,-0.16059963405132294,-0.8248984217643738,0.29335007071495056,1.7137099504470825,-0.23918688297271729,-0.4431992471218109,0.2341744750738144
botrytized_wine,1.480820655822754,-2.1917290687561035,3.2275211811065674,-2.3147690296173096,-1.149658203125,0.0908031240105629,0.32290035486221313,0.5028266906738281,0.24887555837631226,1.4235275983810425,-2.5797300338745117,1.0758919715881348,1.53689444065094,1.1409509181976318,1.2468162775039673,-0.9392361640930176,-1.1153086423873901,-0.9562664031982422,-0.21507062017917633,-0.935269832611084,-1.2762726545333862,0.2616250216960907,-1.4683890342712402,1.8716766834259033,0.5523004531860352,-0.5498315691947937,1.4229190349578857,-0.42856019735336304,1.949019432067871,0.4117536246776581
tomato,-0.3780421018600464,-0.5427988767623901,1.602757215499878,1.7633191347122192,0.7929104566574097,1.0158129930496216,-2.342865228652954,0.8045773506164551,-0.12821942567825317,-0.14478616416454315,-1.1688852310180664,0.659349262714386,-1.0721285343170166,0.6005359888076782,0.622677743434906,-0.9200546145439148,0.5714787840843201,-1.3842154741287231,1.3164206743240356,-0.07824370265007019,-0.23173755407333374,-0.9435665011405945,1.0063480138778687,1.0757089853286743,-1.5306503772735596,-0.3289504051208496,-0.9565748572349548,-1.2423840761184692,0.23220016062259674,2.9511804580688477
rhubarb,0.508520781993866,-0.4960506558418274,1.0444999933242798,-1.065861701965332,1.7795063257217407,-2.379082202911377,-1.9513049125671387,-0.21422266960144043,-1.5688356161117554,1.329817771911621,-1.3003747463226318,0.8835859298706055,1.9806709289550781,-1.3290646076202393,2.764073610305786,-0.2790820002555847,-1.1517705917358398,0.18430717289447784,-1.6176806688308716,-0.48101770877838135,-0.3108198642730713,0.4670696258544922,-0.5264011025428772,0.04161320999264717,-1.0117928981781006,2.049016237258911,-0.8846361041069031,-0.2532314956188202,-2.2146284580230713,1.5257161855697632
wood_apple,0.6056258082389832,-0.24538762867450714,-0.06681283563375473,1.3323032855987549,-0.5808886289596558,0.7942107915878296,-1.2636830806732178,-0.08726732432842255,0.2929396629333496,-0.8039759993553162,0.8059623837471008,2.6183643341064453,-1.335819125175476,2.7720212936401367,3.4921517372131348,0.5586264133453369,-1.4149672985076904,-3.049468755722046,-0.006047650706022978,-1.017843246459961,-0.44738268852233887,-1.0690951347351074,-1.3750876188278198,1.9981259107589722,0.5137279033660889,0.7199694514274597,0.6670395731925964,0.9216248393058777,-0.6472969651222229,0.41647303104400635
lamb,-1.7060805559158325,-1.523319125175476,0.6252036094665527,-0.660832405090332,-0.1557323932647705,0.024632178246974945,-1.4825547933578491,0.47742098569869995,-2.013451337814331,-0.31886032223701477,-1.8010892868041992,-0.36987873911857605,0.1856253445148468,3.0843257904052734,0.7381128072738647,0.8619682788848877,-2.2272868156433105,-0.4430027902126312,-0.5803775191307068,1.3592684268951416,2.1986935138702393,-0.3553110361099243,-0.1972154676914215,-1.8628945350646973,2.5000851154327393,0.3032631278038025,1.0329101085662842,-0.4657405912876129,0.6233844757080078,-1.7260631322860718
ylangylang,-0.3386056423187256,0.6174225211143494,1.5098425149917603,0.734664261341095,-2.2009756565093994,-2.0411057472229004,-1.8153510093688965,-0.7973284721374512,0.7490507364273071,0.2871222496032715,1.8745039701461792,1.7826229333877563,1.297118902206421,1.8150477409362793,1.6260546445846558,-0.5426011681556702,0.07223086804151535,-1.8077759742736816,0.6495112776756287,-2.3325579166412354,0.08888735622167587,-0.5661973357200623,1.2645126581192017,1.1196160316467285,-1.8737380504608154,-0.7249340415000916,1.4826126098632812,1.4799506664276123,-0.5014297962188721,-1.8760043382644653
tuberose,-1.4881460666656494,-1.1991815567016602,-0.04345685616135597,-0.4312308132648468,-3.00339937210083,-1.6575758457183838,-1.0676591396331787,0.902379035949707,-0.7156214118003845,-0.4167162775993347,0.5315784215927124,0.4827330708503723,-0.12145309895277023,-0.643049418926239,1.2337366342544556,-1.6600103378295898,-0.24462111294269562,-0.5713333487510681,0.27053168416023254,-0.7039076685905457,0.7246602177619934,-1.3683230876922607,0.7657238245010376,2.3565874099731445,-0.6367464661598206,-0.4673931300640106,0.5470749139785767,0.5268633365631104,-0.8766277432441711,-2.7087082862854004
cauliflower,0.029749779030680656,-1.799239158630371,3.333559274673462,1.5250083208084106,-1.6347692012786865,-1.045729398727417,0.0667332336306572,0.7056346535682678,-0.6605504155158997,0.41976988315582275,-0.003947126213461161,0.8726470470428467,0.9025629758834839,-1.7301779985427856,1.6381834745407104,0.8016649484634399,-1.4965291023254395,0.8594932556152344,-0.5715622901916504,2.4876623153686523,-0.7626504302024841,0.5264997482299805,-0.1767655313014984,0.49418044090270996,1.524579405784607,0.5023900866508484,-1.292719841003418,-0.8836410641670227,-1.3948307037353516,1.8752764463424683
black_raspberry,2.1793906688690186,0.2845316231250763,1.8579221963882446,1.0271646976470947,-1.6954244375228882,-0.25709831714630127,0.8500451445579529,1.7065045833587646,-2.2113959789276123,-0.8594107031822205,-1.3071706295013428,1.951218843460083,1.705695390701294,1.6710296869277954,2.3848071098327637,-1.7369558811187744,0.5265534520149231,-1.01933753490448,-0.6772231459617615,1.3584129810333252,1.4164955615997314,-1.261193037033081,-0.5097393989562988,0.6731712818145752,0.38579681515693665,-0.725769579410553,1.7739773988723755,2.11769962310791,-3.047959566116333,1.5637516975402832
guinea_pepper,-1.3845155239105225,-1.9934905767440796,0.6466654539108276,0.6736101508140564,0.4691145718097687,0.7841061353683472,-2.3822391033172607,2.699284315109253,-3.2367117404937744,0.05911500006914139,-0.012430371716618538,0.9098358154296875,2.37300705909729,-0.8506385087966919,0.6965492963790894,-0.9482061266899109,0.12533564865589142,-0.06498754024505615,-1.03611421585083,-1.3531107902526855,1.899337887763977,-0.9687753915786743,-0.3429662883281708,2.3687548637390137,-0.4407496452331543,-0.12758564949035645,0.6220480799674988,0.7241262793540955,1.157435655593872,-0.3036786615848541
marjoram,-0.007015625946223736,-3.1374926567077637,-0.721849799156189,1.149234414100647,-1.5936307907104492,-1.056758165359497,-1.4760476350784302,0.16527239978313446,-2.5957517623901367,0.44483745098114014,0.30268773436546326,2.8790295124053955,1.034090518951416,1.9604758024215698,1.5396728515625,-0.1419444978237152,0.24506372213363647,-0.023596612736582756,0.5343376398086548,-1.2732075452804565,0.8290091156959534,0.42127907276153564,0.7140922546386719,-0.3154746890068054,-0.1845516860485077,-0.4215545952320099,-0.4485403895378113,0.3580375015735626,0.21047192811965942,0.21444086730480194
grape_brandy,1.705871343612671,1.296460747718811,0.014234145171940327,0.18293556571006775,-0.7536175847053528,-1.3365492820739746,-0.1567758172750473,0.030921952798962593,1.6513983011245728,1.3547511100769043,-0.3025000989437103,-0.025580253452062607,1.1742854118347168,3.213702917098999,2.1404106616973877,1.496808648109436,-1.5382490158081055,0.46076223254203796,0.9586363434791565,1.416340708732605,2.627518653869629,-0.48011064529418945,-0.21669504046440125,0.9884838461875916,-0.8291317820549011,-0.3894885778427124,-1.671303391456604,1.076844573020935,-0.9331805109977722,0.019111867994070053
bog_blueberry,1.39337158203125,0.7521865367889404,1.046440839767456,0.32780349254608154,-1.6321834325790405,0.42437776923179626,-0.6771956086158752,1.2029242515563965,-1.7414909601211548,-0.999708354473114,-1.6671580076217651,1.3713771104812622,1.348117470741272,1.4218664169311523,1.6293449401855469,-1.0892517566680908,0.6221532821655273,0.1857837438583374,-0.3735058605670929,1.8648525476455688,1.1463724374771118,-1.9280468225479126,0.09127964824438095,0.4330079257488251,0.17496663331985474,-1.8148592710494995,2.0990872383117676,1.177931547164917,-3.1271257400512695,0.8923016786575317
raw_bean,-0.8726933002471924,-0.631060004234314,2.538983106613159,1.1182109117507935,1.632253885269165,-1.5645616054534912,-0.9182083606719971,-1.563102126121521,-1.0928186178207397,1.6847889423370361,-0.9191437363624573,0.5995189547538757,2.899860143661499,0.40913721919059753,0.7762928009033203,1.5405758619308472,-1.7533899545669556,-1.898838758468628,-2.7532081604003906,2.044462203979492,0.1035427525639534,-0.31735941767692566,0.6602215766906738,1.0537340641021729,-0.6786343455314636,-1.071006178855896,0.5198104381561279,-2.184976577758789,-2.0731406211853027,0.4912427067756653
raw_turkey,-2.192007064819336,0.5714342594146729,1.8477177619934082,-1.3935381174087524,0.14721789956092834,-0.9704927802085876,-1.6429258584976196,2.8818280696868896,-0.8281070590019226,-0.8386875987052917,-1.4558913707733154,-0.6080126762390137,2.084071159362793,2.955225944519043,1.3527894020080566,2.532580614089966,-2.6932201385498047,-0.8040511012077332,-0.3229507505893707,0.21997199952602386,1.0071637630462646,-1.773053765296936,-1.5621155500411987,-1.7454679012298584,2.0630295276641846,-0.001925099641084671,1.6930664777755737,-1.3702685832977295,-0.5841086506843567,-0.20590394735336304
mastic_gum_leaf_oil,0.6349260210990906,-2.3733232021331787,-1.2157723903656006,2.529517412185669,-1.0188570022583008,0.2741958796977997,0.10146749764680862,0.9658716320991516,-1.375056266784668,1.1819052696228027,-1.6188125610351562,2.035715341567993,0.8709916472434998,2.92156720161438,0.41551053524017334,1.8164026737213135,-2.2212157249450684,-0.37727993726730347,1.081323504447937,-0.8841938376426697,0.17625319957733154,-1.0364266633987427,-1.8787108659744263,0.653354287147522,0.39809393882751465,-0.30177146196365356,0.0616220161318779,3.349431037902832,-0.04375078156590462,0.1913565695285797
acacia,-0.769668459892273,-0.7410249710083008,1.2507972717285156,-0.29294446110725403,-1.6495317220687866,-0.0836004912853241,-2.294670581817627,-0.12133289128541946,-1.7933272123336792,-0.8247039914131165,-0.14361338317394257,1.335757851600647,1.53046452999115,0.02341797575354576,-0.06875350326299667,-0.7626072764396667,-0.5697710514068604,0.1479969024658203,1.2139889001846313,0.20714406669139862,-0.5383685827255249,-1.6131130456924438,0.4595850706100464,0.6589563488960266,-0.046163298189640045,-1.4520272016525269,0.7991923093795776,1.0060518980026245,0.21834847331047058,-1.0967063903808594
capsicum_annuum,-0.2509116232395172,-0.05142007768154144,0.14817538857460022,1.3072187900543213,1.0254076719284058,-0.5970995426177979,-0.5808156132698059,2.733647108078003,-3.5685653686523438,-0.6667464971542358,-0.1827268898487091,1.4416759014129639,2.4745445251464844,0.22805246710777283,0.6887704730033875,-0.5274295806884766,-0.6673875451087952,-0.6545188426971436,-1.5989437103271484,-2.395831346511841,1.4806660413742065,-0.9529873728752136,0.6799540519714355,1.5819721221923828,-1.1981526613235474,0.2930510640144348,0.0970463678240776,1.7192652225494385,1.3653106689453125,-0.32585325837135315
strawberry_jam,1.8364582061767578,-0.24475668370723724,1.4313969612121582,-0.31045570969581604,-0.528533935546875,-0.24187350273132324,-3.3995258808135986,-2.6113717555999756,-2.27166748046875,2.7201480865478516,-0.7690726518630981,0.9708473682403564,-0.11686443537473679,0.1810184270143509,-0.5092870593070984,1.686745047569275,1.101230502128601,0.24274158477783203,-1.0867043733596802,-0.5260016322135925,1.9473680257797241,-2.0291085243225098,-1.6420997381210327,3.1059961318969727,-0.7745615243911743,-0.6693155765533447,-2.0364630222320557,-0.8913871645927429,0.18672743439674377,0.3640601933002472
starfruit,0.44340962171554565,-1.3009285926818848,0.9621254801750183,-0.48985177278518677,-0.42451608180999756,0.9417123198509216,0.04083887115120888,-1.7577261924743652,-1.7553685903549194,-0.5085790157318115,0.16725489497184753,1.4255261421203613,0.3986208438873291,0.8084047436714172,-0.4157816171646118,-1.0723071098327637,0.050104789435863495,0.7229086756706238,-1.4036633968353271,0.9119566082954407,1.4234814643859863,-0.5815367698669434,0.011235631071031094,3.6384880542755127,1.9510127305984497,1.1217325925827026,-1.2925629615783691,0.5778223276138306,1.1998454332351685,-1.5166388750076294
toasted_sesame_seed,0.09381860494613647,0.4021768271923065,0.6807045936584473,-0.06085110083222389,0.07339613884687424,-1.4946516752243042,-1.037000298500061,2.7095563411712646,-1.2072913646697998,-0.48382332921028137,-1.4668986797332764,-1.4300882816314697,0.6379104256629944,1.0055711269378662,1.6474119424819946,0.9315871000289917,-2.2698419094085693,0.25642675161361694,-0.5303955674171448,2.488285779953003,2.7696406841278076,1.1137795448303223,1.1722537279129028,1.1311038732528687,-3.041930913925171,1.2025761604309082,0.9989323616027832,-0.1797921508550644,-0.1965869814157486,2.5283925533294678
red_meat,-1.5454707145690918,1.2204185724258423,2.672297477722168,-1.6192559003829956,-1.5752456188201904,-0.7018840312957764,-1.9462745189666748,0.8959295153617859,-2.053572177886963,-1.2701525688171387,-2.36848521232605,-0.021268470212817192,1.5247063636779785,2.2314229011535645,-0.10420987010002136,1.7219579219818115,-2.4070818424224854,-2.215642213821411,0.321198046207428,0.690996527671814,2.2357747554779053,-0.12290238589048386,-0.7287598848342896,-1.7528319358825684,1.8762931823730469,0.36970755457878113,1.4516123533248901,-0.4840005040168762,-0.7347550988197327,-0.8919183015823364
spearmint_oil,-0.012111177667975426,-3.2751622200012207,-0.5075323581695557,0.33191442489624023,-2.053264617919922,-1.0286383628845215,0.813156247138977,3.6480603218078613,-2.448209762573242,0.5446479320526123,0.3442203998565674,2.5149497985839844,0.7678744196891785,0.26553913950920105,-1.3822418451309204,0.436088502407074,-2.0678727626800537,0.08639894425868988,0.24703535437583923,-0.7052947282791138,2.5322823524475098,0.7751706838607788,-0.3983163833618164,-0.2907101809978485,2.779387950897217,-0.23706555366516113,0.3864891529083252,-2.0458457469940186,-0.21221674978733063,2.7863175868988037
leek,2.5791404247283936,1.1188780069351196,3.069772720336914,-2.0637099742889404,-1.9931609630584717,-1.3976572751998901,1.1154111623764038,2.6375911235809326,-0.4710821211338043,-0.9711624979972839,-1.3567521572113037,-0.40678855776786804,1.260430932044983,-0.29754069447517395,1.8437526226043701,2.5573806762695312,1.5379492044448853,0.5359114408493042,1.0319124460220337,1.2191195487976074,-0.5977912545204163,-0.32782942056655884,0.9486079812049866,2.1199870109558105,-0.373276025056839,3.22109055519104,1.2055988311767578,0.8484873175621033,-0.7258106470108032,0.038981709629297256
brazil_nut,-0.3339959681034088,1.7440776824951172,1.0065745115280151,-1.4782119989395142,-2.146345853805542,-2.042768955230713,-2.7565338611602783,1.4206558465957642,-3.9812841415405273,-1.357216477394104,-2.3690314292907715,-0.258747935295105,0.32058897614479065,0.6731798648834229,0.3234128952026367,-2.359778642654419,-1.795546054840088,0.6604052186012268,-0.27147606015205383,1.0975091457366943,0.07268326729536057,0.16707023978233337,2.8295037746429443,0.11592800170183182,-1.580132246017456,1.327101707458496,0.4289376437664032,0.37337684631347656,1.0764895677566528,-1.1035031080245972
milk,1.059478759765625,-1.3449379205703735,1.9743003845214844,-0.9983000159263611,-0.6518049240112305,-0.21895940601825714,-0.4354189932346344,-1.460362434387207,0.6452967524528503,-0.3674870729446411,0.847599446773529,-0.6597921848297119,0.4831491708755493,1.8592321872711182,-2.1054296493530273,0.5169067978858948,-0.22245082259178162,-0.29679054021835327,0.23759111762046814,1.7543460130691528,0.858533501625061,0.07024812698364258,1.8731565475463867,-0.19566233456134796,0.3269326984882355,1.1836565732955933,0.9893217086791992,0.5519776940345764,-0.15184073150157928,1.0117530822753906
grape,1.2079960107803345,-2.0955235958099365,-0.6713690757751465,-1.3257942199707031,-1.2142471075057983,-0.03669479489326477,-2.318025827407837,-0.6007919907569885,-1.1151291131973267,1.6631319522857666,0.425865113735199,-0.08231840282678604,2.1650524139404297,1.2121886014938354,2.658734083175659,-0.8587290048599243,-0.6477798819541931,0.5904504060745239,0.5250547528266907,-0.4289107918739319,-1.0562819242477417,-1.307133674621582,-1.061470627784729,1.5079725980758667,-0.6765221953392029,2.52477765083313,-0.9211580157279968,-1.362044334411621,-2.5997302532196045,0.8377993106842041
purple_passion_fruit,-0.013624715618789196,-1.7096246480941772,0.32178452610969543,1.2274854183197021,-1.9530746936798096,0.8776661157608032,-1.398398756980896,1.7581995725631714,0.47285622358322144,-1.0887335538864136,0.32349202036857605,0.32090529799461365,2.013774871826172,1.689700961112976,0.534409761428833,0.9229632616043091,-0.09973195195198059,-2.2073819637298584,1.5974160432815552,2.419865608215332,-0.6940494179725647,-1.6668237447738647,-1.8844939470291138,1.2828896045684814,-0.644752562046051,-0.4440425932407379,-1.5489888191223145,-0.10472086817026138,0.952026903629303,-1.1509175300598145
tobacco_leaf,-0.5122544169425964,-1.6749910116195679,0.17598111927509308,-2.214690685272217,-0.018244903534650803,-0.15140368044376373,-1.9042669534683228,0.8559896945953369,0.48680537939071655,-0.10237430036067963,-0.3724350929260254,0.12005537748336792,1.8347663879394531,-1.1704329252243042,-0.37326422333717346,1.2238657474517822,-0.6810032725334167,-0.4489988088607788,-2.036043405532837,-2.3161442279815674,0.8888683915138245,-0.8244748711585999,0.5443284511566162,-0.1124829426407814,1.026846170425415,-0.4174661934375763,-0.6358567476272583,0.6326481699943542,-0.3109631836414337,0.13890431821346283
calamus,-0.19203968346118927,-0.3394646644592285,-0.7963351011276245,-0.9955695867538452,-0.45945873856544495,0.3280313014984131,-2.637312889099121,0.5675888061523438,-1.3739644289016724,-0.009765381924808025,-0.5484179258346558,0.059223420917987823,1.589233160018921,1.75985848903656,0.23960700631141663,0.1823885142803192,0.2906806170940399,1.2988076210021973,-1.0930864810943604,-0.5375068187713623,1.6671761274337769,-0.5499823093414307,1.1706541776657104,-0.8871006965637207,-1.3016620874404907,-0.014143809676170349,0.038314368575811386,1.561716079711914,-2.861719846725464,-0.7986546158790588
shiitake,0.7104761600494385,-1.7957254648208618,2.311736583709717,-1.1966122388839722,0.9546108841896057,-1.4353126287460327,0.32115423679351807,-0.38240379095077515,-3.140746593475342,0.7571792006492615,1.2431080341339111,-2.0069124698638916,0.13124822080135345,0.05481034889817238,1.792134165763855,0.09967818856239319,0.12503083050251007,-0.40803956985473633,0.18200133740901947,-1.481979489326477,2.1230311393737793,-0.8608976602554321,3.1261463165283203,1.9340643882751465,0.6526353359222412,-0.9857187271118164,0.04663596302270889,-2.1485679149627686,-0.4481842517852783,-1.8382043838500977
beef,-0.21651746332645416,-0.6531078815460205,3.5592617988586426,0.5636695027351379,1.060827374458313,-1.5776535272598267,-0.020075859501957893,1.3375097513198853,0.7785497903823853,-0.6933029890060425,0.7862955331802368,-1.6737034320831299,-0.1619224101305008,2.304378032684326,0.33998051285743713,-1.4444777965545654,-1.5968495607376099,-0.4970191717147827,-1.9977761507034302,-0.09667283296585083,1.15626060962677,-2.2742843627929688,1.0244783163070679,0.242509126663208,-0.13148462772369385,2.681757926940918,0.2705118656158447,-0.5975387692451477,1.293308138847351,-0.6156036257743835
veal,-0.6066176891326904,0.24772676825523376,2.659428834915161,-1.2623282670974731,-1.290550708770752,-0.678923487663269,-2.043428897857666,2.237086534500122,-0.9927747249603271,-0.5756246447563171,-1.4040319919586182,-1.3940849304199219,2.2949252128601074,2.6830127239227295,0.3819270730018616,1.7023926973342896,-1.377161979675293,-1.1189064979553223,-0.04633995518088341,0.5165899991989136,1.5399006605148315,-0.5963776111602783,-0.8207618594169617,-2.2611002922058105,0.8118250370025635,0.788144052028656,1.9433376789093018,-0.4922611117362976,-1.1514673233032227,-1.6798491477966309
choke_cherry,-0.8741515874862671,-0.18120655417442322,-0.42314863204956055,-0.9607003927230835,-1.0114656686782837,1.037453293800354,0.0012034171959385276,0.31147345900535583,-2.293185234069824,-0.5475704669952393,-0.10202087461948395,0.5184575915336609,2.5092244148254395,2.0232930183410645,0.6574640870094299,-0.5896936058998108,0.1285480558872223,0.04921949282288551,0.753075361251831,0.9584258198738098,-0.015593468211591244,-2.457221746444702,0.6458145380020142,0.2906849682331085,0.42867547273635864,0.8746030330657959,0.3301527500152588,-0.9903392195701599,-0.9143118262290955,0.5473529696464539
gardenia,-1.9340243339538574,-1.5175050497055054,0.15873074531555176,-0.9652625322341919,-1.980644702911377,0.3742368221282959,-3.2465360164642334,0.11459445208311081,-0.7515559196472168,0.5026434659957886,-0.10350368916988373,2.2224409580230713,1.1841994524002075,-0.7927027344703674,1.2034406661987305,-0.6030352115631104,-1.1929913759231567,-0.17017923295497894,0.6587214469909668,-0.1361381858587265,0.13145790994167328,-0.529376208782196,0.4269886612892151,0.3148433268070221,0.8778998851776123,0.03082219511270523,0.011080407537519932,1.5954630374908447,-1.9810675382614136,-0.18918195366859436
mustard,-1.1964703798294067,0.5633058547973633,2.2125487327575684,-2.4863474369049072,-1.5711947679519653,-3.1325700283050537,-0.8821889162063599,0.4199689030647278,0.5827749371528625,0.05673115327954292,1.5490458011627197,0.7829914093017578,1.6639031171798706,0.015128539875149727,-1.2430942058563232,-1.4035553932189941,0.1419675350189209,2.0348217487335205,-0.20346730947494507,0.0795847699046135,-0.5888065695762634,-1.4546606540679932,0.9196470379829407,2.2339138984680176,1.0015288591384888,-0.3527413308620453,0.23276062309741974,0.6266224384307861,-0.944655179977417,0.6858261227607727
kaffir_lime,0.06894084066152573,0.17364701628684998,0.04748353362083435,0.11893003433942795,0.19566993415355682,1.438371181488037,-0.8440083265304565,3.2491567134857178,-0.49896812438964844,1.3525723218917847,2.1315741539001465,1.6828669309616089,3.0745279788970947,1.8376983404159546,1.1613802909851074,0.30476653575897217,1.1071171760559082,-0.7963001728057861,1.9048258066177368,1.307283639907837,-0.1831638067960739,-1.7135266065597534,1.620712161064148,1.5297038555145264,-0.07496824860572815,-0.17935624718666077,2.453082799911499,-0.8888931274414062,-0.9596803188323975,-1.4307594299316406
cuttlefish,0.11755558103322983,0.10939221829175949,1.2085740566253662,-2.0568692684173584,0.3654395639896393,-1.0480457544326782,-2.248915910720825,1.2591547966003418,1.4747005701065063,0.7592782378196716,-1.2195876836776733,-0.29751789569854736,1.8573366403579712,2.61968994140625,2.700540065765381,0.1389794647693634,0.2537589371204376,-0.497675359249115,-0.6753813624382019,-0.8701661825180054,0.36604633927345276,0.3926740884780884,-0.6255702972412109,1.7872414588928223,-2.0575172901153564,0.09765220433473587,-1.4889429807662964,-1.112799882888794,-1.0441142320632935,-0.17714790999889374
emmental_cheese,0.7962523698806763,-1.3766155242919922,1.320270299911499,-0.8400583863258362,0.15843017399311066,-0.041860245168209076,-1.2684400081634521,0.6942117810249329,-2.159600019454956,2.048318862915039,-0.603205680847168,-0.5756034255027771,0.7607619762420654,0.3210058808326721,0.012295642867684364,0.7073749899864197,-1.7299193143844604,-1.9553824663162231,0.9383788108825684,0.23249252140522003,-1.4110875129699707,-2.437732458114624,1.6710221767425537,-1.277511477470398,0.21459713578224182,2.053307294845581,1.4292540550231934,1.670520544052124,0.44416898488998413,1.5081496238708496
guarana,-0.9883003830909729,1.217347502708435,0.535750150680542,0.1752559393644333,-0.6952037811279297,1.253528118133545,-0.7301549315452576,0.6370618343353271,-0.2617350220680237,-1.252541422843933,0.8879573941230774,1.0409327745437622,3.674968957901001,1.0540918111801147,0.8618409633636475,-0.9142035245895386,-0.18600039184093475,-0.8782476782798767,1.3938798904418945,0.11943221837282181,0.6584013104438782,-0.9865283370018005,0.5396022200584412,1.2329730987548828,0.8530368208885193,1.3465245962142944,-0.2474822700023651,-0.34684377908706665,-1.4915962219238281,2.095423698425293
brazil_rosewood,1.8240739107131958,-0.740070104598999,0.6217820048332214,0.7276080250740051,-2.019941568374634,2.0249059200286865,-0.4427419602870941,2.486459970474243,0.36877310276031494,-1.3829725980758667,0.4927637577056885,-1.0354794263839722,1.0729305744171143,2.0019936561584473,-0.2798447608947754,1.138578176498413,-0.319553941488266,-2.0409910678863525,0.41313478350639343,0.27229422330856323,1.8189120292663574,-0.5291832089424133,0.41379058361053467,0.4982432723045349,0.5212002992630005,-1.3805885314941406,0.5678431987762451,-0.3292814791202545,-1.936043381690979,1.8448879718780518
smoked_herring,-0.9541475176811218,-0.5380109548568726,2.5332438945770264,0.9965001344680786,-1.8735665082931519,-0.45744588971138,1.4641907215118408,0.1337849199771881,-1.32747220993042,0.774569034576416,-2.556884765625,-0.5976072549819946,2.0302646160125732,1.7524060010910034,0.558316707611084,0.47267112135887146,1.0836642980575562,-0.2586991786956787,0.9068830609321594,-0.07626651227474213,2.1212220191955566,-2.5388667583465576,1.5173732042312622,-0.45070767402648926,0.20345711708068848,1.3903298377990723,-1.0168081521987915,-1.2259122133255005,1.375732421875,0.6819626092910767
roasted_chicory_root,1.3385530710220337,-0.9896064400672913,0.7362867593765259,-1.3087875843048096,-0.4177846610546112,0.12763406336307526,-0.44675931334495544,0.29754403233528137,-0.49565744400024414,0.8967735767364502,-0.9340026378631592,1.0044221878051758,0.22990232706069946,0.43958529829978943,-0.191009983420372,1.701004147529602,1.431789755821228,0.7012583017349243,-1.1484415531158447,-1.206583857536316,3.0176055431365967,-1.6690822839736938,-0.012983010150492191,3.2953860759735107,-0.4749155640602112,1.5811500549316406,3.14015531539917,0.9221855401992798,2.391423463821411,2.2682759761810303
swiss_cheese,0.9702787399291992,-0.7607768774032593,1.090134859085083,-0.771603524684906,1.0495628118515015,-0.8057502508163452,0.446950227022171,-0.39287611842155457,-1.7428011894226074,1.3025686740875244,0.5592947006225586,0.2998504340648651,-0.5919950008392334,0.2874935269355774,1.2146477699279785,0.7653591632843018,-2.2740671634674072,-0.9787979125976562,-0.18198497593402863,0.5747828483581543,-0.6620787978172302,-2.1789445877075195,0.0043946607038378716,-1.0729714632034302,0.47458064556121826,1.3918521404266357,0.2053624391555786,1.6790255308151245,0.4578007459640503,1.3348469734191895
wild_rice,0.41732779145240784,0.7187197804450989,0.6365414261817932,-0.4715603291988373,-0.347116619348526,-0.31166955828666687,-0.6974859833717346,-0.3110300898551941,0.5781424045562744,-0.09020032733678818,-0.9237515926361084,-0.22223961353302002,0.16441144049167633,0.30498334765434265,2.2989113330841064,1.754396915435791,-1.9073878526687622,-0.5665901303291321,-1.1615358591079712,0.4675760269165039,2.4182941913604736,0.34515905380249023,2.3802568912506104,2.8459970951080322,0.4663655161857605,0.301089346408844,-0.5854129195213318,0.3285857141017914,1.0706303119659424,-0.34800150990486145
shrimp,-0.11355406045913696,1.335638403892517,1.3018120527267456,-0.7980170249938965,-1.6045347452163696,-3.328289747238159,-4.083952903747559,-1.159165620803833,0.16966979205608368,-1.3730518817901611,0.16287806630134583,1.334227442741394,1.0397512912750244,-1.0898033380508423,2.0262982845306396,1.4503930807113647,-0.9864394068717957,-1.2825294733047485,0.6212760210037231,-0.3276350796222687,1.941117286682129,0.01983347348868847,3.2948272228240967,-0.1769447922706604,1.6204419136047363,2.339693307876587,-0.6634405851364136,-1.7071723937988281,1.145492672920227,-0.2934562861919403
pistachio,-0.24195009469985962,1.1642537117004395,0.6824910044670105,-1.2948050498962402,-0.8762694597244263,0.057771846652030945,-2.8212380409240723,0.9920307993888855,-2.337329626083374,-0.3942786455154419,-1.370923399925232,-0.018874526023864746,1.9893513917922974,0.09746088832616806,-0.28396034240722656,-0.6879056096076965,-1.0251199007034302,1.5903924703598022,-0.5194581747055054,3.2608392238616943,1.4499099254608154,0.6043431162834167,1.9354374408721924,1.62384033203125,1.228622555732727,-0.18980906903743744,1.3057396411895752,-0.5348162651062012,1.265109658241272,-2.1234192848205566
chive,1.3681544065475464,-1.0102459192276,2.7863354682922363,1.1499086618423462,-0.23726610839366913,-0.08649285137653351,0.49959006905555725,-0.6033365726470947,0.005234325770288706,0.5352294445037842,-2.5703015327453613,-1.1632275581359863,2.4685001373291016,0.195365771651268,0.8972719311714172,0.5358662009239197,-1.8250244855880737,2.1539833545684814,-0.11958849430084229,0.8510598540306091,1.4823569059371948,-0.642565131187439,0.2338617742061615,1.3365837335586548,-0.9490916132926941,-0.3715849220752716,0.6528517603874207,1.0431559085845947,1.0118411779403687,-1.2584190368652344
sea_buckthorn,1.6421397924423218,-2.662175178527832,-0.4431208670139313,0.006574956234544516,-0.4213908314704895,-0.3711472749710083,-0.3910820186138153,-1.0468591451644897,-0.5494824051856995,0.2456122785806656,-0.9733303189277649,1.7627229690551758,1.1152364015579224,3.1421072483062744,1.2578868865966797,0.5774217844009399,-1.6162675619125366,-1.4209305047988892,1.0347981452941895,0.29056087136268616,0.39345747232437134,1.377756953239441,-1.5586117506027222,1.0911884307861328,1.4443070888519287,-0.7902748584747314,-0.03150712698698044,1.2510898113250732,1.257796287536621,-1.1418172121047974
grape_vine,1.0056184530258179,0.07754287123680115,-0.7094190716743469,-1.8458061218261719,1.8610725402832031,0.11445529758930206,-1.8125653266906738,-0.8875578045845032,0.29741597175598145,0.6412017941474915,1.3891502618789673,1.8948115110397339,0.8048480153083801,1.7830712795257568,2.1474320888519287,0.08709064871072769,-1.5925016403198242,-0.4742770195007324,0.5521166920661926,-2.0061800479888916,0.04091547057032585,-0.7859262824058533,2.0797901153564453,-0.097893625497818,0.258645236492157,-0.6028281450271606,-0.4675458073616028,0.41365742683410645,-0.010144279338419437,-0.024932315573096275
coconut,0.5294145941734314,0.37317055463790894,0.1743021160364151,-0.9292709827423096,-0.718765914440155,-1.2032948732376099,-1.972115397453308,-1.930069088935852,-0.8554947376251221,0.05292121693491936,-2.3559234142303467,1.2838438749313354,-0.1741989552974701,2.2974629402160645,-2.1378040313720703,1.8989553451538086,0.08872811496257782,-2.599619150161743,1.7657971382141113,0.7086107730865479,1.3011025190353394,-1.8355250358581543,1.4735933542251587,0.5721897482872009,-0.1560506671667099,1.526299238204956,2.324934959411621,0.685616672039032,1.0655772686004639,0.5227413177490234
port_wine,1.395878791809082,-2.1809451580047607,1.6758639812469482,-1.4687477350234985,-0.7351856827735901,-0.6992189884185791,0.7754849791526794,0.20430700480937958,0.6678067445755005,0.8676934838294983,-2.9071640968322754,1.3544846773147583,1.7669316530227661,0.9858212471008301,1.509818196296692,-1.4360839128494263,-1.6586263179779053,-1.8059523105621338,0.0593862310051918,-1.128779649734497,-0.846096396446228,-0.7460018992424011,-1.3569177389144897,1.2468293905258179,0.24163883924484253,-0.5828366279602051,1.8412760496139526,-0.5153368711471558,0.5698967576026917,0.9806739091873169
pork,-0.15280894935131073,0.7642168402671814,1.7944912910461426,-0.3341481387615204,0.12736256420612335,-1.5548068284988403,-1.2698358297348022,2.4703073501586914,0.4367155432701111,2.141028881072998,-0.8951511979103088,0.7859346866607666,-1.4934722185134888,1.7231773138046265,0.38417184352874756,-0.752774715423584,-0.20127587020397186,-1.795478343963623,-1.2113405466079712,0.46290576457977295,2.465480327606201,-1.5119221210479736,1.5740879774093628,-0.6135060787200928,1.3493897914886475,1.5729727745056152,0.5062156915664673,-0.523138165473938,-1.537848949432373,-0.20641003549098969
loganberry,1.6498382091522217,0.48541346192359924,2.5441887378692627,0.7373881340026855,-2.625821828842163,1.4216793775558472,-0.04926633834838867,-0.04507391154766083,-1.3655530214309692,-0.9673611521720886,-1.4454765319824219,1.412458062171936,1.2765859365463257,2.697783946990967,-1.6790027618408203,-0.7413066029548645,0.42042991518974304,-0.2324971854686737,-0.6421105265617371,1.3861138820648193,0.7411579489707947,-1.4150745868682861,0.19566743075847626,1.4212671518325806,-0.44542396068573,-0.708918571472168,-0.5807439684867859,1.8524187803268433,-1.9294075965881348,1.1080405712127686
neroli_oil,0.04698179289698601,-0.27836114168167114,-0.6672167181968689,-0.7764820456504822,-1.7823055982589722,-0.2276521921157837,-1.1058745384216309,0.5153884887695312,-0.49171772599220276,0.8455442190170288,0.8643628358840942,1.1706318855285645,0.040323156863451004,0.7384828925132751,1.8918930292129517,1.9722175598144531,0.16368040442466736,0.9869863986968994,-0.9573816657066345,-0.8442577123641968,-0.29152417182922363,-3.0098514556884766,1.5354254245758057,1.535736083984375,-0.4649742841720581,-2.0622878074645996,0.1079321801662445,-1.9550482034683228,-1.125601053237915,-0.11238360404968262
currant,0.22430026531219482,-1.0633132457733154,0.5524754524230957,-1.8569144010543823,-1.5171737670898438,0.5903517603874207,0.2436531037092209,-0.12124884873628616,-2.15305757522583,0.47624069452285767,1.014626145362854,1.309437870979309,1.240370512008667,0.18602143228054047,-0.588675320148468,-1.1374921798706055,0.8259867429733276,0.2307063639163971,-2.475167989730835,0.9616742730140686,-0.49782055616378784,-1.6208616495132446,0.6340687870979309,-0.27726835012435913,-0.7382579445838928,0.9711064696311951,-1.3296003341674805,-0.7309067249298096,0.078630730509758,0.9458543658256531
parsnip_fruit,0.6618524193763733,-0.5634673237800598,-0.013564051128923893,0.11684788763523102,-0.043602343648672104,0.08725140988826752,0.8894060850143433,-0.8409490585327148,-1.1270889043807983,-0.14574439823627472,1.2924190759658813,2.2517964839935303,2.5725064277648926,2.2939696311950684,2.1679067611694336,0.44446903467178345,1.1057552099227905,-1.105878233909607,0.3740289807319641,1.7578972578048706,0.6132554411888123,-0.05717866122722626,-0.2853226661682129,1.0240905284881592,0.32710039615631104,1.3753185272216797,2.147064208984375,-0.1312858909368515,-1.0263326168060303,-0.41068965196609497
black_seabream,-1.5106494426727295,-0.3209589719772339,1.2347091436386108,0.91372150182724,-1.552019715309143,-2.251505136489868,0.9338552355766296,1.2364330291748047,-1.4018924236297607,1.3181790113449097,-2.132655620574951,-0.5457168221473694,2.503974676132202,1.9960088729858398,1.550949215888977,1.0892688035964966,0.7654922008514404,1.7792552709579468,0.6716178059577942,0.7154912352561951,0.7991683483123779,-1.23636794090271,0.2766791582107544,0.24115461111068726,1.2924504280090332,0.8253989815711975,-1.0704362392425537,-0.4569672644138336,0.8996139764785767,0.9225437045097351
grilled_beef,-0.7383582592010498,-0.28927916288375854,2.7135982513427734,0.5525975227355957,1.401543140411377,-1.5779027938842773,-0.4389377534389496,1.4467003345489502,1.1258068084716797,-0.9603406190872192,0.598468005657196,-0.8006565570831299,-0.25489500164985657,1.6270227432250977,0.4683997631072998,-0.9784455299377441,-1.1848267316818237,-0.23228223621845245,-0.8905960917472839,-0.22615714371204376,0.6491578221321106,-1.4605695009231567,0.560452938079834,0.2718595266342163,-0.4711182713508606,2.1279354095458984,0.5019721984863281,-0.3615957200527191,0.5589835047721863,0.1969943642616272
whiskey,0.39635998010635376,-0.5397697687149048,0.467132568359375,-1.7272485494613647,-0.4850962460041046,-0.7265897393226624,-1.6054004430770874,-2.0106499195098877,1.365333914756775,1.8044124841690063,-0.3207811713218689,0.4103420674800873,1.2293264865875244,0.1769486665725708,-1.0185171365737915,0.11825565993785858,-1.196541666984558,-2.221909761428833,-0.6140115261077881,0.838330864906311,1.9660242795944214,-1.3877061605453491,0.3137197196483612,1.0519912242889404,0.7049857378005981,-1.263967514038086,0.03922310099005699,1.1429258584976196,1.464690089225769,0.5812808275222778
fried_pork,-0.659318208694458,2.933614492416382,2.798265218734741,-0.04134228453040123,0.5182873606681824,-0.9372479915618896,-1.3259974718093872,1.6299351453781128,0.9445669651031494,3.0065839290618896,-0.7975801825523376,1.1049785614013672,-0.26971927285194397,1.9413164854049683,0.6685483455657959,1.432221531867981,-0.14788322150707245,-1.2147681713104248,-1.205032229423523,-0.11350534111261368,0.8766492605209351,-1.7688477039337158,0.05578089877963066,0.5454436540603638,1.081112027168274,1.5490580797195435,0.07370080053806305,-0.6173502206802368,-1.1353195905685425,-0.3456577956676483
rapeseed,0.02973339334130287,-0.8611396551132202,0.025158675387501717,1.3188401460647583,-0.48195838928222656,-0.5191473960876465,0.46110644936561584,0.938303530216217,-0.470666766166687,0.13056975603103638,1.0234228372573853,1.0445865392684937,2.9218170642852783,1.914740800857544,0.32693448662757874,-0.772265613079071,1.0104100704193115,-0.4398455023765564,-1.631241798400879,0.8352765440940857,2.2711732387542725,-0.4432687759399414,1.5269695520401,-2.3394594192504883,-0.6758615970611572,0.9777422547340393,-0.9934686422348022,1.7142738103866577,0.7256801724433899,-0.15299566090106964
caraway,-0.5378541350364685,0.30927616357803345,0.1728367954492569,0.46131137013435364,-1.1560767889022827,1.3903061151504517,0.6989768743515015,1.8452303409576416,-0.19463098049163818,1.0503102540969849,1.2850592136383057,1.7928578853607178,0.7925819754600525,1.7590211629867554,1.8521486520767212,1.489919662475586,0.5604292154312134,-1.6618322134017944,-0.10528039932250977,2.7808523178100586,0.31547489762306213,-1.4635586738586426,1.357662320137024,0.03745899721980095,-1.4033093452453613,-0.5917422771453857,-0.1278991848230362,2.228274345397949,0.3949343264102936,0.28277063369750977
potato,2.9529998302459717,-0.08689769357442856,2.7619073390960693,1.6584787368774414,-3.2149126529693604,-2.6192479133605957,-2.0692672729492188,1.7116665840148926,-0.7376734614372253,0.5420588850975037,1.735954999923706,-0.9914236068725586,0.35995298624038696,1.7063496112823486,-1.6270029544830322,2.340081214904785,-1.4094494581222534,-1.0441902875900269,-1.9510419368743896,-2.240706205368042,0.14887627959251404,-0.4732649326324463,0.2259284108877182,0.04953446239233017,0.7426570653915405,-1.165866494178772,-1.4411979913711548,0.263208270072937,0.2574559450149536,0.9418510794639587
eucalyptus_oil,1.1464017629623413,-2.299323320388794,-1.2281239032745361,1.7404316663742065,-1.6785115003585815,-0.5733475089073181,-0.29518216848373413,0.49710121750831604,-1.2984447479248047,0.15640588104724884,0.998264729976654,2.4373586177825928,1.2655577659606934,0.14069077372550964,1.240173578262329,-0.09496761858463287,-2.451213836669922,0.8340968489646912,-0.9498071074485779,-0.636121928691864,1.3970965147018433,-1.8270189762115479,2.4285974502563477,-0.9093340039253235,0.6577275395393372,0.1158791035413742,-0.9260662198066711,0.9542637467384338,1.6430248022079468,-1.2209721803665161
roasted_beef,-0.4934748709201813,-0.7381089329719543,2.650926113128662,0.7284389138221741,1.395611047744751,-1.3162518739700317,-0.9449219703674316,1.6584157943725586,1.1392579078674316,-0.7642718553543091,0.3693777918815613,-0.8665233850479126,-0.6185534596443176,1.6920257806777954,0.47921499609947205,-1.161041259765625,-1.7466152906417847,0.19174104928970337,-0.8396584391593933,-0.25503823161125183,0.6157037615776062,-1.2791657447814941,0.7375050783157349,0.6007373332977295,0.47645989060401917,1.9209667444229126,0.28773820400238037,-0.35830438137054443,0.714702308177948,0.15879158675670624
fermented_tea,-0.8746217489242554,-1.7498072385787964,0.05623675137758255,-0.9276482462882996,-1.8950986862182617,0.2690992057323456,0.2791144549846649,0.1992427110671997,0.5632808804512024,-0.4498541057109833,-0.42325711250305176,2.153795003890991,-0.5112577080726624,0.3017589747905731,1.437704086303711,1.0141427516937256,-0.841809093952179,0.23686444759368896,-2.2328457832336426,-1.2122665643692017,0.03886284679174423,-0.6437258124351501,2.4146969318389893,0.18687978386878967,-0.5152528285980225,1.2899260520935059,-0.6556780338287354,-0.21462106704711914,-1.0025454759597778,0.18749570846557617
parsley,-1.1319361925125122,-1.1817413568496704,0.8584336042404175,2.0399158000946045,-1.6605740785598755,0.15211567282676697,-1.0436720848083496,0.7973976135253906,-0.743890106678009,-2.5981671810150146,-0.9964349269866943,2.8319268226623535,1.8827264308929443,-0.3374253809452057,1.377956748008728,0.5767072439193726,0.8746587634086609,-1.0560678243637085,-1.4690603017807007,0.8172444105148315,-0.1365744173526764,-1.5785861015319824,0.6011210083961487,-1.6637464761734009,0.6099781394004822,-0.8995751738548279,-0.11143426597118378,1.4260503053665161,1.1568998098373413,-0.5840232372283936
basil,-0.819250762462616,-1.95539391040802,1.864247441291809,1.8446184396743774,-1.204159140586853,0.1280340850353241,-0.5365732908248901,1.0488773584365845,1.1969951391220093,1.2543171644210815,1.3985509872436523,2.1491665840148926,1.3950930833816528,-0.2760513126850128,0.8593029975891113,-0.6089636087417603,-1.0080957412719727,-0.2955892086029053,-0.08041732013225555,1.8552520275115967,1.8635774850845337,0.04839912801980972,1.0039457082748413,0.5733643174171448,-1.421501636505127,0.04161277413368225,-1.324513554573059,2.3339996337890625,0.09502408653497696,-0.9678477644920349
kelp,-0.11842901259660721,-0.7010844945907593,0.5258373618125916,1.3579366207122803,-0.13714461028575897,-1.3233017921447754,-2.2262959480285645,0.7844210863113403,-3.9797399044036865,0.2438211590051651,-0.0706973671913147,1.1200660467147827,0.9198741316795349,2.5201189517974854,-0.90524822473526,1.1292623281478882,1.7435508966445923,0.27628573775291443,-1.8256568908691406,-2.168252944946289,-0.8249025940895081,-3.230687379837036,0.12396962195634842,-0.6061303019523621,0.02218032442033291,2.686480760574341,0.8646736741065979,-1.9999034404754639,1.5311781167984009,0.4456816017627716
grapefruit,-0.8505078554153442,-1.6445491313934326,1.2402849197387695,3.2505557537078857,-0.156467005610466,1.7426592111587524,-0.8647645115852356,-1.2376328706741333,0.9841038584709167,1.7637667655944824,0.5035174489021301,-0.3942779302597046,2.0403428077697754,2.5226786136627197,1.35773503780365,1.0418813228607178,-2.11566162109375,1.3175151348114014,0.327237069606781,1.2443397045135498,1.0076887607574463,-0.3414066433906555,-0.17984113097190857,2.848977565765381,2.287811279296875,-0.403263658285141,1.305752158164978,1.5531595945358276,-1.1746764183044434,1.354957938194275
goat_cheese,0.998819887638092,-0.6748781204223633,2.2889530658721924,-0.8564024567604065,-0.35746464133262634,0.520354151725769,-0.9469798803329468,-0.20617251098155975,-2.403442144393921,2.4168567657470703,-0.4294140338897705,-0.4461394250392914,0.29803773760795593,-0.40038347244262695,0.5505107045173645,1.3336094617843628,-1.938645839691162,-0.6671406626701355,0.6587016582489014,0.5972020626068115,-0.9850127696990967,-2.2088088989257812,0.8488718867301941,-0.6184630990028381,0.6736198663711548,1.92844557762146,1.0630472898483276,2.392026662826538,1.0580101013183594,-0.0471448116004467
ginger,-0.9748895764350891,-1.0127577781677246,-0.6457188725471497,0.601239025592804,0.3260485827922821,-2.3245697021484375,-1.17314612865448,-0.7008600234985352,-0.6878398060798645,0.9734033346176147,-0.07531225681304932,2.767014265060425,1.070348858833313,3.240779399871826,-0.2613857090473175,-0.19830083847045898,0.8375037908554077,0.657823920249939,-0.8540233969688416,1.5056748390197754,-1.1793349981307983,-0.2711344361305237,1.032817006111145,-0.5652089715003967,-1.0185374021530151,-0.3714895248413086,0.11156952381134033,1.6911035776138306,-0.159118190407753,-0.5401891469955444
seed,-0.8146377205848694,-1.7040537595748901,0.5865159630775452,-0.47620144486427307,-0.39375731348991394,-0.29241064190864563,0.10498640686273575,1.3735442161560059,-1.3429173231124878,0.5238980054855347,0.6803023219108582,0.5951610207557678,2.035740852355957,2.8539013862609863,0.8283808827400208,-1.0636811256408691,1.2681409120559692,0.5661150217056274,-2.76654314994812,1.483988881111145,1.683300256729126,0.8094443678855896,1.4981598854064941,-0.9838894009590149,-1.0532538890838623,-0.04875947907567024,0.3205491602420807,1.5479846000671387,-0.3871334195137024,-0.7678786516189575
mint,-2.2941482067108154,-1.240810513496399,1.4060239791870117,-0.590230405330658,-2.336981773376465,0.1920180320739746,-0.8199637532234192,1.6870465278625488,-2.143463134765625,0.0636778399348259,2.140108108520508,0.758436918258667,1.5872594118118286,1.9091110229492188,1.8640503883361816,1.4311968088150024,0.534481942653656,-0.6270671486854553,-0.20158466696739197,-3.523218870162964,-0.24532830715179443,-0.8713079690933228,0.6911992430686951,-0.7529816627502441,-1.054791808128357,-0.1966766119003296,0.4613911509513855,-0.2125346064567566,-0.8768593668937683,-0.5071825385093689
endive,0.909976601600647,1.117114782333374,1.2300937175750732,1.611844539642334,0.24247382581233978,-0.7414939403533936,-2.120681047439575,-1.0588566064834595,-3.2569336891174316,-1.5341371297836304,-0.2944105863571167,0.5448920130729675,0.7978070974349976,0.9657429456710815,2.434093713760376,0.7755516767501831,-1.2237211465835571,1.146761178970337,-2.8588085174560547,0.38132065534591675,-0.45556753873825073,-0.4142111539840698,0.8642851114273071,2.0863451957702637,0.7303357720375061,3.109062671661377,-1.120182991027832,-0.3257605731487274,-0.667609453201294,-0.025540437549352646
herring,-1.21699857711792,-0.4405381381511688,2.544562578201294,0.622727632522583,-1.865667700767517,-0.5950234532356262,0.11252862960100174,0.26093432307243347,-1.5665576457977295,0.8700298070907593,-1.8798326253890991,-1.0687037706375122,2.6339869499206543,1.8962979316711426,1.099960207939148,0.5530157089233398,2.07580304145813,0.426265150308609,0.8742467164993286,0.24836070835590363,1.8207759857177734,-0.9074245691299438,1.783909559249878,-0.5307629108428955,0.9947508573532104,1.8185449838638306,-0.9005066156387329,-0.3001645803451538,1.5809787511825562,0.2939145565032959
fish_oil,-0.3813742697238922,-1.7044275999069214,0.9899027943611145,1.0060445070266724,-1.8298169374465942,-1.6059439182281494,0.14479558169841766,0.5909885764122009,-2.2391746044158936,0.2980223596096039,-1.2862045764923096,-0.06859873235225677,1.6573283672332764,0.32144472002983093,2.153905153274536,-0.9365859627723694,0.6756067872047424,1.2450940608978271,0.847406268119812,0.10657177120447159,0.8690157532691956,-1.7898154258728027,1.4296510219573975,-0.3588372468948364,1.9048739671707153,2.399737596511841,-1.2058855295181274,-1.6054940223693848,0.34338468313217163,0.6101018190383911
roquefort_cheese,1.189149022102356,-2.276858329772949,1.4500939846038818,-1.240863561630249,-0.27130118012428284,0.04607090353965759,-0.48515376448631287,0.020898325368762016,-2.1202683448791504,2.2565157413482666,-0.17533433437347412,-0.9346221089363098,0.050275687128305435,0.49589577317237854,0.4776681959629059,0.7343806028366089,-1.4800752401351929,-1.9479668140411377,0.3575487434864044,0.602611243724823,-0.758506178855896,-2.578766345977783,1.2864285707473755,-0.9474228024482727,0.975062906742096,1.7307567596435547,1.69110107421875,2.214947462081909,1.0189932584762573,0.4587804675102234
hog_plum,-0.1638578176498413,1.7412700653076172,1.6191141605377197,-2.55232834815979,-2.0669853687286377,0.28189817070961,-0.514240026473999,-1.4523954391479492,-0.567855179309845,-1.0686370134353638,1.2594785690307617,0.8318415284156799,3.3784379959106445,1.1044185161590576,1.040606141090393,-1.8474496603012085,0.8959869742393494,-0.06332169473171234,-0.49671050906181335,0.8876054286956787,-0.7040170431137085,-0.4277547001838684,-0.02379600889980793,2.46986722946167,-0.5221611857414246,1.4285751581192017,-0.2673102021217346,0.8627629280090332,-0.08657296746969223,-0.14173856377601624
cabernet_sauvignon_wine,1.5672980546951294,-2.5477750301361084,1.2194920778274536,-0.9281637072563171,-0.4325416684150696,-0.6809706091880798,-0.5725961327552795,0.1661025881767273,1.0277756452560425,1.2207485437393188,-2.573979377746582,2.5151543617248535,0.5386695861816406,0.2737511396408081,2.7547447681427,-1.3308876752853394,0.18056993186473846,-2.1251261234283447,0.16532672941684723,-0.6018243432044983,-1.843829870223999,0.1927109956741333,0.15170487761497498,1.0422168970108032,1.1517975330352783,-0.17094005644321442,0.6788838505744934,-0.33094313740730286,1.6499828100204468,0.40896695852279663
cured_ham,-1.1030794382095337,-0.1910964995622635,0.9251530766487122,-1.323955774307251,1.208019495010376,0.15001480281352997,-3.172609567642212,3.0356881618499756,-0.9778884053230286,0.0538673996925354,-2.80912184715271,-0.5923017263412476,1.158384919166565,1.7266124486923218,0.7687869668006897,0.6792244911193848,-1.0613118410110474,-1.2559736967086792,-1.1211801767349243,0.5019543170928955,1.0067598819732666,-1.7144392728805542,0.7085634469985962,-1.5685672760009766,2.9113097190856934,0.6226198077201843,0.3614647686481476,-0.3620464503765106,-1.7373735904693604,-1.0143707990646362
wheat_bread,0.38170579075813293,-0.4717560112476349,0.5585765242576599,0.30544954538345337,-0.5240108370780945,-0.17536069452762604,-1.5053070783615112,0.10395687073469162,-0.3740307092666626,0.9647083878517151,-0.5970444679260254,-0.37179791927337646,-0.832697331905365,-0.3767150342464447,0.615136981010437,0.597919225692749,-0.15771980583667755,-0.5134974122047424,-0.7178856134414673,0.6437025666236877,1.4374438524246216,-3.756253242492676,1.2136846780776978,0.09919439256191254,-0.3051334321498871,0.036957576870918274,1.3874520063400269,-1.9949434995651245,1.2161747217178345,2.927480697631836
celery_seed,-0.09454620629549026,-0.4970775544643402,-0.3622218072414398,0.4811474680900574,-1.4336066246032715,-0.5588405728340149,0.5011300444602966,1.54887056350708,-0.8944690823554993,1.2889385223388672,2.7002999782562256,1.1314865350723267,1.3946750164031982,-0.29747530817985535,1.2308731079101562,0.8257924914360046,1.0278122425079346,-0.3418249785900116,0.30138805508613586,-0.9890912175178528,2.270956516265869,-2.2625420093536377,1.2276936769485474,1.1499791145324707,1.006089687347412,-0.8763900995254517,0.870885968208313,2.0853238105773926,1.249089002609253,-0.23389612138271332
wort,0.8878260254859924,-0.5116817951202393,1.8504998683929443,0.06666737049818039,0.2916746735572815,0.5607219934463501,-1.2550437450408936,1.067125916481018,-1.6201404333114624,0.7146766185760498,-1.7332721948623657,-0.519614577293396,-1.909608006477356,2.2147114276885986,2.273974895477295,0.7211610674858093,1.1300575733184814,0.8564881086349487,0.37810805439949036,-0.9659932255744934,0.2468528002500534,-0.3348456919193268,1.2221745252609253,2.1724660396575928,-3.0641236305236816,0.9623758792877197,2.4971487522125244,-1.1761796474456787,1.718549132347107,1.8001428842544556
caja_fruit,-0.23987160623073578,-0.3050757348537445,0.10096286982297897,-0.9125534296035767,-1.0149246454238892,-0.15331698954105377,-0.46938371658325195,0.2400062084197998,-1.9716651439666748,1.5066875219345093,0.6894656419754028,1.8533000946044922,3.6548404693603516,1.5622622966766357,0.2744140625,-0.1838516741991043,2.199100971221924,-2.4311530590057373,0.9275695085525513,1.9655390977859497,1.1305313110351562,-0.6011291742324829,-1.3449205160140991,0.21699990332126617,-0.4010753035545349,1.2752255201339722,0.3807111084461212,-0.28304004669189453,-1.375643253326416,0.03766404092311859
smoked_sausage,0.3833272457122803,0.7632040977478027,1.7210811376571655,-3.3843636512756348,-1.3942785263061523,-0.34392234683036804,-3.1390435695648193,2.4507176876068115,-0.8943066596984863,0.4090445935726166,-1.7918685674667358,0.08433634042739868,2.325836658477783,1.5812500715255737,0.30716201663017273,1.5445046424865723,-0.01480571273714304,-0.9734300971031189,-0.9145947098731995,0.1513303816318512,0.9492740631103516,0.6445024013519287,-0.01132976170629263,-1.703853964805603,2.7969274520874023,0.6425812244415283,0.9789387583732605,-0.5449118614196777,-1.4441817998886108,-2.175848960876465
pecan,-1.2968406677246094,0.16017596423625946,-0.39857596158981323,0.5864360928535461,0.7150528430938721,2.004744529724121,-0.7025121450424194,0.922169029712677,-2.305863380432129,-2.2672033309936523,-1.6191822290420532,-0.7450757026672363,0.2154187113046646,1.9967752695083618,2.0397872924804688,2.283832550048828,0.055578939616680145,-3.0861496925354004,-1.1468095779418945,0.6519147157669067,1.7555770874023438,-0.5736243724822998,1.5722856521606445,0.22298027575016022,1.863661289215088,1.1231683492660522,1.9364526271820068,-0.17516233026981354,-0.46094679832458496,1.0197314023971558
citronella,0.21853023767471313,-1.5314236879348755,1.9741308689117432,-0.9524043798446655,-0.8960562348365784,-0.6888574957847595,-0.525690495967865,1.561845302581787,-1.2459379434585571,-1.361789584159851,-1.0750619173049927,0.18257075548171997,0.8610309958457947,0.4554799497127533,-1.4719082117080688,0.8792532086372375,1.5240741968154907,1.669711947441101,1.209623098373413,-0.6645563840866089,0.868871808052063,-0.9320895075798035,0.15782661736011505,1.832762360572815,0.08622792363166809,0.4195566177368164,-0.4662165939807892,0.421237975358963,-0.40786513686180115,-1.6759446859359741
muscadine_grape,1.2669150829315186,-1.478941798210144,-0.6817375421524048,-1.7693939208984375,-1.3141790628433228,0.1476399302482605,-1.8728063106536865,-0.025090709328651428,-1.409522533416748,1.7978661060333252,0.582030713558197,-0.7003254890441895,2.1091105937957764,1.4656740427017212,2.4493026733398438,-0.26248353719711304,-0.40170350670814514,0.40716230869293213,0.4070607125759125,0.04530945047736168,-1.1851445436477661,-1.092843770980835,-1.180855393409729,2.1412177085876465,-1.4951831102371216,2.419936418533325,-1.1329941749572754,-1.4525983333587646,-2.1753594875335693,0.5046671032905579
cassava,0.8912327289581299,-0.7710702419281006,0.7377411127090454,0.2968113124370575,-1.5013359785079956,-1.657681941986084,0.6002683043479919,-1.414952039718628,-0.9600024223327637,-0.6103310585021973,-0.7252944707870483,-1.9909884929656982,1.3695127964019775,0.0933072417974472,2.296304225921631,2.6063034534454346,-0.9355912208557129,-0.18954069912433624,1.1694626808166504,-0.9977525472640991,0.28984954953193665,-2.337251901626587,1.0597031116485596,-0.24948623776435852,-0.26915472745895386,1.1675989627838135,1.3409184217453003,-0.6670680046081543,-1.4515268802642822,-0.5056147575378418
black_chokeberry,1.4069808721542358,2.4921112060546875,0.9374378323554993,0.09620273858308792,-2.497020721435547,1.4184750318527222,0.4355885684490204,1.6549619436264038,-1.0682947635650635,0.03853743150830269,-0.7095335721969604,1.1805888414382935,1.2476325035095215,0.6020048260688782,2.116971969604492,-1.263540506362915,1.027438998222351,-0.5892494916915894,-1.875532865524292,-0.3098178803920746,0.6488980650901794,-3.1235358715057373,-0.2187650203704834,1.7982840538024902,0.8279900550842285,-1.2384439706802368,0.01633640006184578,0.7539262175559998,-1.4748536348342896,1.0389668941497803
vanilla,-0.20671527087688446,-0.04483826085925102,0.6572430729866028,-1.100134015083313,0.5921676754951477,-3.2571988105773926,-2.467324733734131,-1.648472547531128,-1.992571234703064,0.6391278505325317,-0.8491393327713013,1.1742080450057983,0.327091246843338,-1.184982419013977,-0.18890024721622467,-0.7505615949630737,-1.236261248588562,0.5787400603294373,-0.9777033925056458,-1.538460373878479,1.8016051054000854,-1.1744606494903564,0.3275758922100067,2.2751781940460205,-1.9372100830078125,0.711558997631073,-0.03619491308927536,0.9564417600631714,-0.22941181063652039,1.0335042476654053
frankfurter,-1.1469999551773071,1.4240291118621826,1.1804704666137695,-2.044945001602173,-0.330323189496994,-1.372238039970398,-2.7472033500671387,2.7484097480773926,-2.3777520656585693,-0.4476955235004425,-1.976127028465271,1.4116389751434326,0.9938627481460571,1.506327748298645,0.5685555338859558,2.089643955230713,-1.4285720586776733,-1.158415675163269,-0.7754927277565002,-0.053075794130563736,0.8559510111808777,-1.5412615537643433,-0.043617092072963715,-2.282268524169922,2.4828081130981445,0.1342650204896927,1.4150515794754028,-1.216896414756775,0.11876288801431656,-0.8706318736076355
corn,1.017038106918335,-1.6004767417907715,-0.5167102813720703,0.41979408264160156,-1.3957699537277222,-2.1106204986572266,-1.9275521039962769,0.8585140109062195,1.4788514375686646,0.45654183626174927,-1.5036587715148926,0.05621359869837761,1.4421859979629517,-0.32998600602149963,-0.9440770149230957,1.2875970602035522,-0.4452362060546875,0.059043608605861664,-0.35859179496765137,-1.7321175336837769,-0.33020034432411194,-0.6402639746665955,1.4928843975067139,-0.46773654222488403,0.010871641337871552,-0.4465664327144623,3.303046703338623,0.1153753399848938,-0.34861236810684204,1.6991767883300781
cured_pork,0.2585582435131073,-0.29407504200935364,0.44661271572113037,-0.20116429030895233,-0.34490418434143066,-1.9464404582977295,0.20238706469535828,-0.2688940167427063,1.6866403818130493,1.7524970769882202,0.10507229715585709,0.2590634524822235,-0.5380657315254211,2.193497657775879,1.258078694343567,-0.874592661857605,0.8048495054244995,-1.550997257232666,-2.0308756828308105,1.6523971557617188,2.134622812271118,-1.0855693817138672,1.0975337028503418,-1.5378925800323486,0.4482158422470093,1.739159345626831,1.534181833267212,0.23243781924247742,-1.2809996604919434,-0.9916900992393494
seychelles_tea,-1.2384740114212036,-1.4446542263031006,0.4577234387397766,-1.1202131509780884,-1.956675410270691,1.1037476062774658,0.6083474159240723,-0.3265855014324188,0.24678418040275574,-0.4037603437900543,-0.7597646117210388,1.3723783493041992,-0.15547625720500946,1.765805721282959,0.7688663005828857,1.9474787712097168,-1.2185823917388916,-0.27475443482398987,-1.8530842065811157,-1.4519017934799194,0.8784651756286621,-0.8986521363258362,1.5106441974639893,1.2153533697128296,-1.357226014137268,1.2054736614227295,-0.6153989434242249,0.16560089588165283,-1.007482886314392,0.8232946991920471
nut,0.4204069972038269,-0.9241442084312439,1.7058974504470825,-1.3380422592163086,-1.5057913064956665,0.35998374223709106,-1.578615427017212,-1.2406429052352905,0.1778026968240738,-2.2414755821228027,0.9508144855499268,-0.7048028707504272,2.115302085876465,2.096715211868286,1.0424096584320068,-1.186630129814148,-2.8076071739196777,0.2761969268321991,-1.890315055847168,1.803724765777588,1.813066840171814,-0.6688085198402405,1.9150844812393188,1.2849830389022827,1.7563890218734741,0.4255068600177765,3.5041377544403076,0.7242259383201599,-0.004609316121786833,-1.912609577178955
dwarf_quince,1.7615249156951904,-0.10529908537864685,-0.9468401670455933,-0.1620735377073288,-2.555372714996338,-0.7060354351997375,-0.430632621049881,0.7280209064483643,-1.1971899271011353,-0.7110005021095276,0.37024232745170593,-0.30213698744773865,0.5754029154777527,3.368438243865967,1.170791745185852,-1.0925387144088745,-1.271776556968689,-2.7476611137390137,2.0618529319763184,0.6660862565040588,-0.031489573419094086,0.948146641254425,-0.16502951085567474,3.2066268920898438,0.06562523543834686,1.6191762685775757,0.1810348480939865,-1.0302890539169312,-1.0276811122894287,-0.5163291096687317
hazelnut,1.0116443634033203,1.903218150138855,1.0150177478790283,-1.6567541360855103,-1.1491682529449463,0.7778548002243042,-3.3978757858276367,0.9308398962020874,-1.5114110708236694,-2.240591526031494,-0.5620666146278381,0.8280647993087769,2.3412225246429443,0.05817902088165283,2.1704604625701904,-0.8127502799034119,-2.667329788208008,0.5903851985931396,-1.4227635860443115,1.8969658613204956,2.0033209323883057,-0.27809998393058777,0.8001583218574524,1.7961214780807495,-0.3316993713378906,1.6855270862579346,3.6392788887023926,2.1391000747680664,0.7304818034172058,0.08742865175008774
sauvignon_grape,1.3950085639953613,-2.1074769496917725,-0.748613715171814,-1.5365619659423828,-1.5038704872131348,-0.018687916919589043,-2.365802526473999,-0.5978831648826599,-1.0309233665466309,1.8743916749954224,0.6978118419647217,-0.08812914043664932,2.0568065643310547,1.521721363067627,2.677027940750122,-0.5629335641860962,-0.6293771266937256,0.5423738360404968,0.2193269282579422,-0.18782885372638702,-1.2224684953689575,-1.111987829208374,-0.7356257438659668,1.6912728548049927,-0.57363361120224,2.3620123863220215,-1.0785448551177979,-1.3550752401351929,-2.448113441467285,0.7110947966575623
feijoa,1.9326834678649902,-0.5401367545127869,-1.6442818641662598,-0.7108307480812073,-0.5249650478363037,-1.4659651517868042,0.8314557075500488,-0.47062456607818604,-1.6028556823730469,-0.9293347001075745,-0.12651178240776062,1.748948335647583,1.4064223766326904,2.412407398223877,0.30560633540153503,0.14204183220863342,1.3592194318771362,-1.2517948150634766,0.8872053623199463,2.557842254638672,2.118311643600464,0.44073736667633057,-0.02469298057258129,0.8391615152359009,-0.21944862604141235,1.2498259544372559,-0.06644557416439056,1.9173803329467773,0.06749358773231506,0.4475030303001404
krill,-0.28279778361320496,-0.500111997127533,-0.35561272501945496,-0.2880406081676483,-0.14850133657455444,-2.034820556640625,-0.43074673414230347,1.6791011095046997,-0.8401442170143127,-0.9009860754013062,-1.8069818019866943,-0.7383184432983398,1.3654859066009521,0.4816252589225769,3.4762909412384033,1.8529860973358154,-1.143622875213623,-1.9606654644012451,0.35488343238830566,-0.7246242761611938,-0.14955225586891174,-0.8680329918861389,-0.44301173090934753,-0.21332618594169617,-0.034378036856651306,0.6481419801712036,1.052700161933899,-2.309377431869507,1.768081784248352,0.8744580745697021
walnut,-0.46138250827789307,1.040945291519165,2.518228530883789,-0.26721811294555664,-2.6383755207061768,-1.7391749620437622,-1.8239465951919556,0.19592641294002533,-0.9170058965682983,-1.6702446937561035,-0.6120340824127197,-1.2280726432800293,1.6400192975997925,0.3258938193321228,1.1982446908950806,-2.0335569381713867,-0.5903422832489014,0.03931039571762085,-1.0844604969024658,1.8392274379730225,0.2165934145450592,0.3992568254470825,1.0480042695999146,0.6420260071754456,-0.8791662454605103,2.4659576416015625,2.9022417068481445,-0.46457773447036743,-0.5378670692443848,-0.004379028454422951
crownberry,2.3114676475524902,1.1679450273513794,1.8405702114105225,0.3721238076686859,-1.9630436897277832,-0.961051344871521,1.0889533758163452,-0.40560054779052734,-2.7140793800354004,-0.5817187428474426,0.020259013399481773,2.506728410720825,1.9019609689712524,2.0746304988861084,1.6153833866119385,-0.8671033382415771,1.0936280488967896,-0.13191474974155426,-1.1834272146224976,0.7454715371131897,0.9674442410469055,-1.4983068704605103,0.4520593285560608,1.018257737159729,1.6176320314407349,-1.1013518571853638,0.8425323367118835,1.85306978225708,-2.413001775741577,0.0947037860751152
lean_fish,-2.5038483142852783,-0.29387134313583374,2.095000982284546,0.9258670210838318,-1.5758552551269531,-0.48871099948883057,0.7089362144470215,-1.1190335750579834,-1.2721247673034668,0.3695424795150757,-1.3192481994628906,-1.0019755363464355,1.6632715463638306,2.8986592292785645,1.2559990882873535,1.0219980478286743,3.1039586067199707,-1.4014663696289062,1.2144513130187988,-0.32262513041496277,1.563202977180481,-1.1376274824142456,0.8320528268814087,0.6653048396110535,1.8280712366104126,1.5752755403518677,0.28409725427627563,0.9630751609802246,1.5971065759658813,0.9104106426239014
east_african_geranium,-0.21521320939064026,-0.08311762660741806,1.6073291301727295,-0.92594313621521,-1.6993581056594849,-0.3190584182739258,-2.6446311473846436,-1.5738996267318726,-0.24844031035900116,0.804436445236206,1.3023533821105957,-0.7898504137992859,2.3004212379455566,0.24807824194431305,-0.012373463250696659,-0.5531041622161865,0.2625423073768616,-0.18657663464546204,-0.26005977392196655,0.619973361492157,0.9785344004631042,-1.2934184074401855,2.630758762359619,0.9548099040985107,-0.4345734417438507,-1.66051185131073,-0.5729026794433594,0.9596152305603027,-1.5867236852645874,-0.10935366153717041
roasted_coconut,0.7347447276115417,1.1456042528152466,0.3412463366985321,-1.1365082263946533,-0.7361719012260437,-1.136613368988037,-1.6832283735275269,-1.625780701637268,-0.9660084843635559,-0.10684478282928467,-1.8811331987380981,1.3511866331100464,-0.22490917146205902,1.9510289430618286,-1.501064658164978,2.664731025695801,-0.29327091574668884,-2.0439205169677734,1.1401177644729614,0.14356563985347748,1.0465518236160278,-1.6384271383285522,1.2846125364303589,0.2598722577095032,-0.15485918521881104,2.1266801357269287,2.117215871810913,0.801546573638916,1.5133585929870605,0.729806125164032
artichoke,-0.42734619975090027,1.4977290630340576,1.4007980823516846,0.8257319331169128,1.178234577178955,0.08843599259853363,0.10851892083883286,1.2311267852783203,-1.4200124740600586,2.395115375518799,0.6624302268028259,1.575295329093933,2.340113878250122,0.7991951704025269,1.4383503198623657,-0.07576165348291397,-0.0035179632250219584,0.12393021583557129,-0.11901886761188507,0.3749021291732788,0.9188714623451233,0.745156466960907,2.4663891792297363,0.9488707184791565,2.3151583671569824,1.8743807077407837,-0.24880342185497284,0.06302214413881302,-0.9829058647155762,0.17995992302894592
caviar,-2.675553321838379,0.10886269062757492,0.8827300071716309,1.474439263343811,-0.6749678254127502,-1.5411931276321411,-1.4132715463638306,0.22184771299362183,-1.1428653001785278,1.2051821947097778,0.7434164881706238,0.5338621735572815,-0.6612605452537537,0.6912220120429993,2.4209752082824707,1.8831719160079956,-0.7475845217704773,-0.7726113796234131,1.4429810047149658,2.190363883972168,1.8180266618728638,-0.6382961273193359,0.019463514909148216,-1.4025540351867676,0.05926153063774109,3.7360246181488037,-0.3219974637031555,0.8061022758483887,0.4978223145008087,2.0501184463500977
beer,2.036944627761841,-1.0508161783218384,0.6970822811126709,-1.2878903150558472,1.1854087114334106,-0.22423021495342255,-1.8708866834640503,-0.0802648589015007,2.0719172954559326,0.7173354625701904,1.1489806175231934,0.8173369765281677,0.870539128780365,2.133444309234619,1.0462639331817627,2.00771164894104,1.8830044269561768,0.3734981119632721,-0.7354260087013245,-0.6283971667289734,-1.3710461854934692,-1.4177783727645874,-0.16216851770877838,0.45783814787864685,0.3453606367111206,0.5965442061424255,1.7009586095809937,-0.7236613035202026,1.2341303825378418,0.5092131495475769
rose_apple,0.30075982213020325,0.11225792020559311,1.5041062831878662,-1.203264594078064,-0.48847731947898865,0.3735808730125427,-1.3034000396728516,1.8553885221481323,-2.420933723449707,-0.8532105684280396,0.569936990737915,1.000351905822754,1.881953477859497,1.1243683099746704,-0.5069332122802734,-0.5373868346214294,-0.10444667935371399,-0.36609917879104614,0.5920843482017517,-0.45683446526527405,-0.909859836101532,-0.37834659218788147,-2.0715365409851074,1.3369497060775757,-2.131816864013672,0.23710335791110992,2.4057559967041016,-1.576930046081543,-1.1955058574676514,1.314711332321167
sturgeon_caviar,-1.004597544670105,-0.6594456434249878,1.0971481800079346,1.2562828063964844,-0.8417185544967651,-1.7028864622116089,-2.1701745986938477,0.7761527895927429,-1.0251392126083374,1.6291074752807617,0.007742696907371283,0.06307341158390045,-0.668897807598114,1.0586236715316772,1.613761067390442,0.9842495322227478,-1.4502052068710327,1.1647504568099976,1.5054357051849365,2.80351185798645,1.5242090225219727,-1.2054612636566162,0.22250601649284363,-1.1671043634414673,-0.16472066938877106,2.5041518211364746,-1.2735891342163086,-0.06577257812023163,0.4893272817134857,1.5790235996246338
cypress,0.5434829592704773,-2.4279284477233887,0.9144089818000793,-0.38069581985473633,-0.4942200481891632,1.5910910367965698,1.1317635774612427,2.3761281967163086,-0.5093026757240295,0.8770381808280945,0.02629016526043415,0.26801955699920654,0.9915615320205688,0.6532489061355591,0.3425610065460205,0.5404903292655945,1.9681333303451538,-0.3580508828163147,-1.2365097999572754,0.17060349881649017,1.5248891115188599,-2.392080783843994,0.8508033156394958,0.4507928788661957,-1.0761492252349854,-0.5881577730178833,-0.02634686790406704,0.8312743306159973,1.5020051002502441,-0.6269645690917969
hyacinth,-1.3299808502197266,1.900936484336853,1.8431333303451538,-0.4520170986652374,-1.3371362686157227,-0.8400657176971436,-2.43460750579834,-0.5848256945610046,-0.4069044589996338,-0.1139431744813919,0.7386345267295837,1.344342589378357,1.3431154489517212,0.46224871277809143,1.0167592763900757,-1.2156834602355957,-0.8959117531776428,-0.2974318265914917,0.0381617434322834,-1.0745197534561157,0.9815022945404053,-1.8791141510009766,-0.2514227628707886,0.9414321780204773,1.73917555809021,-1.6437480449676514,-1.6513193845748901,2.6352455615997314,-0.1359463632106781,0.2434915155172348
rose_wine,0.8874512314796448,-1.9355415105819702,1.7749940156936646,-2.0016300678253174,-0.4444309175014496,-0.5665056109428406,0.49072232842445374,0.9282935261726379,-0.03421047329902649,0.8302969932556152,-3.148925304412842,2.104161024093628,1.5792946815490723,0.32877546548843384,2.422905921936035,-1.678748607635498,-1.6206191778182983,-1.8629534244537354,-0.44124001264572144,-0.8777753114700317,-1.3134969472885132,0.006586771924048662,-1.368167757987976,1.1343650817871094,0.19448138773441315,-0.23213620483875275,1.729642391204834,-0.5680379271507263,1.4682015180587769,1.1814156770706177
apricot,-0.24169963598251343,-1.489158034324646,-0.7082564234733582,0.25575822591781616,-0.15268082916736603,-1.0772881507873535,-0.46385130286216736,-0.28885963559150696,-0.39978834986686707,-0.3224218189716339,1.4374717473983765,1.6416481733322144,0.0009241286315955222,1.6640918254852295,-0.9514085054397583,0.4757719337940216,0.6365604996681213,-1.0176283121109009,1.087978482246399,-0.13206543028354645,-0.9959662556648254,-2.379391670227051,0.34907233715057373,2.187244176864624,2.531932830810547,-0.9458562731742859,0.13653267920017242,-0.3997029662132263,-0.9625419974327087,0.6837193965911865
peppermint,-1.2737447023391724,-3.3460330963134766,2.4296348094940186,-2.6217358112335205,-1.906571865081787,0.9765504598617554,-0.970031201839447,2.808192491531372,-1.2822937965393066,-0.5582027435302734,1.272660255432129,1.5417088270187378,-0.47475138306617737,0.7121379375457764,0.7424383759498596,0.7666541337966919,0.2285003960132599,-2.0939440727233887,0.9159650802612305,0.9568100571632385,2.0786619186401367,-0.003842669539153576,-0.25106480717658997,-0.5358385443687439,-1.7089232206344604,-1.5192769765853882,-0.6111118793487549,0.42328402400016785,0.6010645031929016,0.2380342036485672
dill,0.5603483319282532,-0.5723903179168701,-0.7705866098403931,0.9804949760437012,-1.0232843160629272,-1.4680566787719727,0.9602582454681396,1.1486719846725464,-1.221039891242981,0.6240636706352234,-0.4018537998199463,1.082060694694519,1.039152979850769,0.6150650978088379,0.35844942927360535,-0.5334320068359375,1.0443365573883057,-0.7138059139251709,-2.675274133682251,1.137182354927063,1.1684319972991943,-0.76303631067276,0.9257077574729919,-0.003860846860334277,0.12860184907913208,-2.366492748260498,-0.332581102848053,0.621427059173584,-0.27975165843963623,0.20591731369495392
cheese,1.333325982093811,-1.2506930828094482,1.1676708459854126,-0.7211645841598511,-0.1984398365020752,0.10008789598941803,-1.5017238855361938,0.7123084664344788,-1.667913556098938,2.439361333847046,-0.8920038938522339,-0.46117842197418213,0.5458802580833435,-0.0036060609854757786,0.1209338903427124,1.1831467151641846,-1.9211928844451904,-1.1739674806594849,1.097650408744812,0.6031463742256165,-1.2474194765090942,-1.9862194061279297,1.3234344720840454,-0.8144515752792358,0.4697534441947937,1.7245895862579346,0.9731687903404236,1.8017730712890625,0.3588840961456299,0.8969558477401733
wild_bergamot,-1.4784022569656372,-1.2694339752197266,-0.04025430977344513,-2.783479928970337,-0.678575336933136,-1.7338954210281372,-2.588536262512207,-1.2887065410614014,-1.0553474426269531,-1.6121242046356201,0.6196681261062622,1.6474814414978027,2.516749382019043,0.8125460147857666,1.7358413934707642,0.21652981638908386,-0.9248477220535278,-0.348084032535553,0.11143992841243744,3.235440731048584,0.1775684505701065,-1.8295193910598755,-0.9307423830032349,0.032057516276836395,-0.8766788244247437,-1.7674740552902222,-0.47609931230545044,2.0133583545684814,0.47384482622146606,-0.09540808945894241
vinegar,0.30646833777427673,-1.1339856386184692,0.4598762094974518,-1.1556670665740967,0.2525379955768585,-1.089726209640503,-0.9183040261268616,-0.2500506043434143,-0.11378821730613708,-0.6525170207023621,0.8586495518684387,1.4691120386123657,-0.10345819592475891,0.9552800059318542,2.8700807094573975,1.3662935495376587,-2.2581965923309326,-2.9062693119049072,0.2574771046638489,0.06644994765520096,-2.115413188934326,-2.391526222229004,-0.7502145171165466,-0.15732580423355103,0.15977641940116882,-0.9113468527793884,-1.893775463104248,0.4961031973361969,0.29272910952568054,1.8923826217651367
fermented_shrimp,-0.054743215441703796,0.849815309047699,0.8813798427581787,-0.6100738048553467,-1.94644296169281,-3.2680857181549072,-3.43900465965271,-1.6516035795211792,0.26311197876930237,-0.8890097737312317,0.6290490627288818,1.2713176012039185,0.996913731098175,-0.4917447865009308,1.9817543029785156,1.2351726293563843,-0.7582833766937256,-1.7215232849121094,0.27900803089141846,0.03407857567071915,1.6550496816635132,0.10931481420993805,3.080204486846924,-1.1033101081848145,1.2103577852249146,2.0068678855895996,-0.36286741495132446,-2.032796621322632,1.064516544342041,-0.7319418787956238
mozzarella_cheese,0.8593451976776123,-1.016854166984558,1.6636278629302979,-0.1530914604663849,0.8422297239303589,0.29118719696998596,-1.225437045097351,-0.540341854095459,-1.642425298690796,1.1467386484146118,-0.5524035096168518,0.2997700273990631,-0.010354997590184212,0.4101683795452118,0.8760359287261963,0.5953932404518127,-1.597975730895996,-1.1770799160003662,0.7056401968002319,-0.253194659948349,-1.1487942934036255,-2.7240476608276367,0.8970519304275513,-1.5946673154830933,0.13032673299312592,2.225132703781128,2.0248522758483887,1.278380274772644,0.7167391777038574,1.2270435094833374
cabbage,0.30011141300201416,-0.917980432510376,3.2103703022003174,0.5966074466705322,-1.2006226778030396,-0.20553849637508392,-2.6593894958496094,0.29079169034957886,2.6047980785369873,-1.453521966934204,-0.6693099737167358,1.7561016082763672,0.21210457384586334,-1.1290661096572876,2.0873937606811523,0.29122394323349,-0.058691877871751785,0.7848257422447205,0.5999019145965576,2.7488250732421875,-0.08170300722122192,-3.303638458251953,1.8360655307769775,-0.8344492316246033,0.18166837096214294,-1.1387550830841064,-0.012174767442047596,0.24251344799995422,-0.03576091304421425,0.31722909212112427
kohlrabi,2.338783025741577,0.075947605073452,2.524237632751465,1.1491013765335083,0.11516977101564407,-0.4350945055484772,-1.8819706439971924,1.32805597782135,-0.5893843770027161,0.26453298330307007,1.4072635173797607,0.9807060360908508,-0.30613866448402405,-0.016763625666499138,1.8612414598464966,-0.4305325746536255,-0.3620527982711792,0.01758134737610817,-0.2623763680458069,2.4495675563812256,0.5741709470748901,0.1510641723871231,1.1340516805648804,-0.1835186630487442,2.434896469116211,-0.5838730931282043,-2.591409683227539,-0.9294137954711914,0.5454658269882202,2.0051705837249756
cardamom,-1.0845935344696045,-1.2092208862304688,0.3103457987308502,-0.7144749760627747,0.5325084328651428,1.5324244499206543,-0.39894646406173706,0.16245205700397491,-2.1894614696502686,2.1450891494750977,0.899303674697876,2.6177070140838623,0.9598481059074402,1.2373706102371216,-0.04195697233080864,0.10967988520860672,-0.5434607863426208,1.4329841136932373,-1.602146863937378,2.406035900115967,0.14179924130439758,-1.3504561185836792,2.243406295776367,-0.05534897744655609,0.346020370721817,-0.4308539927005768,-0.18615604937076569,0.5495644807815552,-0.01445589866489172,-1.101592779159546
pork_sausage,-0.8276680111885071,1.24776029586792,1.9978572130203247,-0.10256355255842209,0.5411180257797241,-1.4546380043029785,-1.843953251838684,2.066584587097168,0.4826471209526062,1.9611530303955078,-0.9260457754135132,0.9730179905891418,-0.8997656106948853,0.7604445815086365,-0.16874533891677856,0.13547727465629578,-0.26681241393089294,-1.2747973203659058,-1.147363543510437,0.5309768319129944,1.9739253520965576,-2.0465004444122314,0.8946148753166199,-0.4822269082069397,1.544176697731018,0.8500679731369019,0.37702152132987976,-0.37100937962532043,-1.5812108516693115,-0.03976818919181824
raw_pea,-2.3340349197387695,-2.17828369140625,2.1424052715301514,1.5476467609405518,-2.0896403789520264,-4.104667663574219,-0.7883731722831726,2.306288242340088,-1.490674614906311,0.21614103019237518,0.5052937269210815,0.2752605974674225,0.11413812637329102,-0.39584478735923767,0.09343351423740387,-0.9376203417778015,0.6273893117904663,-2.6114609241485596,-1.4320248365402222,1.8149127960205078,-3.490725040435791,0.4363485872745514,1.3227230310440063,1.0102810859680176,1.9073257446289062,0.6357548236846924,-1.3329881429672241,0.6830205917358398,-0.42133140563964844,0.9560503363609314
cinnamon,0.34937965869903564,0.28232792019844055,0.6100642681121826,-2.2934365272521973,-0.2182203233242035,-0.5945073962211609,-1.799392819404602,-0.1707635521888733,-1.7012935876846313,1.3371084928512573,2.4875268936157227,1.4742897748947144,2.860924482345581,-0.2799150049686432,2.061732292175293,0.9646602272987366,-0.2999914586544037,-0.19335152208805084,-0.07939687371253967,0.044161148369312286,2.1793746948242188,0.9867513179779053,-0.0196697898209095,0.23980218172073364,-2.186615228652954,-0.9532139301300049,0.4909873902797699,1.4666144847869873,-1.0562394857406616,1.8569868803024292
vachellia_farnesiana,-1.4689404964447021,-0.32706862688064575,-0.27785560488700867,0.9958186149597168,-0.904283344745636,0.835151731967926,0.9226882457733154,1.1168097257614136,0.029467863962054253,0.1416206955909729,-0.5375757217407227,2.4577267169952393,0.5204775333404541,1.5041738748550415,-0.24934230744838715,-0.4737091064453125,-1.0464272499084473,-1.2082231044769287,-2.5132060050964355,-0.26189130544662476,1.3490835428237915,-2.291670560836792,0.7689715027809143,1.5291911363601685,-0.3841598927974701,-0.23239995539188385,2.303785800933838,2.0373456478118896,0.41971898078918457,-0.6272775530815125
